,0,1,2,3,4,5,6,7,8,9,10,11,12,13,14,15,16,17,18,19,20,21,22,23,24,25,26,27,28,29,30,31,32,33,34,35,36,37,38,39,40,41,42,43,44,45,46,47,48,49,50,51,52,53,54,55,56,57,58,59,60,61,62,63,64,65,66,67,68,69,70,71,72,73,74,75,76,77,78,79,80,81,82,83,84,85,86,87,88,89,90,91,92,93,94,95,96,97,98,99
商船,0.0014379110652953386,0.004324521403759718,0.004920069128274918,0.00038240529829636216,0.002226416254416108,-0.0020019602961838245,0.003418120788410306,0.0007412699051201344,0.002488810336217284,0.0004812394909095019,-0.002974804025143385,-0.002563176676630974,-0.0017607397167012095,-0.002801615511998534,0.005326831713318825,0.00265379436314106,0.0001688680931692943,0.00291164661757648,0.003150038653984666,-0.0008919768733903766,-0.0002813962637446821,0.004931759089231491,-0.0011978043476119637,0.001404855283908546,-0.0002817533095367253,0.003951014950871468,-0.0011973768705502152,-0.0016964072128757834,-0.0002537005057092756,0.0002815182087942958,0.0041453903540968895,0.00043758683023042977,0.001599833252839744,-0.0015143791679292917,0.0023849080316722393,0.0009080858435481787,-0.0020473883487284184,-0.004196795169264078,-0.0047443523071706295,-0.0053221480920910835,-0.0012581489281728864,0.0037922891788184643,-0.001728914794512093,-1.524930394225521e-05,-0.005506233777850866,-0.004131023772060871,-0.0025860799942165613,0.0015150679973885417,-0.0018437327817082405,0.0012586992233991623,-0.0017931356560438871,-0.001477791229262948,0.004719514399766922,0.00357427797280252,-0.002332037780433893,0.003508806461468339,0.0036940458230674267,2.70442760665901e-05,0.0055435337126255035,-0.003471420146524906,0.0017516822554171085,0.0014365125680342317,-0.002807043492794037,-0.002528485143557191,0.0019212140468880534,0.0011375623289495707,0.0030070990324020386,0.0027246372774243355,0.00385895068757236,0.0040427581407129765,0.0016168043948709965,-0.004195329267531633,-0.0031263278797268867,-0.001841934397816658,0.0034387637861073017,0.0030435838270932436,-0.0004266489122528583,-0.0009285255218856037,0.0028301312122493982,-0.0009928273502737284,-0.0005755584570579231,0.0014757511671632528,0.003961735870689154,0.0036883079446852207,-0.002400672994554043,0.0020987247116863728,0.0039860643446445465,0.001871079090051353,0.00019953824812546372,-0.0009673075983300805,0.0015452003572136164,0.002183148404583335,-0.0002673670242074877,0.00547216460108757,-0.003959118388593197,0.0003970530815422535,0.004938642960041761,0.0022373225074261427,0.004024759866297245,-0.0022544648963958025
三井,0.002993327798321843,0.003312680870294571,0.003972552716732025,0.0007658492540940642,0.0022239494137465954,-0.003840535879135132,-0.0034553634468466043,0.00036956171970814466,-0.004088130313903093,0.0025475064758211374,-0.0028427590150386095,-0.0002572424418758601,0.001721072942018509,-0.004004200454801321,0.002037942875176668,-0.0009239985374733806,-0.0037182250525802374,-0.0038846603129059076,0.0023291318211704493,0.0019593306351453066,-0.0032339494209736586,-0.0016974278260022402,0.003600452793762088,0.0024478116538375616,0.004797800909727812,0.0020698613952845335,2.0588429833878763e-05,-0.004343845881521702,-0.004449861589819193,-0.001907723257318139,0.0015859589911997318,-0.0020152053330093622,-0.004687503445893526,0.00190936669241637,-0.0019784176256507635,0.003960642032325268,-0.00167208188213408,-0.0016586246201768517,0.00112240354064852,-0.00533529557287693,0.0019192805048078299,-0.0028727177996188402,0.0014255938585847616,-0.0005394597537815571,-0.005009284242987633,0.0034055975265800953,-0.0006707282736897469,0.0026204984169453382,0.0006921638268977404,0.0016031682025641203,0.0014726087683811784,0.0015056811971589923,-0.004593791905790567,-0.0005142783629707992,0.001424384769052267,-0.004964983556419611,-0.0031621423549950123,-0.002127876039594412,-0.0008396891644224524,0.003338357899338007,0.0015481103910133243,0.0038321102038025856,0.0017438195645809174,-0.004712668713182211,0.001643739640712738,0.0031935698352754116,-0.0008800223004072905,-0.0027853401843458414,0.00217043561860919,0.0022189696319401264,0.0002166696503991261,0.0026058934163302183,5.082902134745382e-07,-0.001579750794917345,0.0025284476578235626,-0.00010534327884670347,0.004712299443781376,-0.0028729639016091824,0.004040279891341925,0.004513947758823633,0.003062375821173191,0.0008574331877753139,-0.0004797959409188479,-0.0014958663377910852,0.001005154917947948,0.0026973083149641752,0.00041612371569499373,-0.00014331059355754405,0.004299438092857599,0.0012876177206635475,-0.0007438457105308771,-0.0025922267232090235,-0.00433381088078022,0.0007432230049744248,0.0003341681440360844,0.004248176235705614,-0.0026147752068936825,-0.0026544868014752865,-0.0024488363415002823,-0.0028975310269743204
新規,0.0031068583484739065,0.0010164256673306227,0.00027473908266983926,-0.002066805027425289,0.004401742946356535,-0.0027794884517788887,9.364703146275133e-05,-0.0005620438605546951,-0.00028464122442528605,0.0007933492888696492,0.00010516601469134912,0.0006936092977412045,-0.004705543164163828,-0.00279217422939837,-0.0003683342947624624,-0.004740853328257799,-0.004315143451094627,0.0006983607891015708,0.0029491980094462633,-0.004411259666085243,-0.001983783207833767,-0.0022510031703859568,0.0028110018465667963,0.0031905625946819782,-0.0032564334105700254,-0.003505274886265397,-0.0027561327442526817,-0.0007999574881978333,-0.002702962374314666,0.0003730521711986512,-0.0007057756301946938,-0.00047787235234864056,-0.0005615086411125958,-0.002124696969985962,-0.0005167225026525557,-0.004400926176458597,0.00031093944562599063,-0.0047767264768481255,-0.0016299242852255702,-0.004780943505465984,0.0008146269246935844,0.003697067964822054,-0.0015583672793582082,-0.00046726519940420985,-0.0035167408641427755,0.0007719281129539013,-0.0015978490700945258,0.004207612946629524,0.003910641651600599,0.0008509131730534136,0.0017486981814727187,-0.004727999214082956,-0.0035996027290821075,0.003991635981947184,-0.004814975429326296,0.0026825317181646824,0.0019454462453722954,0.0033145120833069086,0.0006354830111376941,-0.004824745003134012,3.2330765407095896e-06,0.0018829129403457046,-0.0005224982160143554,0.0043138605542480946,0.0017541424604132771,0.004662538878619671,0.0045081437565386295,-0.0025216054636985064,0.0016801322344690561,-0.0024576454889029264,-0.0037310044281184673,0.00240946002304554,0.00017366667452733964,0.0004202639975119382,-0.002892476972192526,0.004806378856301308,-0.002590708201751113,-0.0007315977709367871,-0.002189028076827526,-0.003482077969238162,-0.0036669080145657063,0.004295878112316132,-0.0015154503053054214,-0.003209579037502408,-0.003037382150068879,-0.0022181144449859858,-0.0028238841332495213,-0.0005466731381602585,-0.003399425419047475,-0.0021900078281760216,-0.0009353231871500611,0.0034551313146948814,-0.002741963369771838,-0.0006749387248419225,0.0029813258443027735,0.004762732889503241,0.004051986150443554,-0.004683033563196659,0.0010280963033437729,0.004986179526895285
ドライ,0.001528447843156755,-0.0024957507848739624,0.005812456831336021,0.004926357418298721,1.9943472580052912e-05,0.0003387685865163803,0.0029255019035190344,-0.0032060223165899515,-0.003925240598618984,0.0018211208516731858,0.00447268458083272,0.0009012940572574735,0.0010672258213162422,-0.004323419649153948,0.0004559661028906703,0.0024602897465229034,-0.005029831547290087,0.0004082361119799316,0.0013265906600281596,0.0029555459041148424,0.0033923189621418715,-0.0001254058734048158,-0.004417018033564091,0.0007132379105314612,-6.39269346720539e-05,-0.002479664282873273,-0.005092244129627943,0.001910742954351008,-0.003231761045753956,0.0023556193336844444,0.0030542886815965176,0.0032995000947266817,0.0002735083398874849,0.0021322944667190313,0.0030057677067816257,0.0046679056249558926,-0.002977565862238407,-0.004409761633723974,0.0013647079467773438,0.001687389798462391,-0.0047666896134614944,-0.0004480954085011035,-0.004845333751291037,-0.003112101461738348,-0.0004574659396894276,-0.00036454579094424844,0.0012221724027767777,-0.0011210300726816058,-0.002081915270537138,-0.0016165456036105752,0.003351363353431225,-0.0049307337030768394,0.0005315809394232929,-0.00205992185510695,-0.0005706126685254276,-0.0024572298862040043,0.0033616891596466303,0.004716523457318544,-0.00043980806367471814,0.00215879175812006,-0.0007380750612355769,-0.0037393325474113226,0.0005244796047918499,0.001290401560254395,-0.004577075596898794,0.00045135203981772065,-0.004551910795271397,0.0032761553302407265,0.004428217187523842,0.0029390391428023577,-0.0018370875623077154,0.004255846608430147,0.0005111477803438902,-0.0015379547839984298,-0.0026872397866100073,-0.0009177218889817595,0.0013193321647122502,-0.002019873121753335,-0.0033132561948150396,0.0038298037834465504,0.004530091769993305,0.0016112860757857561,-0.004381468985229731,-0.004385740030556917,-0.0031160463113337755,-0.001788248890079558,0.004070881754159927,-0.0021109788212925196,-0.0004476095491554588,-0.0011839481303468347,0.0002780873910523951,0.0006485697813332081,0.0008057791274040937,-0.0020832535810768604,0.002739337971433997,0.00013201392721384764,-0.00020480492094065994,0.00419384241104126,-0.0012822321150451899,0.004717830568552017
市況,0.000992465764284134,0.0005409964942373335,-0.0019155307672917843,-0.0036264064256101847,-0.004275296349078417,0.00038202860741876066,-0.003999595530331135,-0.003529506968334317,0.002538572996854782,-0.003910135943442583,-0.0009469450451433659,0.0010934879537671804,0.0007512543816119432,-0.0006207376718521118,-0.0030910284258425236,0.00011744706716854125,0.004523064941167831,0.0010882701026275754,-0.0028299037367105484,-0.001362925861030817,0.00444420101121068,-0.0006435867981053889,-0.003293730551376939,-0.0037014903500676155,0.00367005355656147,0.00025729078333824873,0.0046785385347902775,-0.00450411019846797,-0.00127646594773978,-0.004906111862510443,0.002117096446454525,-0.002149063628166914,-0.0009564467472955585,-0.0015243032248690724,-0.0020735482685267925,-0.0026035241317003965,0.004117199219763279,0.0016645315336063504,-0.00047805916983634233,0.002807059558108449,-0.0006466062040999532,-0.00407012552022934,-0.0026707137003540993,0.0035860957577824593,0.000291108270175755,0.002630658447742462,0.002068415516987443,3.212571391486563e-05,0.0004978227079845965,0.0004514134780038148,-0.0024175415746867657,0.0022743544541299343,0.002663370920345187,0.001796550233848393,-0.003938158508390188,-0.0036783807445317507,-0.0036355622578412294,-0.004979110322892666,-0.0023597534745931625,-0.003486342029646039,0.0015397517709061503,-0.0017865836853161454,-0.000187241705134511,-0.0034620785154402256,0.0040610842406749725,0.004060371313244104,0.0011293409625068307,0.0044268895871937275,0.0023415128234773874,0.004834751598536968,0.0013769686920568347,-0.0015549646923318505,-0.002845391631126404,-0.00224410742521286,-0.002869192510843277,-0.0027700557839125395,0.0038270449731498957,-0.0026029127184301615,-0.0016314468812197447,0.004312373232096434,0.0024864531587809324,0.004254400264471769,0.0008306106319651008,0.004901042208075523,0.0048340726643800735,-0.0007492546574212611,-0.002156160306185484,0.003669945988804102,0.003590352600440383,6.695850606774911e-05,-0.0013006852241232991,-0.004349572118371725,-0.0029149246402084827,0.0034513771533966064,-0.0026649499777704477,-0.004488719627261162,0.001756631419993937,-0.0034188784193247557,0.0007389836246147752,0.004311391618102789
水準,0.003938157111406326,-0.0016950634308159351,-0.0016646641306579113,-0.004324803128838539,0.0002990431967191398,0.0034116755705326796,0.000585462839808315,-0.0021739525254815817,0.004395369440317154,-0.002418356481939554,0.0035798032768070698,-0.0027107619680464268,0.0016653516795486212,0.0026392750442028046,0.0034457130823284388,-0.0030788748990744352,-0.001659916713833809,-0.004307648632675409,-0.0005746523384004831,0.00030026654712855816,-0.004123993217945099,-0.0012023251038044691,0.0017350353300571442,0.002782083349302411,0.0018275846960023046,0.0011647007195279002,0.001721336506307125,-0.00214066868647933,0.0027524204924702644,-0.00522337481379509,0.002026807051151991,-0.005004738923162222,0.004526384174823761,-0.0036294308956712484,-0.0016179111553356051,-4.647880814445671e-06,0.0022022926714271307,-0.005245634354650974,5.0378839659970254e-05,0.0015861919382587075,-0.0024931360967457294,-0.0037625953555107117,-0.005295334849506617,0.00026507058646529913,-0.004300845321267843,-0.0006781595293432474,-0.0035666662734001875,0.00367421330884099,-0.002516217064112425,0.004360785707831383,-0.002654865151271224,0.00022260527475737035,0.0023355635348707438,-4.168759915046394e-05,-0.0025943301152437925,-2.9823801014572382e-05,-0.002305764239281416,0.0016897345194593072,0.0007848288514651358,-0.0005950349732302129,0.00228429539129138,-0.003458451246842742,-0.00287406868301332,-0.001615057117305696,0.0035996618680655956,0.00453054578974843,0.0009511843672953546,0.002472721738740802,-0.002430453896522522,-9.52053815126419e-05,-0.00216356641612947,-0.004673871211707592,0.0028272976633161306,-0.0014047783333808184,0.004180116578936577,-0.00471879867836833,0.004098286386579275,0.0004106777487322688,0.0008135963580571115,0.0025496582966297865,-0.0033632514532655478,-0.004054106306284666,0.0014799183700233698,0.001939637353643775,-0.004038283135741949,-0.0015474875690415502,-0.001706690527498722,-0.004777568392455578,0.001617175294086337,-0.0035139655228704214,-0.0013325486797839403,-0.0032761399634182453,0.002806955948472023,-0.0035247798077762127,0.004963813815265894,0.004675907548516989,-0.003601201344281435,0.002268837532028556,-0.003188884351402521,0.00038257925189100206
低下,0.004693965893238783,0.001002875971607864,-0.00046061817556619644,0.00019037252059206367,-0.004407262895256281,0.0018855412490665913,0.004006566945463419,-0.0003012892557308078,0.0015735444612801075,-0.0022285759914666414,7.271646609297022e-05,-0.0006015593535266817,-0.0018064482137560844,0.004587834235280752,0.00024734166800044477,-0.001134541817009449,0.003833622904494405,-0.004203963093459606,0.002906720619648695,-0.0018672891892492771,0.005017213523387909,0.000983509118668735,-0.003038412192836404,0.00017855111218523234,0.001015094225294888,-0.002572179539129138,-0.0007920166244730353,0.0035958820953965187,0.004535639192909002,-0.002891041338443756,0.0012119516031816602,0.0039017992094159126,-0.0020180915016680956,-0.0030325569678097963,6.920660962350667e-05,0.0048854760825634,0.0005438690423034132,-0.0025593542959541082,0.0007581773097626865,-0.003900085808709264,-0.004730324260890484,0.0013386178761720657,-0.0019876831211149693,-0.0009160470799542964,-0.005018912255764008,-0.00199334928765893,-0.0019520723726600409,0.0050597479566931725,0.004823524039238691,-0.0005609047366306186,0.00485342787578702,0.004598548635840416,0.0018935493426397443,-0.0020229280926287174,0.002117038005962968,0.0005019372911192477,0.0032534198835492134,0.00341838039457798,0.0001778255682438612,-0.0015570735558867455,0.0025864355266094208,0.0035831958521157503,-0.0020673100370913744,-0.002136711962521076,0.004863578360527754,-0.004870416130870581,0.0049887765198946,0.003324889810755849,-0.004511074163019657,-0.004756273701786995,-0.004175292793661356,0.003737413790076971,-0.0005308233085088432,-0.004688330926001072,-0.0007545828120782971,-0.002980231773108244,-0.0021563528571277857,-0.0016566348494961858,-0.0031887409277260303,-0.004093623254448175,-0.00047518970677629113,0.0005141219589859247,0.001076191896572709,-0.00010523841046961024,-0.0030837995000183582,-0.0020064085256308317,0.0013106436235830188,-0.004492274019867182,0.004195329267531633,0.0015292908065021038,0.0006864784518256783,0.004764048848301172,0.0022435167338699102,0.0015612702118232846,0.0029390333220362663,-0.003102476242929697,-0.0029248124919831753,-0.0018414284568279982,-0.004161021206527948,0.000656976830214262
剥落,0.003949414007365704,0.0037050298415124416,-0.0015159649774432182,0.0027730155270546675,-0.005168595816940069,-0.0024863691069185734,0.0006872246158309281,0.0027567504439502954,0.0009348556632176042,-0.002565171103924513,0.0011142633156850934,-0.004675029311329126,0.001355570973828435,0.0022900616750121117,-3.6469871702138335e-05,0.000932797440327704,0.002203668700531125,0.003384803421795368,-0.00011259262828389183,0.0014132841024547815,0.0016104932874441147,0.002513599582016468,-0.0012753854971379042,-0.0034385952167212963,0.0029642449226230383,0.0043278648518025875,-0.004732940346002579,-0.0018028804333880544,-0.0022789633367210627,0.0038644864689558744,-0.0025315177626907825,-0.0024334543850272894,0.0017239213921129704,0.002213010098785162,0.0012394683435559273,-0.0004970256122760475,-0.001385226147249341,0.0006291189347393811,-0.0014217270072549582,0.003004720201715827,-0.0011225066846236587,-0.0019097456242889166,0.0016011146362870932,-0.005037971306592226,-0.003685189876705408,0.0037072463892400265,-0.004051388707011938,-0.0037069935351610184,-0.0030412215273827314,-2.531171230657492e-05,0.0012851131614297628,-0.0006331953918561339,-0.0013346945634111762,-0.0009700499358586967,-0.0006999512552283704,0.0021421511191874743,0.0007682659197598696,0.001342581119388342,0.0024424151051789522,-0.004533757455646992,-0.0027094895485788584,-0.004391695838421583,0.004699236247688532,0.004141186363995075,0.0008976988610811532,0.004901312291622162,0.004684093873947859,0.0035796896554529667,0.0007012580172158778,0.001158274244517088,-0.0008355204481631517,-0.0006815436063334346,-0.001803948893211782,0.002138562500476837,0.0029723402112722397,-0.0010689927730709314,0.004691068083047867,0.0018458663253113627,-0.0023816281463950872,-0.0013804173795506358,-0.0044073560275137424,-0.004469823092222214,0.004134334623813629,-0.0036534355022013187,-0.004037453327327967,0.0035340581089258194,-0.003837085561826825,-0.0018064440228044987,0.0006001282599754632,0.0004623718559741974,0.004323244094848633,0.0008421477978117764,-0.0021645643282681704,0.003431426826864481,0.002138428622856736,-0.0030295690521597862,0.0023626156616955996,-0.004201969131827354,0.0020471084862947464,-0.0011347141116857529
投資,0.0023907856084406376,0.0038491934537887573,0.0025952556170523167,0.004051733296364546,0.004536494612693787,0.0027365803252905607,-0.0025631950702518225,0.002943247789517045,0.003962941933423281,0.00043872647802345455,-0.0014244368067011237,-0.0041274516843259335,0.0041505564004182816,0.002666264306753874,-0.0029678710270673037,0.0010515572503209114,0.0035472179297357798,-0.004834202118217945,0.002777313580736518,-0.0023130280897021294,0.0047743492759764194,-0.0016665431903675199,0.003955952823162079,-0.0019760988652706146,0.0007459998596459627,-0.0017633391544222832,-0.0001722023298498243,-0.0007341399323195219,-0.004181282129138708,-0.005006913561373949,-0.0015961899189278483,-0.004785593133419752,0.004407044500112534,0.003755053970962763,-0.004107465501874685,0.00438542990013957,6.394882075255737e-05,-0.0023530186153948307,0.0036641389597207308,-0.004458577837795019,-0.002038421109318733,0.003131189616397023,-0.005354702472686768,0.0030016896780580282,0.004446240141987801,-0.004434144124388695,0.004292736295610666,0.0009508836083114147,-0.0005132624646648765,-0.0013272290816530585,0.002900737803429365,0.002832832746207714,0.00444516446441412,-0.0024516077246516943,0.0005843495018780231,0.000966850551776588,-0.0010255047818645835,0.004802229348570108,0.004096129909157753,0.0011277567828074098,-0.004607477691024542,0.005157393403351307,0.003390696132555604,-0.004875419661402702,-0.0036631685215979815,-0.0010608265874907374,0.004667491186410189,0.00047516837366856635,-0.004760959651321173,0.0022861857432872057,-0.004026501439511776,-0.003620479255914688,-0.00159167917445302,-0.0021372006740421057,-0.004954838659614325,0.004800502210855484,0.002978553995490074,0.003708513919264078,0.002683850470930338,-0.004436230752617121,-0.002409416949376464,0.001197865349240601,0.0032327761873602867,-0.00031805277103558183,0.0006199171766638756,-0.002987954765558243,0.002265225863084197,-0.002057944191619754,0.004377152770757675,0.002175447531044483,0.003406303934752941,0.0006900286534801126,-0.0013746721670031548,-0.0012063842732459307,0.0032314809504896402,-0.00037195291952230036,-0.0017375019378960133,0.0004890720010735095,0.0015088305808603764,2.5954313969123177e-05
評価,-0.002093355869874358,0.0018463487504050136,-0.0032851879950612783,0.0005699793691746891,5.154443351784721e-05,-0.000937777804210782,-0.0051861535757780075,0.00046762963756918907,-0.0039936029352247715,4.614682984538376e-05,0.0016013425774872303,0.004266090225428343,0.00013466353993862867,-0.003037757705897093,-0.002319813473150134,0.00019795849220827222,-0.0032539370004087687,-0.005134189035743475,0.0038137517403811216,0.00025682078558020294,-0.00014143490989226848,0.004629823844879866,-0.0020988567266613245,-0.0035683310125023127,-0.0027669791597872972,0.0014080358669161797,0.0014973626239225268,0.0026528697926551104,0.0030288270208984613,-0.0030911557842046022,-0.004213207401335239,0.0030366491992026567,-0.0011132326908409595,0.002552018268033862,-0.003610500367358327,-0.004132253583520651,0.002462645061314106,-0.0008425181149505079,-1.1842948879348114e-05,-0.003499576821923256,0.0013725674943998456,-0.000861241715028882,0.003654212225228548,-0.001059404923580587,0.0013097833143547177,0.0005814635078422725,-0.0025512424763292074,-2.5508530598017387e-05,0.004090865142643452,-0.004569888114929199,5.332575165084563e-05,-0.002478231443092227,0.0042218794114887714,0.004173127003014088,-0.005080633796751499,-0.0032418023329228163,0.002950852271169424,-0.004841398913413286,-0.0019663856364786625,0.0034458711743354797,0.00331199006177485,0.0035361619666218758,0.002577356994152069,-0.002808433724567294,-0.002219337970018387,0.0019784457981586456,0.0017381220823153853,0.004552607890218496,0.0014311508275568485,-0.0004729034553747624,0.0022218949161469936,-0.004840298555791378,0.002549649216234684,-0.0022568581625819206,-0.002169220708310604,0.0019044337095692754,0.0027538700960576534,0.0016967373667284846,0.002355885226279497,0.0013389958767220378,-0.002519504865631461,-0.002715786686167121,-0.002887146547436714,-0.0035164544824510813,0.0013442456256598234,-0.0007136341300792992,0.0011559356935322285,-0.00038075997144915164,0.0036841174587607384,-0.0020745256915688515,0.003105996875092387,-0.00016569129365962,-0.0008450742461718619,0.003583568148314953,-0.00287294527515769,0.0005423821276053786,0.0007939396309666336,0.0015473004896193743,0.0023035965859889984,-0.0031860105227679014
目標,-0.0010950120631605387,-0.0012463574530556798,0.0022162082605063915,0.0009673755266703665,-0.003868384985253215,-0.0006578261964023113,-0.000484605465317145,0.0027078837156295776,-0.003170611336827278,-0.0034547701943665743,0.0022879596799612045,0.00508858822286129,-0.001085749245248735,0.0032083962578326464,0.001119699445553124,0.004667332395911217,-0.0012765433639287949,0.002879705745726824,0.00015525183698628098,0.0022237850353121758,-0.0008396960911341012,-0.0037110561970621347,-0.0027923148591071367,0.0034164113458245993,0.0016725707100704312,-0.003571887034922838,-0.004526561126112938,-0.00016747981135267764,-0.0011293725110590458,0.0015282660024240613,0.00047459639608860016,0.0029540141113102436,-3.640949216787703e-05,0.000733024615328759,-0.0015401368727907538,0.0028201425448060036,0.0051304916851222515,-0.005209916736930609,-0.003316606627777219,-0.001677847933024168,-0.004879689309746027,0.003539768047630787,-0.0008188193314708769,0.000600968487560749,-0.005275605712085962,-0.0016145267290994525,0.004798982758074999,0.0015538259176537395,0.0029770771507173777,-0.003396960673853755,0.0013577030040323734,-0.002177801914513111,-0.0003797228273469955,-0.002842979272827506,0.0031997496262192726,0.00318338256329298,0.004220021888613701,-0.0033149083610624075,-0.0012743441620841622,0.0017375771421939135,-0.00018437289691064507,0.004682783968746662,-0.002657965524122119,0.004676132928580046,-0.0030392708722501993,0.001282400800846517,-0.00022643535339739174,-0.0007846817607060075,-0.004060088191181421,-7.87398821557872e-05,0.003314459463581443,-0.002438924042508006,-0.0035247027408331633,-0.004112452268600464,-0.0025715786032378674,-0.0030005162116140127,0.002087661763653159,-0.005002711433917284,0.004805782809853554,-0.00031865687924437225,-0.0027078902348876,-0.005109161138534546,-0.0024125128984451294,-9.281001257477328e-05,-0.00038797533488832414,0.001781956059858203,-0.0033350405283272266,-0.0007896326715126634,-0.002396207768470049,-0.0037906740326434374,0.004635290242731571,0.0023362457286566496,0.004227816592901945,0.0034452404361218214,0.0007202428532764316,0.001459985738620162,0.0023951991461217403,0.003729933872818947,-0.0036758799105882645,0.0015331438044086099
株価,0.0019033787539228797,0.0001256677642231807,-0.0009601900237612426,0.0040664514526724815,-0.0006526282522827387,-0.0009492856916040182,-0.0034832279197871685,-0.0028958844486624002,0.0038007493130862713,0.0019571396987885237,-0.00011228503717575222,0.0013905363157391548,0.0008720260811969638,-0.0008389396825805306,0.003296780399978161,-0.003990212921053171,0.0010233413195237517,-0.003467256436124444,-0.0005498508689925075,0.00504564493894577,-0.0020912422332912683,0.0010744883911684155,0.0023151999339461327,-0.003246146719902754,0.005062750540673733,0.003907974809408188,-0.0045015932992100716,0.0021151246037334204,0.0014815401518717408,-0.004740786738693714,-0.00212452607229352,-0.0009889433858916163,-0.004724979400634766,-0.0033876774832606316,-0.0034173440653830767,0.002479524351656437,0.0010923095978796482,-0.0041185845620930195,0.00024836097145453095,-0.0021770521998405457,-0.0011892577167600393,0.0013763268943876028,-0.0008761627832427621,-0.0018617580644786358,0.002772415289655328,0.002347424626350403,0.001302069053053856,-0.0023249126970767975,-0.0009884119499474764,-0.004337215796113014,0.0005572446389123797,-0.004750191234052181,0.0001617546658962965,0.0006706506828777492,-0.004944409243762493,0.0002954083902295679,-0.0026348200626671314,-0.0029884257819503546,0.004064778331667185,0.0002503636060282588,0.0015126769430935383,0.002010625321418047,0.004122067708522081,0.0019164762925356627,-0.001450935611501336,-0.0016211405163630843,0.0011633392423391342,0.0035392658319324255,0.0009532319381833076,0.0034848328214138746,0.0025078104808926582,0.004556535743176937,0.0016696718521416187,0.0016972242156043649,-0.0017729038372635841,-0.004661010578274727,-0.004759393632411957,0.004432179033756256,0.0033385008573532104,-0.0016724172746762633,0.0042657675221562386,-0.0001290020445594564,-0.0014564128359779716,-0.0035640543792396784,-0.00015394663205370307,-0.003308794228360057,-0.0033995734993368387,-0.00318129756487906,0.004096103832125664,0.0042964378371834755,0.0016883371863514185,-0.0036885803565382957,0.00206521013751626,-0.00418930035084486,0.0018643473740667105,-0.0032357554882764816,-0.0019743971060961485,-0.004597999155521393,0.002025068271905184,-0.0014005164848640561
開始,0.003101180074736476,-0.000395892042433843,0.0032268143258988857,-0.0010055487509816885,0.003930896986275911,-3.6958121199859306e-05,-0.00013724785821978003,0.0019326461479067802,-0.004025883041322231,-0.0020112423226237297,-0.0033623080234974623,0.00457374332472682,-0.004004691261798143,0.0013158813817426562,-0.0012727421708405018,-0.000991104287095368,0.0037125383969396353,0.00032831565476953983,0.0006514612468890846,-0.0017312481068074703,-0.0031008415389806032,-0.002293114084750414,0.003477782476693392,0.0018220329657196999,0.0005708267563022673,0.0034184048417955637,0.000911335926502943,-0.0021945592015981674,-0.0009831500938162208,0.004549592733383179,0.00123932387214154,0.002221310045570135,-0.000618890393525362,0.0029556546360254288,-0.004315359052270651,-0.003496851073578,0.0031344452872872353,-0.0037572288420051336,-0.004699385724961758,-0.004031974356621504,-0.0019950252026319504,0.0031742684077471495,-0.000455987174063921,0.002773717977106571,-0.0008127848850563169,0.001833833521232009,0.002664889208972454,-0.0026142566930502653,0.0008273198618553579,0.003109377808868885,-0.0009541548788547516,0.004453974310308695,0.0031726222950965166,-0.002016638172790408,-0.004636021796613932,-0.0007682361756451428,-0.0009968497324734926,-0.002262003254145384,-0.0003107490483671427,0.004199173767119646,0.003242594888433814,-0.00033184359199367464,0.0008121716673485935,-0.002505265176296234,-0.004559685010462999,-0.004104901570826769,0.0032617333345115185,0.005119164474308491,0.0025476375594735146,0.0035586280282586813,0.0034943418577313423,-0.0022770962677896023,-0.0025638442020863295,0.0013698789989575744,0.003446698421612382,0.00469196867197752,-0.002515988890081644,-0.004385349806398153,0.002923998748883605,-0.0044087073765695095,-0.0014579653507098556,-0.00128010637126863,-5.492807395057753e-05,0.0003210929862689227,0.00029180163983255625,0.004887323826551437,-0.004341438412666321,0.0019236098742112517,0.0013995369663462043,0.0021436859387904406,0.0016056136228144169,-0.004738758318126202,-0.003007735125720501,0.0038250135257840157,-0.003158031962811947,-0.00030020292615517974,-0.0011886698193848133,0.0014293892309069633,0.0018822134006768465,0.0008602672605775297
日興,-0.0009910549269989133,-0.0040878537110984325,0.0019048628164455295,-0.0019093272276222706,-0.00026387712568975985,0.0007116278284229338,0.0005509447655640543,0.004320979118347168,-0.00015938789874780923,-0.0017024253029376268,-0.0014119078405201435,0.003451384836807847,0.0027301565278321505,0.0016477026510983706,-0.002047005109488964,-0.00013030048285145313,-0.003939565271139145,-0.0035454456228762865,-0.0017350373091176152,-0.001685893046669662,-0.004565967712551355,-0.0024217672180384398,-0.004156934563070536,0.004505370277911425,0.00413231085985899,0.002894765231758356,0.0021508350037038326,0.002416282892227173,0.0031337502878159285,0.0018962918547913432,-0.002553320024162531,0.003518075915053487,-0.0016856059664860368,-0.004665898159146309,-0.003429655684158206,0.0009833681397140026,-0.003446453483775258,-0.002175163710489869,0.004150256048887968,-0.004553312435746193,0.003120384644716978,0.0046652802266180515,-0.0021823220886290073,-0.0025641033425927162,-8.141012949636206e-05,0.0042450581677258015,-0.004732020199298859,-0.0023123431019484997,-0.004575204104185104,-0.0022718398831784725,-0.0006775780348107219,-0.003234521485865116,-0.0042837741784751415,-0.001772872288711369,-0.0038764402270317078,0.0007556886994279921,-0.004252569284290075,-0.002281330991536379,0.00011393140448490158,0.003186179557815194,-0.0019860914908349514,-0.002298219595104456,-0.004571315832436085,-0.001619560644030571,-0.0008980427519418299,-0.0028530678246170282,-0.0021732132881879807,0.004049394279718399,-0.0026915716007351875,-0.0018861402058973908,0.0007486384129151702,0.004801289178431034,-0.001336972345598042,-0.001647650613449514,-0.0013477362226694822,0.002235256601125002,-0.0019706350285559893,0.0006860737921670079,0.0034691235050559044,-0.0032098048832267523,-0.0011550168273970485,-0.00490234699100256,-0.0037655511405318975,0.004239884205162525,0.0031540750060230494,-0.0039030087646096945,-0.0017615907127037644,-0.0010587405413389206,-0.0014141625724732876,-0.0011002254905179143,0.0021381587721407413,0.004162507597357035,0.004632154013961554,-0.0002060984552372247,0.004805895499885082,-0.0021768934093415737,0.00463044224306941,-0.004905991721898317,-0.00469330744817853,-0.0017504580318927765
証券,-0.002644744236022234,0.0035093820188194513,0.002745938953012228,-0.003976669628173113,0.0024455776438117027,-0.003185533918440342,0.002423151396214962,-0.003505849512293935,-0.0029581747949123383,0.0023322198539972305,0.004289193078875542,-0.0005775876925326884,0.00483839213848114,0.004444904625415802,-0.0034081225749105215,-0.001434443285688758,-0.00016681107808835804,-0.003964966628700495,0.004055334255099297,-0.0025830543600022793,-0.0011522412532940507,0.005103854928165674,-0.005188263487070799,0.003150123404338956,0.004227790515869856,0.0014083873247727752,-0.004420632962137461,-0.004499293863773346,-0.0014299716567620635,-0.004636806435883045,-0.002228159923106432,-0.004342720378190279,-0.0006724013946950436,-0.0014998196857050061,0.002098029013723135,0.0039485543966293335,-0.0037884560879319906,0.0012713235337287188,-0.0012824446894228458,0.003198932623490691,9.248195419786498e-05,0.0022621965035796165,0.0040099429897964,-0.003540662582963705,-0.003444679779931903,-0.0036785067059099674,0.003862000536173582,-0.0016999939689412713,-0.004621668253093958,0.0014872427564114332,9.323608537670225e-05,-0.0019268940668553114,-0.0013328652130439878,-0.0038744332268834114,0.004384447820484638,0.004537629894912243,-0.001711541204713285,0.0016462055500596762,-0.0007330051739700139,-0.0021605887450277805,-0.002106656786054373,0.003541278187185526,0.0032369354739785194,-0.0024472444783896208,-0.004023122135549784,-0.0006063069449737668,0.002125190570950508,-0.0025965701788663864,-0.003464006818830967,-0.0022072226274758577,0.00039771836600266397,-0.001568001345731318,-0.00015595169679727405,-0.004431757610291243,0.0028642420656979084,-0.0025590485893189907,0.002631576731801033,-0.004494913388043642,0.003424831200391054,-0.004968114197254181,-0.0001514950126875192,-0.0038874943275004625,0.00046681571984663606,0.000921526225283742,-0.004839566070586443,0.0026707507204264402,0.0015247502597048879,0.005027840845286846,0.002289441181346774,0.0018407558090984821,-0.0029541163239628077,0.004599724430590868,-0.0016502849757671356,-0.003961862064898014,-0.00040622337837703526,-0.0013517086626961827,0.003985595423728228,0.0008635885897092521,0.0027003027498722076,0.0013640570687130094
以下,0.0010507461847737432,0.0048143318854272366,-7.651690975762904e-05,0.004923824220895767,0.0034571653231978416,0.0027657593600451946,-0.0035797860473394394,-0.004255777224898338,0.0017784817609936,-0.001837915275245905,-0.0009739528759382665,-0.00025279802503064275,0.0017808143747970462,-0.0024359000381082296,0.003557986579835415,0.003517066827043891,0.0033073476515710354,-0.002029552822932601,-0.0017025836277753115,0.0015745949931442738,0.0012597357854247093,-0.0026522395201027393,-0.0039322953671216965,-0.0037167787086218596,-0.0014932426856830716,0.0038286233320832253,-0.00215435354039073,0.0007075720932334661,0.0030286049004644156,-0.0022850343957543373,0.003361749928444624,0.00151828455273062,-0.0034124907106161118,-0.001974604558199644,0.001739255152642727,0.0033707330003380775,0.004359351005405188,0.0033074666280299425,-0.0012482950696721673,0.00350878294557333,0.003977319225668907,-0.003686589188873768,0.0013227569870650768,0.0008861835231073201,-0.004802301060408354,0.003214980009943247,-0.000694098009262234,0.004402598366141319,0.0018169195391237736,0.00220367475412786,-0.0014858057256788015,0.0014387223636731505,-0.001405256800353527,-0.0004932545707561076,-0.0014595421962440014,-0.0016578228678554296,0.0023838167544454336,-0.004947207402437925,0.001268662977963686,0.00461537204682827,0.002830496756359935,0.002823794726282358,0.0013450614642351866,-0.0027300394140183926,-0.000993541325442493,-0.0036984181497246027,-0.002449614694342017,-0.0017470306484028697,-0.0008920170366764069,-0.0037673269398510456,-0.002020498039200902,0.004716669674962759,-0.00021756422938778996,-0.0034585020039230585,0.0030246349051594734,0.0007472718716599047,0.0015895303804427385,-0.004264126066118479,0.004140519071370363,-0.0022109844721853733,-0.001227528671734035,-2.7364112611394376e-05,-0.005015521310269833,-0.0011213271645829082,0.000633054121863097,-0.0006457871058955789,0.0032797225285321474,-0.002097145188599825,-0.001292365021072328,-0.005100588779896498,-0.0021129075903445482,-0.0002474956272635609,-0.00461310101673007,0.0002169307554140687,-0.000799219065811485,-0.005191706120967865,-0.00040188009734265506,0.0034639074001461267,0.004333397839218378,0.0031022001057863235
弊社,-0.0016929483972489834,0.0009588985121808946,0.00041745349881239235,-0.0017567735631018877,-0.005177570041269064,-0.0001718897110549733,-0.004911747295409441,-0.0012502961326390505,-0.0014230419183149934,0.004932017531245947,-0.0004090603324584663,0.0030297988560050726,0.002087163273245096,0.003212082665413618,0.0010096204932779074,-0.0014741175109520555,-0.004966686014086008,-0.0020052059553563595,0.002595340833067894,0.0041508604772388935,0.0015463060699403286,0.0021186929661780596,-0.0013629955938085914,0.004442731384187937,0.004616564605385065,-0.0028342166915535927,-0.00046365996240638196,-0.00014490110334008932,-0.0022213344927877188,0.00388464261777699,-0.0023977255914360285,0.002471105894073844,-0.0020958820823580027,-0.0034015809651464224,0.0035332241095602512,-0.004469916224479675,-1.565939783176873e-05,-0.004441446159034967,-0.0018781032413244247,-0.004627312533557415,-0.00464444188401103,-0.0025584131944924593,-0.00261746346950531,-0.0004222248971927911,-0.0032806170638650656,0.002186477417126298,0.0035563951823860407,-0.004571055993437767,-0.004817095585167408,-0.0014782155631110072,-0.0004268498159945011,0.0033871433697640896,8.567378245061263e-05,-0.004619799088686705,-0.0027777208015322685,-0.004459323827177286,0.0023255455307662487,0.0025678263045847416,0.0045696645975112915,-0.0011903428239747882,0.0013006363296881318,0.001352097257040441,-0.002549376105889678,-0.0018760226666927338,0.0008564189192838967,-0.0036871933843940496,0.0034612778108567,-0.00015326120774261653,0.0023569839540868998,0.0020892845932394266,-3.937263318221085e-05,-0.0020015020854771137,-0.0001275599206564948,-0.004837495740503073,-0.004631252959370613,-0.003235176671296358,-0.0031467238441109657,0.00012901000445708632,-0.001255929353646934,0.0013091089203953743,0.0008735151495784521,0.0014577251859009266,-0.004996453411877155,1.754627373884432e-05,-0.0017504931893199682,-0.004238314460963011,0.001976835308596492,-0.001022714888677001,-0.004068857524544001,-0.004320861306041479,0.003170337062329054,-0.0020697833970189095,0.0004720425349660218,5.8734331105370075e-05,-0.0017563935834914446,0.001637563924305141,-0.0023458751384168863,-0.0032205586321651936,-0.00020269160449970514,-0.001040481380186975
同社,-0.003917114343494177,0.004243582487106323,0.004864788148552179,0.00446203863248229,-0.0029774566646665335,-0.000445433019194752,0.0017392730806022882,-0.0003192430594936013,0.0044907270930707455,0.0033770822919905186,0.0034012310206890106,-0.0005885923164896667,0.003535899566486478,0.0020174868404865265,0.0011053448542952538,0.004918727558106184,-0.0045185270719230175,0.004301953595131636,0.004500445909798145,0.00252775801345706,0.0012779136886820197,-0.0006295907078310847,-0.004012568853795528,0.002577419625595212,0.00295257824473083,0.0006096690194681287,0.0043065897189080715,-0.005033228546380997,-0.00411365507170558,-0.001882979297079146,0.002201634459197521,-0.00026472119498066604,-0.0024975091218948364,-0.004335133358836174,0.003974093124270439,-0.0035954720806330442,-0.00012961681932210922,-0.0024776423815637827,-0.0044117518700659275,0.0003873952373396605,0.003628247184678912,0.002918052487075329,-0.002419169992208481,-0.002488710917532444,-0.0013114050962030888,-0.0007964561809785664,-0.0001054478416335769,0.004639980848878622,0.00377315329387784,-0.004231153521686792,0.001383553259074688,-0.0031941321212798357,0.004919008817523718,-0.0014121407875791192,0.0005722120404243469,0.0032551561016589403,0.002744041383266449,7.031526911305264e-05,0.0004386580258142203,0.004212127532809973,-0.004805544391274452,-0.00013232073979452252,0.003164198948070407,-0.005016105715185404,-0.00408592913299799,-0.0008974104421213269,0.0050789606757462025,-0.0038367505185306072,0.0019710506312549114,0.0034531562123447657,0.0011666842037811875,-0.001924983924254775,0.000195838394574821,-0.004487513564527035,-0.0029592972714453936,0.0009260562947019935,0.00027267166296951473,0.0016110193682834506,-0.001832624664530158,-0.00023970277106855065,0.0034129652194678783,-0.0003919524315278977,-0.001119514461606741,-0.0011248007649555802,0.003817640244960785,-0.003908597864210606,0.004190356470644474,0.0016351848607882857,0.004727977328002453,-0.00027398235397413373,0.00392161076888442,-0.0022590889129787683,0.004238308873027563,-0.0006093833944760263,0.0035081396345049143,-0.004441391676664352,-0.0028155255131423473,0.004348394926637411,0.003468350740149617,-0.0018614035798236728
する,-0.004196119494736195,0.0010068716946989298,-0.00293219112791121,-0.0011745091760531068,0.0031706569716334343,0.0036993296816945076,-0.0019399330485612154,-0.0008908132440410554,-0.00015462528972420841,0.0027431827038526535,0.0008546498138457537,-0.0011243821354582906,-0.003182320622727275,0.0020786956883966923,0.0025543631054461002,-0.0012072657700628042,0.0006243821117095649,0.002631938550621271,-0.0036021878477185965,-0.0018118945881724358,-0.0012491584056988358,-0.0018465097527951002,-0.003968189470469952,-0.0038751033134758472,0.0038412034045904875,0.003960334230214357,0.0007650661864317954,0.0010037642205134034,-0.0011135588865727186,-0.0022308113984763622,0.0017358990153297782,-0.0035396693274378777,-0.004196327179670334,0.003499068785458803,-4.665820597438142e-05,-0.0027551199309527874,0.00017387483967468143,-0.0021603114437311888,-0.0025258606765419245,0.0001394580613123253,-0.0034628589637577534,-0.0008672763942740858,-0.0019441440235823393,0.0038884675595909357,-0.003933650441467762,0.0008820861112326384,-0.00040735918446443975,0.000514837505761534,0.0010231921914964914,0.0001703428424661979,0.0018905180040746927,0.0028435608837753534,-0.004110515583306551,-0.0006552503327839077,-0.003502404782921076,0.004130692221224308,-0.0032035009935498238,0.00040661206003278494,-0.0004083506064489484,0.0016405805945396423,0.0027225124649703503,0.001948495744727552,0.0002748762199189514,-0.0010932410368695855,0.00405051838606596,0.00216578203253448,-0.002062048064544797,0.00021223632211331278,-0.0012635171879082918,-0.0017991390777751803,-0.001166349626146257,0.003590317675843835,-0.001149959396570921,-0.0036351378075778484,0.002872265875339508,-0.001425474532879889,-0.0043479367159307,0.000723962439224124,-0.001041715731844306,0.0019533277954906225,0.0011489669559523463,-0.004854452796280384,-0.0011654128320515156,0.004971289541572332,0.004059351049363613,0.003733395365998149,0.0025060914922505617,-0.003329462604597211,-0.003366135759279132,0.003706693649291992,-0.000529621378518641,0.0013109680730849504,-0.004106226842850447,0.002647885587066412,-0.003673623548820615,0.0015288513386622071,-0.0022788573987782,0.0021773979533463717,6.639432103838772e-05,-0.004882874898612499
高騰,0.0009825039887800813,0.0020600827410817146,0.003518645418807864,0.0031460553873330355,-0.0036361445672810078,-0.004841709975153208,-0.0040902369655668736,-0.00223055318929255,0.0030223808716982603,0.004605413880199194,0.0031295730732381344,0.0013449303805828094,0.0019114578608423471,0.003043306292966008,0.002261990448459983,-0.001956401625648141,0.001799990888684988,0.001875705667771399,-9.387476166011766e-05,0.0013325095642358065,0.003617280861362815,-0.004594191908836365,-0.0023346906527876854,-0.0025626865681260824,-0.0045759957283735275,0.0019412440015003085,-0.003651823615655303,0.002758827991783619,-0.0025816368870437145,0.001567523810081184,0.0018575242720544338,0.001473952317610383,0.0019315190147608519,-0.0025790182407945395,-0.0035847052931785583,0.00021382006525527686,-0.0011535518569871783,-0.0026762434281408787,-0.00468794722110033,0.00041225296445190907,0.002064798027276993,-0.00494736572727561,0.0043187993578612804,0.0025979208294302225,0.0003877033886965364,0.003345948178321123,-0.0019477836322039366,0.003678068518638611,-0.0018422026187181473,-0.0005238277954049408,0.000554547761566937,-0.0005845451378263533,-0.00016027675883378834,-0.0009714632178656757,0.0014760311460122466,0.0011036937357857823,0.0034030447714030743,0.0019299251725897193,0.0004240560228936374,0.0017286926740780473,0.003761261934414506,0.0024790430907160044,0.00011465829447843134,-0.002852234523743391,0.001422689761966467,0.0036220471374690533,0.003845080966129899,-0.0012668321141973138,-0.0005247062654234469,-0.001169107505120337,-0.003677621018141508,0.0031132223084568977,-0.004472516011446714,0.004070611670613289,0.00013953312009107322,-0.0029347881209105253,0.0016673040809109807,-0.0022468981333076954,-0.0011557682882994413,-0.0038678888231515884,-0.0020672802347689867,5.565512992689037e-07,-0.005059386137872934,-0.0019664412830024958,-0.00448530912399292,0.0023367812391370535,0.0005106679745949805,0.0015962804900482297,0.0029391064308583736,0.0008067921735346317,-0.0020324832294136286,0.0014377017505466938,-0.002662909682840109,0.00045963123557157815,-0.0032495339401066303,-0.002742505632340908,0.003962963819503784,-0.000872964970767498,-0.003014771966263652,-8.088239155767951e-06
成約,0.0034903541672974825,0.0036965676117688417,-0.0001612887135706842,0.0025140722282230854,-0.001108541153371334,0.00021902594016864896,0.004714624024927616,0.0003219193604309112,0.003374428953975439,-0.0018962256144732237,0.003242905018851161,-0.0006733282352797687,-4.352534597273916e-05,0.0010741912992671132,0.003395680570974946,0.004272947087883949,-0.0016225649742409587,0.0009999825851991773,0.0007578734657727182,-0.002457510447129607,0.0022587752901017666,-0.0023188383784145117,0.0028743220027536154,-0.0026384585071355104,-0.0012336227810010314,0.0038585765287280083,0.004135475493967533,0.003853676375001669,0.0040955753065645695,0.0014728608075529337,0.0023004189133644104,-0.005111107137054205,-0.0002333056618226692,0.0014031048631295562,-0.0030452022328972816,-0.0008910817559808493,0.002451761160045862,-0.004573344253003597,0.0003645448596216738,-0.0035007919650524855,0.0035868207924067974,0.0002317856124136597,0.002302413573488593,-0.0018229475244879723,0.003750965930521488,-0.00416733929887414,0.004505559336394072,-0.0013091760920360684,0.004806328099220991,-0.0038013760931789875,-0.0010119825601577759,0.003300706623122096,-0.0027368422597646713,-0.0007880415651015937,0.0007665206212550402,-0.003042742609977722,0.0019473702413961291,-0.004684179089963436,0.0033919995184987783,-0.003317681374028325,-0.0035086635034531355,0.0021893447265028954,-0.0033289955463260412,-0.0026345374062657356,-0.003008675528690219,0.004155433736741543,-0.004003527108579874,0.0022999620996415615,0.001988827483728528,0.0005441823159344494,-0.003198898397386074,-0.0037334354128688574,0.0029134228825569153,0.0008589894277974963,0.001771440845914185,0.00043605317478068173,-0.0008029576274566352,-0.0031482067424803972,-0.0004956051125191152,-0.0023605667520314455,0.0012132693082094193,0.004789714235812426,-0.002434010151773691,0.002006875816732645,-0.00030771931051276624,0.0004022513167001307,0.0012241696240380406,-0.003541115904226899,-0.0018930683145299554,0.004303809255361557,-0.00022061698837205768,-0.003040904412046075,-0.004178089555352926,-0.0014540888369083405,-0.003956176340579987,6.155315350042656e-05,0.002191545208916068,0.0010245399316772819,-0.0019502610666677356,-0.0004613805504050106
中期,-0.002310787793248892,0.0030762224923819304,0.0017912543844431639,-0.002684798091650009,0.002259643981233239,-0.0020893742330372334,-0.0007366962963715196,-0.0019837128929793835,-0.0038855827879160643,-0.003705544862896204,0.0012268926948308945,0.0003526715445332229,-0.00321096065454185,-0.0014235612470656633,-0.00044072570744901896,-0.0018221563659608364,-0.0025836005806922913,0.0018550000386312604,0.0019455046858638525,0.0045164767652750015,-0.0036240103654563427,0.00476792873814702,-0.0036245875526219606,-0.0017030081944540143,-0.0038799371104687452,0.0030487682670354843,0.002224536845460534,-0.0007154417689889669,0.0038678250275552273,-0.001447377260774374,6.015404505888e-05,-0.0026274160481989384,0.0017191822407767177,0.0022746433969587088,-0.003364781616255641,-0.003908648621290922,0.004041824955493212,-0.005222192499786615,0.00290496414527297,2.183275319111999e-05,0.0035975740756839514,0.0004348323855083436,-0.0011568687623366714,0.0017968271858990192,0.002494026441127062,0.0001897763868328184,0.0008035756181925535,-0.0014368790434673429,0.0025416272692382336,-0.0031189678702503443,-0.0038240919820964336,-5.164104368304834e-05,-0.0009094229899346828,0.002064339816570282,0.0034690636675804853,0.00033519029966555536,0.0019917136523872614,0.0027837189845740795,-0.0004780091985594481,0.0022464157082140446,-0.000435151276178658,0.0026548041496425867,-0.0038192293141037226,0.0003450463118497282,-0.0011028471635654569,-0.004454060923308134,0.0011494960635900497,-0.003876081667840481,0.004406848922371864,-0.0037735074292868376,0.0017703459598124027,0.003151611192151904,-0.0017629899084568024,-0.0027691659051924944,-0.004427761770784855,-0.0045975991524755955,-0.0003067271609324962,0.003517771139740944,-0.0013331972295418382,0.0002690476831048727,-0.0046789199113845825,-0.0003748785820789635,-0.0037237543147057295,0.00027244898956269026,0.003876821603626013,0.0021134105045348406,-0.0014844841789454222,0.0006812553037889302,-0.0021761800162494183,-0.001080773421563208,-0.002324463566765189,0.0027119508013129234,-0.005121719557791948,-0.0029871759470552206,-0.0007941531948745251,0.0004830827529076487,0.0032592618372291327,-0.004054738208651543,0.002995793242007494,0.004118759650737047
契約,0.004857133608311415,0.003229306312277913,0.004424106329679489,0.0015906259650364518,0.0030101139564067125,0.0025529833510518074,-0.001677418709732592,-0.0042531415820121765,-0.003163950750604272,-0.0018141652690246701,0.00019725265156012028,0.004828294273465872,0.0026386920362710953,0.00377889396622777,-0.0017407506238669157,0.00022685910516884178,0.0007493143202736974,0.004417120944708586,0.004709035623818636,-0.0007682806462980807,0.00240819389000535,0.0025995417963713408,0.0015654935268685222,-0.001082062954083085,-0.0014962619170546532,-0.003316083922982216,0.0021876220125705004,0.0016001668991521,0.0029539410024881363,-0.0005452078767120838,-0.0020918576046824455,0.00018278580682817847,0.0007953428430482745,-0.0018829242326319218,-0.004321839660406113,-0.004023145884275436,-0.0029341713525354862,-0.004707022104412317,5.1077327952953056e-05,-0.0025614737533032894,-0.00020630343351513147,-0.0027220670599490404,-0.004630203824490309,0.0036940157879143953,0.003919424954801798,-0.004395668860524893,0.0010209043975919485,-0.00027351517928764224,-0.0048131621442735195,-0.002632082672789693,0.0016793332761153579,-0.0007539872312918305,0.0014444573316723108,6.029837823007256e-05,-0.004366070497781038,-0.0033324852120131254,0.0008043809793889523,0.003875796217471361,-0.0027817755471915007,-0.004050116986036301,-0.0032178834080696106,0.003869355423375964,0.0038797748275101185,-0.0011899304809048772,0.0013165385462343693,0.0013924231752753258,0.0016621537506580353,0.00041342785698361695,-0.000324702967191115,-0.0029505209531635046,-0.003970255609601736,-0.0017347618704661727,-0.0016910303384065628,0.0004451075510587543,-0.004836622159928083,0.004248600918799639,0.000791081169154495,0.0035011160653084517,0.0014648529468104243,-0.004665741231292486,0.002168859587982297,-0.0004307886410970241,0.0016707570757716894,0.002965705469250679,0.0029540597461163998,0.0024605640210211277,-0.004064540844410658,0.001365007716231048,0.0012481603771448135,0.0015042262384667993,0.0022973937448114157,0.004494082182645798,0.0031921365298330784,0.0036688237451016903,-0.0038944752886891365,0.004366190172731876,-0.0030323900282382965,-0.0011314749717712402,0.002424864564090967,0.0008581660804338753
満了,-0.003303542733192444,0.004428852815181017,-0.003638580674305558,0.000971218862105161,-0.0015269501600414515,0.004163538571447134,0.003564315615221858,-0.001535253250040114,0.0003511137911118567,0.0035302455071359873,0.004514796659350395,-0.0027810605242848396,0.002539903623983264,-0.001362878829240799,0.0006428640917874873,-0.0046559604816138744,-0.00021663150982931256,0.0033804590348154306,0.002673615701496601,-0.0010523131350055337,0.003427595365792513,0.0017685823841020465,0.001008079620078206,-0.003404138144105673,-0.0039954534731805325,-0.004803611896932125,-0.0031623425893485546,0.0009263134561479092,-0.001501325168646872,-0.0018240648787468672,0.0031555197201669216,0.002670186571776867,-0.002025828929618001,0.00021184248907957226,-0.00056120177032426,-0.0027666252572089434,-0.003956881817430258,-0.0011279793689027429,0.0021554322447627783,-0.0012587500968948007,0.0025390787050127983,0.0031065624207258224,2.0778190446435474e-05,0.0016713105142116547,0.0011086921440437436,0.002811094745993614,-0.0033493477385491133,0.004564144182950258,-0.0017764465883374214,-0.0047762696631252766,-0.005017843097448349,0.0002738682960625738,-0.00027888748445548117,-0.00446622259914875,-0.002746808109804988,0.0008020327659323812,0.004397583194077015,0.0020693012047559023,0.005064889322966337,0.0032952323090285063,0.0037644265685230494,0.004257674794644117,0.004282601643353701,0.0009006251348182559,-0.0012705008266493678,-0.005050196778029203,0.002698706230148673,0.002742114709690213,0.005067216698080301,-0.0012950078817084432,0.0023514300119131804,-0.0011115819215774536,0.0006356409285217524,0.001892607193440199,-0.0026097800582647324,-0.0022601482924073935,-0.0019758513662964106,0.001703482586890459,1.2188965229142923e-05,0.002783943433314562,0.004684587474912405,-0.004470016807317734,-0.0004857339081354439,-0.00015332031762227416,0.0005875781644135714,-0.0033574968110769987,-0.004998041316866875,3.847150219371542e-05,-0.0020557576790452003,0.0028010730165988207,-0.00415706355124712,0.0046883500181138515,-0.00047379653551615775,-0.003994360100477934,0.0036854827776551247,0.004539551679044962,0.005021491087973118,-0.0034896174911409616,0.0036865058355033398,-0.00396908912807703
それ,0.004507086239755154,0.0015626301756128669,0.0008834705804474652,0.0028540256898850203,-0.0005118443514220417,0.0017001403030008078,-0.004054766148328781,0.000617067504208535,-0.00419091060757637,0.0008081046398729086,0.005008731037378311,-0.0040298448875546455,0.0035357854794710875,-0.0004488250706344843,0.003181665437296033,-0.0007128635770641267,-0.00280687864869833,-0.002525049028918147,-0.004810503218322992,-0.004877872299402952,-0.002685282379388809,0.004389641806483269,-0.0012465500039979815,-0.0007281440775841475,-0.0033982337918132544,-0.004587536212056875,-0.0049346755258738995,0.0005611017695628107,-0.0024141049943864346,-0.004764359910041094,0.0019144659163430333,0.00020726281218230724,0.004322482272982597,-0.002986340317875147,-0.0018562263576313853,0.0021611652337014675,-0.0005083323339931667,-0.0009610886918380857,-0.0027610589750111103,0.002862878842279315,0.00024034807574935257,-0.0005934412474744022,-0.0011309734545648098,0.0006696013733744621,0.003985685762017965,0.003808444831520319,-0.0018103566253557801,-0.004423132631927729,0.0017008819850161672,0.0029871631413698196,-0.004690620582550764,-0.002942238934338093,0.0045819939114153385,0.004828012082725763,-0.005072926636785269,0.004678149241954088,-0.0033168685622513294,-0.0024082979653030634,0.00023642696032766253,0.003647384699434042,-0.0031970134004950523,0.0011878624791279435,-0.004096685443073511,-0.0034551299177110195,-0.003859581658616662,-0.0016671832418069243,0.0009663146338425577,0.005083577241748571,-0.0023142676800489426,-0.004213088657706976,-0.004737695679068565,0.001852286048233509,-0.0022235927172005177,0.002429384272545576,0.0035698229912668467,-0.0026356729213148355,-0.0021139506716281176,-0.0010643223067745566,0.0011643532197922468,-0.0026562318671494722,-0.0033018647227436304,-0.004338757134974003,-0.0029843964148312807,0.0024105559568852186,-0.002399683464318514,-0.0017431398155167699,0.001934775267727673,0.0015728208236396313,0.004174049478024244,0.003260779194533825,0.004581077490001917,-0.0005448836018331349,-0.00292856409214437,-0.0009873416274785995,-0.0007303984020836651,0.0036600129678845406,0.002927653957158327,-0.00432672630995512,-0.0036687557585537434,-0.0019506256794556975
利益,-0.0038305167108774185,0.0036174466367810965,-0.0033774261828511953,0.004149814136326313,-0.002075684256851673,0.002483435906469822,-0.002804806688800454,-0.0025788636412471533,-0.0013036810560151935,0.004824745003134012,-0.0014947035815566778,0.000937578734010458,0.004413682967424393,-0.0024763811379671097,-0.004448889754712582,-0.0012072479585185647,0.0034742795396596193,-0.0025391734670847654,-0.0008737236494198442,0.0007662640418857336,-0.0037312840577214956,-0.0036411539185792208,-0.0032332506962120533,-0.0012474096147343516,-0.0016940927598625422,-0.004067618399858475,-0.00503993034362793,0.0009865033207461238,-0.003322339616715908,-0.00104609876871109,0.0016584894619882107,0.0003485595516394824,0.0011080038966611028,-0.0002850283635780215,-0.0049064927734434605,0.0015281104715541005,-0.003762833308428526,0.004210442770272493,0.00034709833562374115,-0.004128867294639349,0.001160039333626628,-0.0022738759871572256,0.00015333558258134872,-0.0010969889117404819,-0.002733575878664851,0.00261293794028461,-0.0033749390859156847,0.0026993791107088327,0.0012771447654813528,0.003380828071385622,-0.000951494846958667,0.0044801728799939156,-0.0005439279484562576,0.0014073859201744199,-0.0021933503448963165,-0.00399455800652504,-0.0007729477365501225,-0.0008053123601712286,-0.003985927905887365,0.0016790340887382627,0.004386050160974264,-0.002023924607783556,0.0034521857742220163,0.004175933543592691,-0.0035330024547874928,-0.004573754034936428,-0.003993157763034105,-0.0015827541938051581,-0.0033022097777575254,0.0005319614429026842,-0.0041448092088103294,0.0038658296689391136,-0.0009393899235874414,-0.004942023660987616,-0.005135811399668455,-0.00033953151432797313,-0.0018348550656810403,0.000674272479955107,0.003870615968480706,0.0020358175970613956,0.004744810983538628,0.0028343871235847473,0.0033418855164200068,0.004184503108263016,-0.0011845057597383857,0.004396192729473114,-0.00396678177639842,-0.0005511943600140512,0.002291229786351323,-0.0018986518261954188,0.004428304266184568,0.0028066423255950212,0.0027027379255741835,-0.0013649588217958808,-0.002895380835980177,-0.002677331678569317,-0.0030951807275414467,0.0003889128565788269,-0.0017734181601554155,0.0023339635226875544
減少,-0.003725761314854026,-0.004610823933035135,0.0007540452061221004,-0.0038730823434889317,-0.0024493036326020956,0.001589411636814475,-0.0007954050088301301,0.00041279668221250176,-0.002647608984261751,0.0050118002109229565,0.001744370674714446,0.0007407910306937993,0.0022997690830379725,-0.004130837973207235,-0.0020702502224594355,0.0026370948180556297,0.0016877304296940565,0.004721487406641245,0.0011997438268736005,-0.003431937890127301,-0.0016412906115874648,-0.001805514795705676,-0.004921950399875641,0.001468666479922831,-0.00026278631412424147,-0.00265407538972795,-0.004449926316738129,0.0002624469343572855,0.0002938378893304616,-0.0033335029147565365,0.0012109172530472279,-0.00014753110008314252,0.0012396728852763772,-0.004113236907869577,-0.002138370182365179,-0.002114984206855297,-0.0016994798788800836,0.003428972791880369,-0.0025624344125390053,0.0014084099093452096,0.003439234336838126,-0.0019271781202405691,-0.002480671741068363,-0.0008943065186031163,-3.0955648981034756e-05,-0.00015388644533231854,0.0026084850542247295,-0.0031779916025698185,-0.00355917657725513,-0.00015936630370561033,0.0011968740727752447,0.0004434386792127043,0.0019023794448003173,-0.0009525165660306811,0.0043832529336214066,-0.004065339453518391,-0.002244530012831092,-0.0009855040116235614,0.0021669582929462194,-0.000680437427945435,0.003472961252555251,-0.0032865137327462435,0.002612259006127715,-0.002488316036760807,-0.0009482713649049401,-0.001273239846341312,0.003038665046915412,0.0035622783470898867,-0.002126805018633604,0.003388920333236456,-0.0020912261679768562,-0.003754241159185767,-0.0014964528381824493,-0.003056757850572467,0.0027205508667975664,-0.001286961487494409,0.003386360127478838,-0.0008476847433485091,-0.0042548710480332375,0.004870520904660225,-0.003597140545025468,0.004726802464574575,-0.00128441012930125,0.003408582881093025,0.003530925139784813,-0.0045014638453722,3.6256140447221696e-05,0.00280753243714571,0.004779820796102285,-0.0006197717739269137,-0.001045108656398952,-0.0021827095188200474,-0.004851614590734243,0.0005445441347546875,-0.0034238325897604227,0.001738379942253232,0.004725175444036722,0.002619717037305236,-0.004013558849692345,0.0018813412170857191
イン,-0.0048066736198961735,0.0034029455855488777,-0.0009732648031786084,0.005186143796890974,-0.0001427781389793381,-0.004057238344103098,-0.0036053978838026524,0.0011077388189733028,0.0040078903548419476,-0.0015563101042062044,-0.0036963559687137604,0.002057835692539811,-0.003568405983969569,0.00020600332936737686,0.00043209290015511215,0.0043937875889241695,0.0042831613682210445,-0.0005026815342716873,0.0018852490466088057,0.0010051348945125937,0.0022734093945473433,0.004550430923700333,0.0020592068322002888,6.193606532178819e-05,6.518834561575204e-05,-0.0034448066726326942,0.0015002661384642124,-0.0011952710337936878,-0.002883958863094449,0.0012053881073370576,0.003670091973617673,-0.0040457891300320625,-0.0005620752926915884,0.002097547519952059,-0.0031841013114899397,-0.0005066682933829725,-0.0025651203468441963,0.0037365672178566456,-0.00026867614360526204,0.001496474607847631,0.003308889688923955,-0.003280003322288394,-0.00418869499117136,-0.00044710387010127306,-0.0030929783824831247,0.00016073112783487886,0.0024641654454171658,0.004347259644418955,0.002407367341220379,0.0041891890577971935,-0.0002370732690906152,-0.002049950649961829,0.0025016937870532274,0.0005730022676289082,0.0028847057837992907,-0.004379686899483204,0.00047376350266858935,-0.00326722813770175,0.005102241411805153,-0.0015151604311540723,-0.0007665030425414443,0.002901366213336587,0.0015430764760822058,-0.0035747280344367027,0.0008847115677781403,-0.0019475823501124978,-0.0023089556489139795,0.001737199374474585,-0.00032543815905228257,0.002235687104985118,-0.002312328899279237,-0.0020867297425866127,0.0022426052019000053,0.0026580910198390484,0.0009143557981587946,0.0011986915487796068,-0.0034043448977172375,0.0012174200965091586,-0.0025837158318609,-0.0013032188871875405,0.0017043479019775987,0.0004627053567674011,0.003736667800694704,-0.0036461628042161465,-0.003674581879749894,-8.12978032627143e-05,0.0027201545890420675,-6.388498150045052e-05,0.004833727143704891,-0.0009513723780401051,0.001276172697544098,0.0026483095716685057,-0.0005952295032329857,0.004176323767751455,0.004502769559621811,0.0039828806184232235,8.012828038772568e-05,-0.00024476987891830504,-0.003998741041868925,0.0036474394146353006
他社,0.002096794079989195,-0.0015599102480337024,-0.003258226905018091,0.002135061426088214,-3.777624442591332e-05,-0.0013851680560037494,-0.0038722401950508356,-0.0006216104375198483,0.0009173456346616149,-0.0020185764878988266,0.002632836112752557,-0.003443389432504773,-0.004980594385415316,0.00042833108454942703,0.005277383606880903,-0.003258283482864499,0.0012682367814704776,-0.00400659441947937,0.00023364748631138355,0.0012638720218092203,0.0032282816246151924,-0.0016718516126275063,-0.00019524279923643917,-0.0037829482462257147,-0.002834269544109702,-0.00222337176091969,-0.003972564358264208,-0.0031533550936728716,0.0004250193596817553,-0.0033199910540133715,-0.0025007156655192375,-0.0008917503873817623,-0.0036964486353099346,0.0020838251803070307,0.00418721092864871,0.0014637450221925974,0.0038209371268749237,-0.0016590507002547383,-0.0002772605512291193,-0.0009181820787489414,-0.0034607476554811,-0.004520484711974859,-0.004640043713152409,0.0017791172722354531,-0.00041249135392718017,0.0039921170100569725,-0.002193739637732506,0.004030142445117235,0.0017145139863714576,0.0038606328889727592,0.004395715892314911,-0.0035906732082366943,-0.0006237326888367534,-0.0025053585413843393,-0.0035698330029845238,0.0041633290238678455,0.0051114242523908615,-0.004733114503324032,-0.0017517795786261559,0.00010323863534722477,-0.00040250251186080277,-0.0002943444123957306,-0.003943995106965303,-0.004109540954232216,-0.0008143459563143551,-0.0019238484092056751,0.0027910307981073856,-0.00025384186301380396,0.005031864624470472,0.003162803128361702,0.003040136769413948,-0.002153553534299135,0.004545924719423056,-0.0033163123298436403,0.0013402136974036694,1.142612200055737e-05,0.0004246257012709975,0.004190030507743359,-0.0031523669604212046,0.004728272091597319,0.0047923666425049305,-0.0012758017983287573,-0.0007415805011987686,0.0001463787630200386,-0.0027533250395208597,0.0005875295610167086,0.0009934949921444058,-0.004878017120063305,0.001505655120126903,-5.136951949680224e-05,-0.002030056668445468,0.002595694735646248,-0.0035233749076724052,-0.0026786872185766697,0.0013239035615697503,-0.0028175911866128445,-0.004553229082375765,-0.004519718699157238,-0.004538433626294136,0.004512204322963953
比較,-0.002805243246257305,0.0036432964261621237,0.004202482756227255,-0.003527472959831357,-0.00454111909493804,0.001694722450338304,-0.00407452043145895,0.0002097138058161363,0.0013510320568457246,-0.00019228097517043352,0.004812405910342932,-0.0037814932875335217,0.0024669605772942305,0.0006200639181770384,-0.000899987411685288,5.121814683661796e-05,-0.003066987032070756,0.0010960489744320512,0.0033619569148868322,-0.0005563665763475001,0.002684209495782852,-0.0007205097354017198,0.004742024466395378,-0.0008877348154783249,0.0020227127242833376,-0.004416310228407383,-0.0014997280668467283,0.0036894085351377726,-0.0045483773574233055,0.003471250180155039,-0.0028468635864555836,0.004310597665607929,0.004772115033119917,0.0023154958616942167,-0.0008759929332882166,0.004168317653238773,0.0012554059503600001,0.0012999032624065876,-0.003241409547626972,-0.0033111735247075558,-0.0031779841519892216,0.0035369722172617912,-0.00309133087284863,-0.0024371666368097067,-0.003388973418623209,-0.000881607411429286,-0.0037214404437690973,0.003774088341742754,-0.0009446038166061044,-0.002816314809024334,-0.0031931984703987837,0.0020731743425130844,-0.003249628469347954,-0.004702329635620117,-0.004711804445832968,-0.00135330599732697,-0.0015891806688159704,0.0008644878398627043,-0.0036546254996210337,0.004328754264861345,-0.004099042620509863,0.0005379850044846535,0.00022134101891424507,-0.003504062769934535,-0.004897530656307936,-0.003983149304986,0.0016368014039471745,-5.146847979631275e-05,-0.0016206320142373443,0.0034056315198540688,-0.003482977394014597,-0.0033586241770535707,-0.0021164908539503813,-0.0016618521185591817,-0.0019221529364585876,0.0023759210016578436,-0.004083415027707815,-0.0047718011774122715,-0.0014179993886500597,-0.0018153467681258917,0.003970997873693705,-0.0009186463430523872,-0.002218600595369935,-0.0017550491029396653,0.003372632432729006,0.0005522961728274822,-0.0031197592616081238,-0.002747846534475684,-0.0012163248611614108,0.0034751438070088625,-0.001110047334805131,-0.00282511068508029,0.0019963732920587063,0.0037805079482495785,-0.0023843867238610983,-0.0013937276089563966,0.0019980818033218384,0.00018950305820908397,-0.003808976849541068,-0.003966951277107
大きい,0.00226565427146852,0.001081806025467813,0.0022856667637825012,-0.0031109871342778206,8.0115205491893e-05,-6.136811862234026e-05,0.0029968800954520702,0.003761559957638383,-0.003968353848904371,0.0027176246512681246,0.0008815965848043561,-0.0016226050211116672,0.0037148043047636747,-0.003323426702991128,-0.00018612145504448563,0.0016106687253341079,-0.003661619732156396,-0.00020877634233329445,0.00036180709139443934,0.0005370571161620319,0.0029294032137840986,0.005115712992846966,0.0022728831972926855,-0.0017442225944250822,-0.003635167144238949,0.0009929169900715351,-0.0004054312885273248,0.001145352958701551,-0.003945484757423401,0.00013556506019085646,-0.00439043715596199,-0.002518309047445655,-0.003346503945067525,0.001748973154462874,-0.004655980505049229,-0.001999088330194354,-0.003201385261490941,0.0007951502921059728,-0.0026250979863107204,-0.004087086301296949,-0.00017713812121655792,0.002174891298636794,-0.0035040557850152254,0.0037347956094890833,-0.00033509806962683797,-0.00024422703427262604,0.004456579685211182,0.001818812801502645,0.0031448977533727884,-0.004154539667069912,0.00041666647302918136,-0.004035085439682007,0.0011571921641007066,-0.003043502103537321,-0.0002742806973401457,0.0014486198779195547,0.004299194552004337,-0.004631709773093462,0.0029133856296539307,0.004018315114080906,0.0015908386558294296,0.0012285311240702868,0.0027391179464757442,0.002032302552834153,-0.0024240456987172365,0.0003434451064094901,0.001052970765158534,0.004286267329007387,0.003569349879398942,0.0035593153443187475,-0.0002300329797435552,-0.0029559179674834013,-0.005097176413983107,-0.003604799509048462,-0.002527497708797455,-0.0023424914106726646,-0.00033443717984482646,-0.003980530425906181,0.004289812408387661,-0.004545113537460566,-0.0022622125688940287,0.0026419959031045437,-0.002946282271295786,0.0009739028173498809,-0.004816802684217691,0.003602495649829507,-0.0012404464650899172,-0.0010191103210672736,-0.004749001003801823,0.0025307470932602882,-0.0023423340171575546,-0.003949042409658432,-0.003974647261202335,-0.0021979783196002245,0.004382222890853882,-0.0005420403322204947,-0.0019977970514446497,-0.004865407478064299,0.0022489961702376604,0.004390405025333166
なる,-0.002021877793595195,0.002569690113887191,0.0028639736119657755,0.001025610021315515,-0.0007330575026571751,-0.0021490694489330053,0.0010369715746492147,-0.0006538857123814523,0.0012085778871551156,0.0024099142756313086,-0.0020180426072329283,0.003117690095677972,-0.002221620175987482,0.0007161314715631306,-0.002161872573196888,-0.004246262833476067,0.004345072899013758,-0.0025228296872228384,-0.001677431631833315,0.004089348018169403,-0.0009455937542952597,0.004004878457635641,0.0028889954555779696,0.0018958281725645065,0.004324283916503191,-0.0034767433535307646,-0.0022966735996305943,0.0031323512084782124,0.004566808231174946,0.0014708953676745296,0.0033648000098764896,-0.004278216976672411,0.0032457932829856873,0.0006321653490886092,0.002715047914534807,1.7633905372349545e-05,-0.0006857069092802703,-0.0030826088041067123,0.00019483448704704642,0.002433202462270856,-0.00038680265424773097,-0.0032270008232444525,-0.0014354168670251966,0.0031968995463103056,-0.0011112394277006388,0.000857186212670058,0.0016666111769154668,0.003394532250240445,-0.0020347312092781067,0.003913249354809523,0.0044675590470433235,-0.0031090686097741127,0.004559921100735664,-0.0038315800484269857,0.0030526723712682724,0.003845688421279192,-0.004173752851784229,-0.0031917879823595285,-0.002534327795729041,0.0010383216431364417,0.00023921122192405164,-0.0034746131859719753,-0.004143365193158388,0.004661680199205875,-0.004638590384274721,0.0022718498948961496,0.0015612331917509437,0.003074720036238432,-0.0021190268453210592,-0.0019529311684891582,-0.003682082751765847,-0.003929798025637865,0.0029604670125991106,0.000997657421976328,0.003192968899384141,-0.004176441580057144,-0.0023323912173509598,0.0017874462064355612,-0.004259561188519001,-0.0015817811945453286,-0.0037334575317800045,-0.0040430109947919846,-0.0028261649422347546,-0.0004945321707054973,0.0034987644758075476,-0.0014533870853483677,0.002071776194497943,-0.0024194386787712574,-0.0015223452355712652,0.0004461186472326517,-0.0039731706492602825,0.0002677498268894851,-0.0009644621750339866,-0.0037604975514113903,-0.0023563411086797714,-0.004186076112091541,0.003528030589222908,-0.004595826379954815,-0.0007584210834465921,-0.004426225554198027
そう,0.000503025425132364,-0.0005514865042641759,-0.0019172077300027013,-0.0013685572193935513,-0.004450029227882624,-0.004888505209237337,-0.004443399142473936,0.002112059388309717,0.004031650256365538,0.0032765232026576996,0.004744973033666611,0.0021949149668216705,-0.0019896903540939093,0.0015078859869390726,-0.00410630414262414,0.0011773421429097652,0.0018878848059102893,-0.00012059314758516848,0.0031335968524217606,0.004470194689929485,-0.0030347593128681183,-0.0008283885545097291,-0.0035575744695961475,-0.003989526070654392,0.0008707520901225507,-0.00013400054012890905,0.0017444244585931301,-0.003586814273148775,0.0043215216137468815,-0.0012156127486377954,-0.0016636800719425082,0.0005194002878852189,-0.004505496006458998,-0.0010775004047900438,0.0031686013098806143,-0.0007178576197475195,0.0020182300359010696,-0.002733319764956832,0.0034952061250805855,-0.005031568463891745,-0.0036418463569134474,-0.004050865303725004,-0.0054336851462721825,-0.004488887265324593,-0.0041261897422373295,0.0004743394674733281,0.001678677275776863,-0.000686652201693505,-0.003956998232752085,-0.004480542149394751,0.002700763987377286,0.005023239646106958,-0.0010762375313788652,0.0016660612309351563,-0.0006823408184573054,-0.00489470362663269,0.0007652058848179877,0.0005775984609499574,-0.0017755593871697783,0.0016358076827600598,0.004365459084510803,0.002494975458830595,0.00046641507651656866,-0.004417602438479662,0.0011919892858713865,0.0029902381356805563,-1.4247634680941701e-05,0.0026451305020600557,-0.00042513912194408476,0.0011977663962170482,-0.0033876674715429544,0.0007685815799050033,0.0029487228021025658,0.0005970074562355876,0.0009524477063678205,0.0026745961513370275,-0.003260356141254306,0.0013887671520933509,-0.004614067263901234,-0.0023151549976319075,-0.0011407692218199372,-0.0032996819354593754,-0.003897362155839801,-0.0007239252445288002,-0.0007729323697276413,-0.000951388559769839,-0.004673430696129799,-0.002715235808864236,-0.00021695077884942293,0.0003784155414905399,0.003972557373344898,-0.0025062200147658587,-0.0048643141053617,0.0039181956090033054,-0.004628179594874382,7.326947525143623e-05,-0.0009600537014193833,-0.004352909978479147,0.00015908811474218965,-0.004072737414389849
格差,0.0022970291320234537,-0.00022974102466832846,0.0030449905898422003,0.0038574677892029285,-0.0024309984873980284,-0.0019527408294379711,-0.0018942812457680702,-0.003947454504668713,0.004732262808829546,-0.004415362607687712,0.003916336689144373,-0.00019531713041942567,0.00021496026602108032,-0.0035521620884537697,0.0033666864037513733,0.0005272801499813795,0.0034596652258187532,-0.003843782003968954,0.0017741700867190957,-0.004482529126107693,-0.004093977622687817,0.003937405068427324,-0.00036328128771856427,-0.004254956729710102,-0.0016809053486213088,0.0020047430880367756,0.004457531962543726,0.0023687330540269613,-0.004547289572656155,-0.0005515623488463461,0.002220615977421403,0.0016007953090593219,0.003999092150479555,0.0036864897701889277,0.004873592872172594,-0.0036808454897254705,-0.0045723747462034225,-0.00016468638204969466,0.0026237277779728174,-0.003373628482222557,0.0024228610564023256,-0.0035392518620938063,-0.003029913641512394,0.0024989829398691654,-0.0018272420857101679,-0.0008670951938256621,0.0033577200956642628,0.0007618091767653823,-0.004658268764615059,-0.004067949950695038,0.00025089902919717133,-0.004352256190031767,-0.0036069455090910196,0.0030975122936069965,0.0029310001991689205,-0.004772254265844822,-0.0023663905449211597,0.0006829352932982147,0.003975865431129932,0.0003756640071514994,-4.199549584882334e-05,0.004780848044902086,-0.003962078597396612,0.0027891146019101143,0.004940370097756386,0.0016803883481770754,0.003786143846809864,0.003826481057330966,0.004870366305112839,0.003422838170081377,0.0004146925639361143,-0.005078020039945841,0.002228174125775695,0.0034863350447267294,0.002607939299196005,-0.0016809850931167603,-0.0006402086582966149,-0.0014769368572160602,0.0039045570883899927,-0.004590725526213646,0.0041020880453288555,0.0007612640038132668,-0.0015950067900121212,0.0008912964258342981,-0.00020075618522241712,0.004175733309239149,0.0037309443578124046,0.003115154104307294,-0.00432673329487443,0.003520715283229947,0.002488208469003439,-0.0005233268020674586,0.0040426491759717464,0.004171884153038263,0.0017412982415407896,-0.002422604477033019,0.000979882781393826,0.004817469045519829,0.0008147423504851758,-0.003439557971432805
消す,0.003965937532484531,-0.0031962788198143244,0.00351994251832366,0.002654986921697855,0.001777944271452725,0.004365932196378708,-0.004578597843647003,0.0024554056581109762,-0.00461831409484148,0.0010769519722089171,-0.0029284125193953514,-0.0017962160054594278,0.002841058187186718,-0.003433629870414734,-0.004748891573399305,0.0010475394083186984,0.0007076932233758271,-0.004438319709151983,0.0015038730343803763,-0.0013190291356295347,-0.0010618058731779456,-0.0033897741232067347,-6.639655111939646e-06,0.004771449603140354,-0.0011931664776057005,0.00489262118935585,0.004678581841289997,-0.0009877783013507724,0.002449299208819866,0.003622333984822035,-0.0018269228748977184,-0.0017573361983522773,-0.002401889069005847,-0.0002642585022840649,-0.0023075169883668423,0.004679386969655752,0.00408689072355628,-0.002629655646160245,0.0010895243613049388,-0.0026047229766845703,-0.003859804943203926,0.0018497033743187785,0.0012658234918490052,0.0007982162060216069,-0.004815222229808569,0.003327816491946578,0.0005634449189528823,0.0048752459697425365,-0.0028228783048689365,-0.0016898988978937268,0.0007734474493190646,-0.0003787343157455325,-0.0038408341351896524,7.5352712883614e-05,-0.005078375805169344,0.002035673940554261,0.0008220996824093163,0.0007520089857280254,0.0030033851508051157,-0.004932927433401346,0.0033631797414273024,-0.003940660040825605,-0.0036178419832140207,0.003420713823288679,0.0046242293901741505,-0.002613510936498642,-0.0005294305155985057,-0.004060171078890562,-0.003744135843589902,-0.0007013059803284705,-0.0037120894994586706,-0.001495849690400064,-0.00025184371042996645,-0.002700625918805599,-0.003197010839357972,-0.004640655126422644,-0.004666176158934832,0.0011948611354455352,0.0044505358673632145,-0.0005671337712556124,-0.0035715566482394934,-0.0025678963866084814,-0.004040626809000969,0.001646864810027182,0.0018527917563915253,-0.0007489511044695973,-0.004797888919711113,0.001610509934835136,0.0007255174568854272,0.0027172560803592205,0.003993503283709288,-0.0040804180316627026,-0.003016087459400296,0.001499934121966362,-0.0028607298154383898,0.002613295102491975,0.002088054781779647,-0.00266731483861804,-2.8746919269906357e-05,0.0025821144226938486
れる,0.0002883030683733523,0.0009486567578278482,0.0031009954400360584,0.0018084545154124498,-0.0009313885821029544,-0.004765377379953861,0.0012852558866143227,0.004324326291680336,0.0016646182630211115,-0.003110294695943594,0.0005188325885683298,-0.0026964289136230946,-0.003686080686748028,7.016741437837481e-05,-0.003348991274833679,0.0028549765702337027,0.00273740547709167,0.0036455451045185328,0.001557089271955192,-0.0031026515644043684,-0.004252235870808363,-0.0028787055052816868,-0.00016539942589588463,0.00029148077010177076,0.0034431004896759987,-0.000716608774382621,0.0022982570808380842,-0.002126072533428669,0.0038546971045434475,-0.0034319632686674595,-0.003310571424663067,-0.003648431273177266,-0.004017510451376438,0.003170866286382079,-0.004442187491804361,-0.003640764392912388,-0.0033647301606833935,0.004303245339542627,-4.616591104422696e-05,-0.002914814278483391,0.0002899870742112398,-0.0034340284764766693,-0.0033217351883649826,-0.0019539787899702787,0.001031473628245294,0.003416602499783039,0.0022062393836677074,-0.003934937063604593,-0.003485565772280097,0.002307112794369459,-0.0003089852398261428,0.004642811603844166,5.426278949016705e-05,0.004802118521183729,0.0004660649865400046,-0.0023795103188604116,0.0013081682845950127,0.003920488525182009,-0.003446096321567893,0.002720230957493186,-0.0006169432308524847,0.003832348622381687,-0.002202231204137206,-0.002716928720474243,-0.0025089799892157316,-0.002663860097527504,-0.0034379586577415466,0.0003726545546669513,-0.0036299049388617277,0.00029218156123533845,-0.0016981197986751795,-0.0016500911442562938,-0.004618237726390362,0.004825393203645945,-0.003230318194255233,-0.004823271185159683,-0.0012636968167498708,0.0011092334752902389,-0.003943166229873896,-0.0016362302703782916,0.003696056315675378,0.002022441243752837,0.0035626962780952454,0.0013080929638817906,-0.0044228932820260525,0.00016535176837351173,-0.0026900179218500853,-0.0027994203846901655,-0.002999579533934593,0.0021420044358819723,-0.004149843007326126,0.0027413584757596254,0.004059584345668554,0.004080960527062416,0.0015216158935800195,-0.0023956645745784044,-0.002170797437429428,-0.0037045932840555906,-0.0026532732881605625,0.0010771022643893957
維持,-0.0008828149293549359,-0.004004422575235367,-0.004022310487926006,0.000379693228751421,0.0041856965981423855,0.004958556033670902,0.004110321402549744,-0.0010618780506774783,0.004435235168784857,0.0035237791016697884,-0.0030649469699710608,-0.002804066985845566,-0.002849302487447858,0.003957828041166067,0.002968653105199337,-0.003559090429916978,0.001010954612866044,0.0012419909471645951,-0.004811013117432594,-0.003998931497335434,0.004774362780153751,0.004981550853699446,-0.004014358855783939,0.004685034044086933,-0.00211556488648057,-0.0013084191596135497,0.004521676804870367,0.003506526816636324,-0.0010410422692075372,-0.0004435510199982673,0.004408730193972588,-0.0018444290617480874,-0.004819327034056187,-0.0014545745216310024,-0.002502626972272992,0.0021739641670137644,0.005037047900259495,-0.0049334256909787655,0.0008167002233676612,-0.005149397999048233,-0.005234569776803255,-0.0009916207054629922,-0.0010994093026965857,0.002042264910414815,-0.004947541747242212,-0.0022659525275230408,0.00035086629213765264,-0.004601296503096819,-0.002104181097820401,0.0006638624472543597,-0.0009386494057253003,-0.0036577801220119,-0.0006567417876794934,-0.0010902988724410534,-0.0038338168524205685,-1.3050352208665572e-05,0.004198163747787476,0.0005228616646490991,0.0015101225581020117,-0.003957946319133043,0.001582817523740232,0.004488326609134674,0.0024504195898771286,0.0013766889460384846,-0.001937782159075141,-0.004860670771449804,0.004276706371456385,-0.0011237736325711012,0.0013153882464393973,0.0011240458115935326,-0.0014899843372404575,-0.000861109874676913,0.0029521530959755182,-0.00056017393944785,-0.004648558329790831,-7.97263637650758e-05,-0.0029176906682550907,-0.0007463421206921339,-0.0018619506154209375,-0.0002414603513898328,-0.003635021159425378,-0.0002712409768719226,-5.806671470054425e-05,-0.004577958956360817,-7.741447916487232e-06,0.00010994851618306711,-0.004836025182157755,0.0047418964095413685,-0.000769376871176064,-0.001287805032916367,0.0008281454211100936,0.003863884834572673,0.003777190577238798,0.0022927201353013515,0.004354601725935936,0.0038937905337661505,-0.004595838487148285,-0.004372607450932264,-0.004193768836557865,-0.003174892161041498
困難,-0.00309425825253129,0.000169562321389094,0.002796880202367902,0.004456792026758194,0.0022393546532839537,0.004353716038167477,-0.0042336732149124146,0.0019316693069413304,0.0012380756670609117,0.0030770536977797747,0.0030197056476026773,0.0009556558215990663,-0.0031585160177201033,0.0012055484112352133,0.0002579931460786611,-0.004005503840744495,-0.0034456420689821243,-0.0031565253157168627,0.003706669667735696,0.001170413219369948,-0.0010056255850940943,0.0012200727360323071,-0.004211192950606346,0.0022923783399164677,-0.0015231840079650283,0.003054038854315877,0.00225334195420146,0.0011172735830768943,0.004510757513344288,0.0005662596086040139,-0.0014968011528253555,0.0021485930774360895,0.00040636485209688544,-0.0014279100578278303,0.004167842213064432,0.004890094976872206,0.005090793129056692,-0.0024380481336265802,0.00040683921542949975,-0.004336262121796608,0.0043670483864843845,-0.00362541526556015,-0.003978137858211994,0.004540093708783388,0.0012753731571137905,0.00429402943700552,0.0043274518102407455,-0.0026876619085669518,0.00021153369743842632,-0.002464335411787033,-0.002629069611430168,-0.003675950923934579,0.0018268715357407928,-0.00020643517200369388,-0.004859564360231161,0.004656041041016579,0.004878149833530188,0.0018902935553342104,-0.001059888512827456,-0.00022760548745281994,-0.002586670685559511,0.0012385158333927393,0.0029507693834602833,0.0030146073549985886,0.004770789295434952,-0.0010094409808516502,0.004454208537936211,-0.0036736608017235994,0.0005850624293088913,0.0018119961023330688,-0.00491612683981657,-0.0003377022803761065,-0.003777565434575081,0.0005418946384452283,-0.002814515260979533,0.003953348845243454,0.002156446687877178,-0.0030762774404138327,0.0043151103891432285,-0.00025936547899618745,0.001239222357980907,0.0013622475089505315,-0.0037641774397343397,0.000573139579501003,0.004806565120816231,0.000981843681074679,-0.002907583024352789,-0.004596923943608999,-0.002609404269605875,0.0014526552986353636,-0.0027518696151673794,-0.0029848734848201275,0.0015033446252346039,0.004770771600306034,0.003705108305439353,3.881576776620932e-05,-0.003825054271146655,0.000833431666251272,-0.0009910500375553966,-0.0016749282367527485
みる,-0.004161813762038946,0.003920137416571379,0.0018919743597507477,0.0051453434862196445,0.002392866648733616,0.0017667145002633333,0.0034545569214969873,-0.00497248163446784,-0.000504450174048543,0.0005838563665747643,-0.00046123150968924165,-0.0013754492392763495,6.112776463851333e-05,0.0006727525033056736,0.004122489597648382,-0.002134553389623761,-0.0022986370604485273,-0.004247204400599003,-0.0010797488503158092,-0.001217746059410274,0.003135562874376774,0.002633279887959361,-0.0007224797154776752,-0.0043908157385885715,0.001697947271168232,-0.002075356664136052,-0.004424779210239649,0.004834418185055256,-0.003798786783590913,0.0023994422517716885,0.002507598837837577,0.0006940832827240229,-0.002896939404308796,0.0020265011116862297,0.001762121100910008,0.0047411127015948296,0.0004179965180810541,-0.0010448171524330974,-0.002200376009568572,-0.00447244243696332,-0.003310875501483679,0.00406816229224205,0.0012150441762059927,-0.004597243387252092,-0.0035333489067852497,0.001054989523254335,0.00459454907104373,-0.004333866760134697,-0.001589780324138701,0.0017966185696423054,0.0029642730951309204,-0.0016506626270711422,0.002374527044594288,-0.001452674507163465,-0.0033130976371467113,-0.00201507774181664,0.001656292355619371,-0.003342261305078864,0.004356220830231905,0.001192146330140531,0.004580887500196695,-0.001440655323676765,0.0019168128492310643,-0.0032095627393573523,-0.00416744826361537,-0.0034102522768080235,0.0031059442553669214,0.004197893664240837,0.0008364472887478769,-0.004470355808734894,0.0006825421587564051,-0.002908135298639536,0.0012072334066033363,0.00031556410249322653,-0.002598292427137494,-0.004114424344152212,0.004502464085817337,-0.0004277616098988801,-0.0027869699988514185,0.0032168689649552107,-0.0008614227990619838,-0.004619304556399584,0.0012477049604058266,0.0037693881895393133,-0.0018619917100295424,0.001567072351463139,-0.0018400781555101275,-0.0036846057046204805,-0.0035736176650971174,-0.0033483575098216534,-0.0031553434673696756,0.0030804008711129427,-0.0034389090724289417,-0.0016274728113785386,0.002249609911814332,-0.003623862750828266,0.0005770243005827069,0.0049627795815467834,-0.0015021002618595958,-0.0025038972962647676
られる,0.001789306872524321,-0.0006414910894818604,-0.0043171183206140995,-0.004210687708109617,-0.005205285735428333,-0.0019646156579256058,-0.0001925760880112648,0.004158899188041687,0.00044228858314454556,0.005121446680277586,0.0037789850030094385,-0.002539863809943199,-0.0013702907599508762,0.004379739984869957,0.002874853787943721,7.724120951024815e-05,-0.00360481976531446,0.0006367548485286534,-0.0042458768002688885,0.0005588189233094454,-0.0019124586833640933,-0.0028208403382450342,0.002023342065513134,0.0011874960036948323,-0.0015562358312308788,0.0005611505475826561,-0.002219399204477668,0.0030174509156495333,0.0028137241024523973,0.0019669197499752045,0.0008768426487222314,0.0026894970797002316,-0.0005684337811544538,0.0033309217542409897,0.0025994963943958282,-0.0022213859483599663,0.0032987361773848534,-0.0045979684218764305,-0.0020041733514517546,-0.000886404188349843,-0.00010309919889550656,0.004261336755007505,-0.0029732808470726013,0.002641908125951886,-0.003255063435062766,-0.0004854869039263576,0.002875251229852438,0.0014075462240725756,-0.0050679962150752544,-0.0010902119101956487,-0.004750498104840517,-0.0020549390465021133,0.0022446024231612682,-0.0027474139351397753,0.003492430318146944,-0.00018177955644205213,0.002470536157488823,-0.004139666445553303,0.00265376060269773,0.0038225571624934673,0.0028776773251593113,0.002153183100745082,0.0005316218012012541,-0.004835273139178753,0.0044057671912014484,-0.0011981810675933957,0.0019448541570454836,-0.0018448641058057547,-0.0015722945099696517,0.0014447488356381655,-0.0014506475999951363,-0.004496388137340546,-0.004857195075601339,0.0008500309777446091,0.0011200241278856993,-0.000517623033374548,0.004903605207800865,-0.0020208312198519707,-0.001449595671147108,-0.00022088276455178857,-0.0005767478724010289,0.0023652201052755117,-0.000993438996374607,-0.003921559080481529,-0.0017062497790902853,0.0028770058415830135,-0.0022519538179039955,-0.0007217584643512964,-0.0018178691389039159,-0.003108513541519642,-6.67182175675407e-05,-0.00298342970199883,-0.0004439961339812726,-0.0046684336848556995,0.001930247526615858,-0.004962066654115915,0.0010746446205303073,-0.0029076277278363705,0.00323618296533823,-0.0034015930723398924
今後,-0.0022293038200587034,-0.0010848208330571651,0.004660431761294603,0.0008520481060259044,-0.0033327306155115366,-0.00226828595623374,-0.0003200169012416154,0.0006971857510507107,-0.0016922742361202836,-0.00021849037148058414,0.0031226519495248795,-0.001809475477784872,-0.0047910176217556,-0.002379331272095442,0.00195873505435884,0.0020734407007694244,-0.001428929390385747,-0.0037088324315845966,0.004205819219350815,-0.004107037093490362,0.00278539233841002,-0.000920101476367563,-0.002433041576296091,-0.0009686697158031166,0.00116240163333714,-0.0032770095858722925,-0.0008190689841285348,-0.0033591315150260925,-0.0035451208241283894,-0.0019868090748786926,-0.003569268621504307,-0.0023421270307153463,0.003535567782819271,-0.001753411372192204,-0.0030127903446555138,0.002594976220279932,0.0013312228256836534,0.0008061857661232352,-0.0009289691224694252,0.003346415003761649,0.002590115647763014,-0.0023633430246263742,-0.0004111493472009897,0.0019552086014300585,-0.0001935899636009708,0.0015600803308188915,-0.00040202130912803113,-0.0033220225013792515,0.0036871035117655993,-0.001547231338918209,-0.0006849978235550225,-0.0008631283417344093,0.0007645477890037,-0.004098638892173767,-0.0007227176683954895,-0.0012397272512316704,-0.0016894969157874584,0.002393572824075818,0.0017331476556137204,-0.0045480867847800255,0.004159296862781048,-0.004194188397377729,0.0019516070606186986,-0.004481206648051739,0.001695161103270948,-0.0017036919016391039,-0.0034394438844174147,-0.0013283573789522052,-0.004011014010757208,0.0007739807479083538,-0.003808919107541442,-0.00450188759714365,0.0029156403616070747,0.0006615695892833173,-0.0007598691154271364,-0.0014451590832322836,0.0039850156754255295,-0.004472445230931044,-0.0027571783866733313,0.0015396844828501344,0.0011890731984749436,0.004335216246545315,0.0024114695843309164,0.003642760217189789,0.00030849859467707574,-0.004671598318964243,-0.0014963584253564477,0.004427070263773203,0.0013806110946461558,-0.002813852159306407,-0.004013524856418371,-0.0005540639976970851,0.0007797233993187547,0.002484150929376483,-0.00408332422375679,0.0034192106686532497,-0.0019113325979560614,0.004667176865041256,-0.0008086385787464678,-0.004558051470667124
ヵ月,-0.0006131674163043499,-0.0020939374808222055,0.0023634524550288916,0.003764041932299733,-0.00132258259691298,-0.002011270495131612,-0.0019214185886085033,0.00115067302249372,-0.0030274686869233847,0.003992422949522734,0.0033936328254640102,-0.0008418260840699077,-0.0033317189663648605,0.0015963719924911857,0.001829771208576858,0.003355591557919979,0.004210728220641613,-0.0032991489861160517,-0.0030762709211558104,1.0048623153124936e-05,-0.0016976157203316689,0.004257206805050373,-0.004956559278070927,0.003895060159265995,-0.00021525839110836387,0.00018522886966820806,-0.004459373187273741,-0.000735641282517463,-0.004396138247102499,0.003180227242410183,-0.0038457289338111877,0.0009057390270754695,0.0013913757866248488,0.0022351036313921213,0.0016504181548953056,0.0028292678762227297,0.0006463105091825128,-0.003473712597042322,0.0049924482591450214,-0.0020156025420874357,0.004361860919743776,-0.004647972993552685,0.004349158611148596,0.0008538015536032617,-0.002133652102202177,-0.0023385658860206604,-0.0019977064803242683,0.001312284148298204,0.003697257023304701,-0.004910650197416544,-0.0016279536066576838,0.0006528834928758442,-0.0043449499644339085,-0.003598280716687441,0.0008490873733535409,-0.0010256234090775251,0.004721963312476873,0.0031782141886651516,0.0007788836373947561,-0.0004760794108733535,0.0005974276573397219,0.001713799312710762,-0.0034559883642941713,0.0012075642589479685,-0.004998737946152687,0.005075032357126474,0.0045359693467617035,-0.0004520037036854774,0.0039921170100569725,0.002968053100630641,-0.0012509168591350317,0.0033123306930065155,0.003872295143082738,-0.001171636744402349,0.0007420478505082428,-0.004119133111089468,-0.00017368295812048018,0.0026759090833365917,-0.0011721797054633498,-0.004455940797924995,-0.00425842497497797,0.0014072838239371777,-0.0046327970921993256,-0.004071550909429789,-0.0015371551271528006,-0.0009072266984730959,0.004447785206139088,-0.0032011072617024183,-0.00397416902706027,-0.0017591322539374232,-0.004020571708679199,0.0006273511680774391,-0.002528384793549776,0.003148762509226799,-0.001658945344388485,0.0022717153187841177,-0.004033108241856098,-0.0025587379932403564,-0.0019638098310679197,0.001634526182897389
設定,-0.0037280344404280186,0.002467989455908537,0.0014256784925237298,0.003533066948875785,0.003051390638574958,-0.00040244063711725175,-0.0026536236982792616,0.0007036838796921074,-0.004668750334531069,0.005196306388825178,-0.0033052279613912106,-0.0017706374637782574,0.003100674133747816,-0.0018237432232126594,0.0007849813555367291,-0.00432139215990901,0.004711956717073917,-0.003411904675886035,0.0027365549467504025,0.004636626224964857,0.0022849233355373144,-0.001961875008419156,0.0013517130864784122,0.0020180922001600266,0.0030861881095916033,-0.0011209812946617603,3.0240831620176323e-05,0.0012742311228066683,-0.0025751637294888496,0.003967907279729843,0.00246863579377532,0.000995634705759585,-0.0019762306474149227,0.0003410126955714077,0.0002449704916216433,0.0031874298583716154,-0.003008544910699129,-0.00140288844704628,-0.0026519857347011566,0.0025245172437280416,-0.005169243551790714,0.0027413927018642426,-0.0023447999265044928,0.0011006610002368689,-0.0035982588306069374,-0.003693345934152603,-0.0010504891397431493,-0.0028847185894846916,-0.004617861472070217,0.0011038618395105004,0.003945340868085623,-0.002218151232227683,0.005146216135472059,0.0028954059816896915,-0.00449284678325057,-0.0003220805956516415,0.0008843906107358634,-0.0034627385903149843,0.003425468457862735,-0.0035101056564599276,-0.002049175091087818,0.0013337890850380063,0.003742380766198039,-0.0030618731398135424,0.0029008868150413036,-0.0017159916460514069,0.0022862995974719524,0.0030092159286141396,0.00020718366431538016,0.0007144211558625102,-0.002426321152597666,-0.0020879004150629044,0.0026537971571087837,-0.0044899131171405315,-0.004950487986207008,-0.0018100460292771459,-0.0035711347591131926,-0.00040423276368528605,-0.0007901510689407587,0.00306885689496994,-0.0015953173860907555,-0.001990116434171796,0.0029751614201813936,0.0013737562112510204,0.0023687556385993958,0.004429126624017954,-0.001033125096000731,0.00204345746897161,-0.003976029343903065,0.004547659307718277,0.0016247540479525924,0.004181828815490007,-0.0049155172891914845,1.06008383227163e-05,-0.0010836077854037285,-0.0026071961037814617,-0.0006535994471050799,0.0046044583432376385,-0.0031874519772827625,0.004928320646286011
基準,0.0014104654546827078,0.000553618767298758,0.0027333025354892015,0.0022798229474574327,-0.0007209767354652286,-0.0024276594631373882,0.0013653842033818364,-0.0028182370588183403,0.0005604630568996072,-0.000909472699277103,0.005065673962235451,-0.0008338259649462998,0.000743600248824805,-0.0036700074560940266,0.0012358236126601696,0.0013963329838588834,0.004641909617930651,0.002666486194357276,-0.0017495483625680208,-0.0005432828329503536,0.004359798971563578,-0.0007245202432386577,-0.004388323985040188,-0.004801396746188402,-0.0008044406422413886,-0.002092922804877162,-0.001381706795655191,0.0023931278847157955,-0.0016561977099627256,-0.001677745720371604,0.0013323429739102721,-0.0008205935591831803,-0.0033692955039441586,0.0020597008988261223,0.0014894348569214344,-0.0022413486149162054,0.0034093388821929693,-0.0029857121407985687,0.0029628342017531395,0.0003244441468268633,0.003253003116697073,-0.0014458452351391315,-0.0002101236314047128,6.968646630411968e-05,-0.001213325303979218,7.991212623892352e-05,0.000586631300393492,-0.0020985242445021868,0.0017352759605273604,0.0029809761326760054,0.00011079537944169715,-0.0040803346782922745,-0.0014065650757402182,0.0010925389360636473,0.002816877095028758,-0.002911407733336091,0.0027535276021808386,0.004897539038211107,0.0002175468544010073,0.004435549955815077,0.0021432398352771997,-0.0027486870530992746,0.002787031466141343,0.0005191836389712989,0.000881799147464335,0.0022799691651016474,0.003475995734333992,0.005074033048003912,-0.003969352226704359,-0.0013885139487683773,-0.002698426367715001,0.0031191373709589243,-0.002551112323999405,0.0037953946739435196,-0.005375802516937256,0.004593468736857176,0.0017112893983721733,0.0007488266564905643,0.0022610544692724943,-0.0006465436890721321,0.002824154682457447,0.0036463583819568157,0.0038116713985800743,0.002014866564422846,-0.004236522130668163,-0.0014980316627770662,0.0021313282195478678,0.0007832547416910529,-0.0017968229949474335,-0.0035928485449403524,0.0037175517063587904,0.0031766064930707216,-0.0037099518813192844,0.0051644593477249146,-0.002861905377358198,0.004014430567622185,0.0037830215878784657,0.004017585422843695,-0.0034746630117297173,0.001030646963045001
超過,0.0029882059898227453,1.7210260921274312e-05,-0.0012578218011185527,-0.0012201227946206927,0.0007190783508121967,0.004660329781472683,-0.0021427662577480078,-0.0025054526049643755,-0.0017495100619271398,-0.003541662124916911,-0.004671059083193541,0.0040216767229139805,0.00017586931062396616,-0.0004915009485557675,0.003741019871085882,-0.0013257645769044757,-0.0018435776000842452,-0.002877341117709875,-0.000939937774091959,-0.0024740167427808046,-0.0019883643835783005,0.0004706635372713208,-0.005081596784293652,-0.004772179760038853,-0.0008609037031419575,0.00011529857147252187,0.0011449424782767892,-0.0018295374466106296,-9.406153549207374e-05,-0.0028261749539524317,0.000999522628262639,-0.0005771709838882089,0.0019251671619713306,-0.00443233409896493,-0.002174045192077756,-0.0038155801594257355,0.002652059542015195,0.0031428548973053694,0.002892181510105729,-0.0029140424448996782,-0.003988961223512888,-0.004682641942054033,-0.004459201358258724,-0.0026598358526825905,-0.00039327333797700703,-0.0022719833068549633,0.002596602076664567,-0.003591103944927454,0.002655426738783717,-4.270541467121802e-05,-0.0031486821826547384,-0.004530790261924267,0.00492542190477252,0.004107510671019554,-0.004421083256602287,-0.004323011264204979,0.0027204868383705616,0.0022474636789411306,0.004176542162895203,-0.0010654317447915673,-0.004017162602394819,-0.00370112806558609,0.0035235704854130745,-0.002600789535790682,-0.004112611059099436,0.001409897580742836,0.004011770244687796,-0.0029451693408191204,0.003368760459125042,-0.003132275538519025,0.002626021858304739,0.0016420901520177722,-0.0006294710328802466,0.0018754847114905715,0.001357915927655995,-0.0006458410643972456,0.00399233540520072,-3.9551967347506434e-05,-0.0022249282337725163,0.0006100177997723222,9.467912605032325e-05,0.0021787616424262524,-0.002537099877372384,-0.00021192390704527497,-0.0036481833085417747,0.0014477979857474566,-0.0035159436520189047,0.004225288052111864,0.0023073642514646053,-0.002659647259861231,0.004468780942261219,0.004570795688778162,0.004098331555724144,-0.0006113416166044772,0.003827447071671486,0.0034838197752833366,0.003322107717394829,0.003950319718569517,-0.0033969497308135033,0.0026700389571487904
