,0,1,2,3,4,5,6,7,8,9,10,11,12,13,14,15,16,17,18,19,20,21,22,23,24,25,26,27,28,29,30,31,32,33,34,35,36,37,38,39,40,41,42,43,44,45,46,47,48,49,50,51,52,53,54,55,56,57,58,59,60,61,62,63,64,65,66,67,68,69,70,71,72,73,74,75,76,77,78,79,80,81,82,83,84,85,86,87,88,89,90,91,92,93,94,95,96,97,98,99
商船,-0.0017555952072143555,0.012983253225684166,0.0008308207616209984,-0.003695305436849594,-0.010197462514042854,-0.005744902417063713,-0.0051406798884272575,0.0011707206722348928,-0.0005010964232496917,0.0016917592147365212,0.008345501497387886,-0.0016486975364387035,-0.012564817443490028,0.0054290867410600185,-0.00795277301222086,-0.0017319920007139444,-0.002551567042246461,0.004948957823216915,-0.0027252298314124346,-0.004888331517577171,0.006565445102751255,0.0023327525705099106,-0.008705005049705505,0.005508980248123407,0.002834554063156247,-0.0011444021947681904,-0.004587873350828886,-0.014042222872376442,-0.0028479627799242735,0.00036898907274007797,-0.004761801101267338,0.001641023438423872,0.008774328976869583,0.002636584686115384,0.00240437313914299,-0.008322374895215034,-0.004036019556224346,-0.0038008885458111763,-0.006084343884140253,0.005719439126551151,0.0022778608836233616,0.009145865216851234,-0.0013886126689612865,0.012252294458448887,0.00019626086577773094,0.0008123202132992446,0.003082788549363613,0.004406435880810022,-0.00680962111800909,-0.007468096446245909,-0.0030461458954960108,0.008375325240194798,-0.00546331936493516,-0.00210253382101655,-0.00307202385738492,-0.010294550098478794,0.010971435345709324,-0.004783703479915857,0.0016053125727921724,-0.005708545912057161,-0.005368649028241634,-0.00922192633152008,0.00379305612295866,0.000397638650611043,-0.001345447264611721,0.001481346320360899,0.004144973587244749,-0.005913889035582542,0.00632971478626132,0.006377188488841057,0.0028578611090779305,-0.0015181085327640176,-0.004715306684374809,-0.0004369410453364253,-0.0008455474162474275,-0.0050912522710859776,-0.004425744991749525,-0.010059354826807976,0.0013232969213277102,0.009231706149876118,0.00021309219300746918,0.010560017079114914,0.005984606686979532,-0.0007067859987728298,0.0029217274859547615,0.006830036640167236,0.0018755949568003416,0.004162452183663845,-0.004189515486359596,0.005301662255078554,-0.006383220665156841,0.012649578973650932,0.0018048303900286555,-0.004006230738013983,0.0037383469752967358,-0.005443268455564976,0.008899454027414322,-0.0010353518882766366,-0.01107948087155819,0.004805511794984341
三井,-0.00103439309168607,0.000763370597269386,0.0053186723962426186,-0.0016896722372621298,0.0010567217832431197,0.003070738399401307,-0.002664203755557537,0.005284079350531101,0.0006748468149453402,0.003785789245739579,8.312714271596633e-06,0.0017000569496303797,0.0022269694600254297,7.692317012697458e-05,-0.003965209238231182,-0.001817432465031743,0.0003057518042623997,-0.001766812289133668,0.0031508011743426323,-0.0006732692709192634,-0.005759186111390591,-0.00492561049759388,-0.0062466030940413475,0.0017986055463552475,0.007271242793649435,0.003870853688567877,-0.004606867674738169,0.003132144222036004,-0.004854584578424692,-0.004088591318577528,-0.0020426157861948013,-0.0003484613262116909,0.0017904354026541114,-0.0025043801870197058,-0.0018039154820144176,-0.0021873796358704567,0.0029092878103256226,0.00199088454246521,0.0020762314088642597,0.002805878408253193,-0.0032293638214468956,0.002594501245766878,-0.00274765957146883,0.0016486451495438814,-0.003976848907768726,0.0021469760686159134,-0.0006562098860740662,0.002892286516726017,-0.0028827113565057516,-0.00807005912065506,-0.004506872966885567,0.006804115138947964,-0.00499102333560586,-0.0026071316096931696,-0.0004852660931646824,-0.003221674356609583,-6.842514267191291e-06,-0.00014172622468322515,0.006228557787835598,0.000995033304207027,0.00021045788889750838,-0.00878398772329092,0.0010219657560810447,0.002574165817350149,-0.004219569265842438,9.533436968922615e-05,-0.0034659747034311295,-0.0006874946411699057,0.0031544798985123634,0.0015310791786760092,-0.0028564995154738426,0.0042865523137152195,-0.0031082909554243088,-0.003101876936852932,0.0009930378291755915,0.003677177941426635,-0.004162087570875883,-0.0020034736953675747,-0.0006843273295089602,-0.00031500961631536484,0.0017767992103472352,0.002787957666441798,0.001374747371301055,-0.006478363182395697,-0.0015663045924156904,0.002724315272644162,-0.0035253704991191626,0.001727322000078857,0.0013935361057519913,0.0009891027584671974,-0.006341071333736181,-0.002402575919404626,0.0005636295536532998,-0.0010794552508741617,0.0026243790052831173,-0.0018486854387447238,0.003766241716220975,-0.006268809549510479,0.004699250683188438,0.0016794762341305614
*,0.008786228485405445,0.004645317327231169,0.005182773340493441,0.001654416904784739,-0.006410692818462849,-0.004357215017080307,-0.0007027219980955124,0.000488435965962708,0.007725553121417761,0.004240661393851042,-0.00016579209477640688,0.0013572126626968384,-0.007151300553232431,0.0010175181087106466,-0.005522071849554777,-0.002735169604420662,-0.006122781429439783,0.005116110201925039,0.0060485610738396645,-0.0017456931527704,-0.007447489537298679,0.002958388067781925,-0.0031280899420380592,0.0018011156935244799,0.003286577295511961,0.006676911376416683,0.001348730642348528,4.29514329880476e-05,0.0015511567471548915,0.006318161264061928,0.00038160179974511266,-0.0032335445284843445,0.007329554297029972,3.070151433348656e-05,-0.003704341361299157,0.005588927771896124,-0.004980623256415129,0.00304255704395473,-0.00386891420930624,0.002899603685364127,-0.0014796812320128083,0.0017470596358180046,-0.00010586052667349577,-0.003508114255964756,0.005978377535939217,-0.0010349886724725366,-0.007251705043017864,0.004480506293475628,0.0003250566078349948,0.002198172500357032,-0.003314505098387599,0.006281082518398762,0.002762173768132925,0.008461711928248405,0.004774737171828747,0.0006773220375180244,-0.00246644439175725,-0.0012071849778294563,0.0010325433686375618,-0.0048009236343204975,0.005016846116632223,-0.0021088854409754276,0.0008529721526429057,0.004661749582737684,-0.0004902414511889219,-0.0012274496257305145,0.0004801193717867136,-0.0036784522235393524,-0.0016729587223380804,0.003945144824683666,0.002611943054944277,-0.00176020129583776,0.005646371282637119,-0.0027695440221577883,0.009522367268800735,0.004396052099764347,-0.00214422307908535,-0.0038038850761950016,-0.0057482970878481865,0.0025276863016188145,9.748968295753002e-05,0.005858485586941242,-0.0009712782921269536,-0.005166997201740742,0.0020383596420288086,0.009130768477916718,0.0012849527411162853,0.0016389578813686967,-0.0033759665675461292,0.0052484129555523396,-0.004838714841753244,0.0053263455629348755,0.0012256167829036713,0.00142975605558604,-0.00033743015956133604,-0.0008150849025696516,-0.0003719778615050018,-0.007502710446715355,0.004238155670464039,-0.0031635805498808622
新規,0.0023779473267495632,0.005990834441035986,0.006412622984498739,0.005231435876339674,-0.002668727422133088,-9.471725206822157e-05,-0.0006553060375154018,-0.0006739182863384485,0.0006066943751648068,-0.0021654204465448856,-0.00040307757444679737,0.00029428693233057857,-0.008087877184152603,-0.0026588034816086292,-0.004473196808248758,-0.000121257733553648,-0.000911144888959825,-0.003829732071608305,0.0007414567517116666,-0.004523243755102158,0.0009844759479165077,-0.0011211936362087727,-0.007852809503674507,0.0027469233609735966,0.0007191112381406128,0.0009996998123824596,8.961372077465057e-05,-0.0023667216300964355,0.0011080382391810417,0.0030384445562958717,-0.0054360562935471535,0.0032880648504942656,0.0017739181639626622,0.002613781252875924,0.003345529083162546,-0.0023373407311737537,-0.0029609608463943005,-0.0016438468592241406,0.002330894349142909,0.0011676349677145481,0.0034170947037637234,0.0040413192473351955,-0.0030780015513300896,0.0012479608412832022,-0.0039465404115617275,0.0017514446517452598,-0.001982947811484337,0.0015053845709189773,0.003891788423061371,-0.0009743015398271382,-0.002077512675896287,-0.000745164230465889,-0.0005879753734916449,0.0054003410041332245,0.0002791337901726365,-0.00098220759537071,0.004872916731983423,-0.0004906792310066521,0.008703202940523624,-0.00023727142252027988,0.0022962577641010284,-0.005623954813927412,0.004820237867534161,-0.0033351220190525055,0.004949066787958145,-0.001979118213057518,0.00572988810017705,-0.0016392548568546772,-0.0006887922063469887,0.001923777163028717,-0.00027873943326994777,-0.0004644978907890618,0.0024795588105916977,0.0018365700962021947,0.0047354018315672874,-0.003820640966296196,-0.00021653017029166222,-0.0018468385096639395,-0.002380016725510359,-0.002309535164386034,-0.0016080685891211033,0.0031617977656424046,0.004398826044052839,-0.003769275965169072,-0.0007920803618617356,1.577497459948063e-05,0.004405700135976076,-0.0009266771376132965,-0.0025090198032557964,-0.0033891284838318825,-0.00546692218631506,0.0022274537477642298,-0.00251461798325181,-0.007883990183472633,3.3535994589328766e-05,0.0015908151399344206,0.0038729566149413586,-0.0012928409269079566,-0.0023504463024437428,-0.0029774378053843975
ドライ,0.006898542400449514,0.0006569123361259699,-0.002763959113508463,0.0022635068744421005,-0.004143339581787586,0.00894206389784813,-0.003760876599699259,-0.0024365927092731,-0.007191110402345657,0.0017993198707699776,0.0005786428228020668,0.0021312444005161524,-0.0014499551616609097,0.0054913731291890144,0.0039022215642035007,-0.005620740819722414,0.0008804211392998695,0.0016725161112844944,0.0013063177466392517,0.0034112981520593166,-0.000883535947650671,-0.0026553645730018616,-0.0036963913589715958,-0.0015339080709964037,-0.002241311362013221,-0.004814526066184044,-0.006933084689080715,0.002692770678550005,0.0008235884597525001,0.0019974629394710064,-0.00308471592143178,-0.003409050637856126,-0.001960525056347251,0.0037136361934244633,0.00030000414699316025,0.0023240228183567524,0.0020946403965353966,-0.00582136632874608,-0.002093568677082658,-0.007443778216838837,-0.0012395730009302497,-0.005817666184157133,0.0007509186980314553,-0.0031391617376357317,0.000315825454890728,0.002776032779365778,0.0015601926716044545,0.002120065037161112,-0.008244231343269348,-0.007032089401036501,-0.0066137900575995445,0.00733676552772522,0.0011764522641897202,0.0031891693361103535,-5.1034847274422646e-05,0.004197657108306885,0.010821664705872536,-0.00011041050311177969,-0.005474709905683994,-0.009560087695717812,-0.007332386914640665,-0.0019126480910927057,-0.005394459702074528,0.0012404699809849262,0.008039725944399834,0.001958073815330863,0.0007100873626768589,-0.007163114845752716,0.003523876192048192,-0.0018537475261837244,0.005869291722774506,0.002799427602440119,-0.005082773044705391,-0.0028300208505243063,0.005194004625082016,-0.009162520989775658,0.005296383053064346,-0.0030971034429967403,-0.006514746695756912,-0.003725536400452256,-0.0003223004750907421,0.009345215745270252,0.0005831473972648382,0.001284947618842125,0.0036161525640636683,-0.0006311094621196389,0.0034845967311412096,-0.004423908889293671,0.00014212497626431286,-0.0051165116019546986,0.004110437352210283,0.009431778453290462,0.003015096066519618,-0.002348492853343487,-0.00021749472944065928,0.00023345788940787315,0.0023825832176953554,-0.0007339310832321644,-0.0003981795161962509,-0.007722026202827692
市況,-0.0017332620918750763,0.0027992231771349907,0.0026637264527380466,-0.00604467187076807,-0.0006369550246745348,0.004352889955043793,0.003444880712777376,-0.0037624055985361338,0.0019031345145776868,-0.006607518997043371,0.0053143068216741085,0.0026386808604002,-0.007713764905929565,-0.006864912807941437,0.0008982701692730188,-0.0040261209942400455,-0.00046927380026318133,-0.006819350644946098,-0.0008537709945812821,0.0009535127319395542,0.004643471445888281,0.001134122139774263,0.0021839458495378494,0.004385334439575672,0.001571674132719636,-0.005365587305277586,-0.0071695102378726006,-0.009438971057534218,0.0008317249594256282,-0.0012125059729442,-0.0005823522806167603,0.00047041475772857666,0.00730621162801981,0.007080065552145243,0.004413018934428692,0.002354198833927512,-6.006099283695221e-06,0.0038932834286242723,-0.003400178626179695,-0.00022038689348846674,-0.003611740656197071,0.005582792684435844,-0.0002916865050792694,0.005592687055468559,-5.474337376654148e-05,-0.002955110976472497,0.007197714410722256,0.0009964627679437399,0.002440639305859804,-0.0026971411425620317,-0.0011993322987109423,0.004341311287134886,-0.002501645591109991,-0.004879070911556482,-0.0011223971378058195,-0.004818688612431288,-0.0014006104320287704,0.0008304401417262852,-0.0011039148084819317,-0.0017361331265419722,-0.0031692879274487495,0.0010167527943849564,-0.0007354135159403086,-0.010560417547821999,0.006506327074021101,-0.0009334556525573134,0.002131486078724265,-0.00112228374928236,0.001224955078214407,-0.005885697901248932,-0.0004956772900186479,0.007265556138008833,-7.420172914862633e-05,-0.003726501949131489,0.006966666784137487,-0.0030535089317709208,-0.0008616349659860134,0.0019259618129581213,0.0038902703672647476,9.780621621757746e-05,0.002138855867087841,0.0030037693213671446,0.00766030652448535,-0.0019240472465753555,0.004370170645415783,0.00028604589169844985,0.004058489575982094,-0.0034016757272183895,-0.0005280880723148584,0.007650810293853283,-0.006259644869714975,0.005582336336374283,-0.0010975506156682968,-0.00136546790599823,0.0019987323321402073,-0.006253606174141169,0.0018355848733335733,0.003326497972011566,-0.0002069980837404728,-0.0020089035388082266
水準,0.0007370201637968421,0.0031175739131867886,0.0031692846678197384,-0.0034883334301412106,0.0019129824358969927,0.006668665912002325,0.0006115110591053963,-2.8054462745785713e-05,0.0010482312645763159,-0.0001579451491124928,0.0011413355823606253,0.004552842583507299,9.431084617972374e-05,0.005169901996850967,-0.000916968216188252,0.0010837591253221035,-0.003110830206423998,-0.0056251538917422295,0.000620916485786438,-0.0003383644507266581,0.0006024372414685786,-9.240268263965845e-05,-0.009645494632422924,0.004115063231438398,-0.0005980474525131285,-0.0024769955780357122,0.0014449416194111109,0.00041225773748010397,-0.004756716080009937,-0.0017349033150821924,-0.005300714168697596,-0.0019838502630591393,0.005134274251759052,0.001090911333449185,0.0024477471597492695,0.0002942007267847657,-0.00018216564785689116,-0.0027886335738003254,0.004393528215587139,-0.0010596169158816338,-0.0014797755284234881,0.002013702178373933,-0.0016153525793924928,-0.0012906743213534355,-0.0011652667308226228,-0.0010729872155934572,-0.004371847957372665,-0.0019300415879115462,-0.001907146186567843,-0.0037717430386692286,0.0007450109114870429,0.002471417421475053,0.0025149756111204624,-0.0061758882366120815,0.0020298254676163197,-0.003946789540350437,0.00634585740044713,-0.0030893972143530846,0.0002416331262793392,0.0010684265289455652,0.0008311433484777808,-0.001088479533791542,-0.005187543574720621,-0.0007165097631514072,-3.33606731146574e-05,0.0020388050470501184,-0.0036753590684384108,-0.002921144012361765,0.0015789950266480446,-0.003533210838213563,0.002146642655134201,-0.0035033193416893482,-0.0016438541933894157,-0.0018038377165794373,-0.0009345955331809819,0.003551891539245844,-0.003197670681402087,-0.0019731034990400076,0.005144286900758743,0.003469415009021759,0.00025803851895034313,0.004496702924370766,-0.0035048089921474457,-0.002132657216861844,-0.0008142850128933787,-0.0013166815042495728,0.001079609151929617,0.0009177179890684783,-0.003220099024474621,0.001579203875735402,-0.0027651567943394184,0.003732884768396616,-0.0010417700977995992,-0.004868578165769577,-0.0038168143946677446,-0.003139563836157322,0.0003417551051825285,0.0011158545967191458,0.0007141715032048523,0.0018399942200630903
低下,-0.00945370178669691,0.0038001416251063347,0.000855378108099103,-0.00019798881839960814,-0.003754345001652837,0.003313168417662382,-0.00405095424503088,0.0002780653885565698,0.00020157091785222292,0.004166550934314728,-0.0006218721391633153,-0.00015483982861042023,-0.001572689157910645,0.0008100220002233982,-0.002764379372820258,0.000980143784545362,0.003019829047843814,0.002206390956416726,0.0029623154550790787,-0.004121219739317894,-0.0016788489883765578,0.0011282280320301652,-0.004032433498650789,-0.0012380334082990885,0.004297628998756409,-0.005442491266876459,0.0024391524493694305,-0.007648681290447712,-0.0009089771192520857,0.002692637499421835,0.002337596146389842,-0.0027534859254956245,0.004971408285200596,-0.0004996118368580937,0.002502125920727849,-0.002653544768691063,-0.0015724104596301913,0.0019712948706001043,-0.000619487720541656,0.0011102616554126143,0.005758040118962526,-0.0015526175266131759,-0.005140069872140884,0.004696713760495186,-0.003781263716518879,0.0031016820576041937,-0.00015678018098697066,-0.0005703514907509089,-0.0029929426964372396,0.000126940431073308,-0.0014286283403635025,0.001584419864229858,0.004601430147886276,0.0023250430822372437,0.0033901138231158257,-0.0021765748970210552,0.002494208747521043,0.0023379349149763584,-0.0010292038787156343,0.0009812013013288379,0.0020563891157507896,0.001957797212526202,-0.003972100559622049,-0.005162544548511505,-0.0021290183067321777,-0.0016349387587979436,-0.0020598398987203836,0.00043851055670529604,0.002784896409139037,-0.0004800138412974775,0.001345944358035922,0.0023803014773875475,-0.0020020196679979563,0.0009595672017894685,0.006262701936066151,-0.0011227834038436413,0.0001639437978155911,-0.00881067756563425,0.001728262985125184,0.0008810322033241391,-0.0033558907452970743,0.010789236053824425,-0.0029178019613027573,0.004362880252301693,0.001271809684112668,0.0007887977408245206,0.008051938377320766,-0.0006178146577440202,-0.003383329603821039,0.005648900289088488,0.0007109257858246565,0.0017512975027784705,0.002370604546740651,-0.0020431852899491787,-0.003398428438231349,0.005204795394092798,0.0033127805218100548,0.0036033526994287968,-0.0008132742368616164,0.007393627427518368
剥落,-0.005189699120819569,-0.0004526198608800769,0.002063809195533395,0.004667250439524651,-0.0059428405947983265,0.0015978143783286214,-0.00612270412966609,-0.001467436901293695,0.0013939616037532687,-0.0014762342907488346,-0.0032507728319615126,0.0008954319637268782,-0.002663519699126482,0.0004243222065269947,0.0029612525831907988,-0.00473052030429244,-0.003990889526903629,-0.002491929568350315,0.0017841908847913146,-0.003436458995565772,-0.004351011477410793,-0.0016617237124592066,-0.006138722412288189,0.005395198240876198,-0.003432048950344324,-0.0027584636118263006,0.0011442186078056693,-0.004790860693901777,0.00023829052224755287,0.0039046783931553364,0.001078000757843256,-0.0010301172733306885,-0.0020793406292796135,0.0018798719393089414,-0.0014067129231989384,0.0008130464120768011,-0.003995467908680439,-0.002112307585775852,-0.0003785767185036093,0.002325584413483739,0.0015951967798173428,-0.0018883603624999523,-0.002608256181702018,0.009246014058589935,-0.00036582944449037313,0.0029513598419725895,0.0019235227955505252,-0.00239365641027689,-0.0015184308867901564,0.0024282627273350954,0.004838400520384312,0.0012333180056884885,-0.0011034489143639803,-0.0016510483110323548,0.0026753097772598267,-0.004462875425815582,0.00870693288743496,0.002688881941139698,-0.0003393286024220288,-0.003231631126254797,9.020697325468063e-05,-0.0028284285217523575,0.002588563598692417,-0.0009197277831844985,0.0012657665647566319,0.000350399874150753,-0.00017152237705886364,0.002157342853024602,0.0010335526894778013,0.005591265857219696,-0.0009075021371245384,-0.0037321981508284807,-0.0031734684016555548,-0.0023108094464987516,0.007866961881518364,-0.006794571410864592,-0.0031105740927159786,-0.0033761453814804554,0.0016164792468771338,-0.0009370708139613271,-0.004005934577435255,0.002069101668894291,-0.00026706513017416,0.001499260077252984,0.0037419393192976713,0.0009289816953241825,0.0010398218873888254,0.0014014809858053923,-0.004567933268845081,0.002930309623479843,-0.004699876066297293,0.0021934667602181435,0.0007266921456903219,-0.002015892416238785,0.004167012870311737,-0.004396424163132906,0.000698161544278264,-0.0008257799781858921,-0.0014502746053040028,0.00469293724745512
投資,-0.005204357672482729,0.006587861105799675,-0.003473117481917143,-0.0010282557923346758,-0.004222167655825615,-0.00020188756752759218,-0.001842863392084837,-0.0032663391903042793,0.0014909736346453428,0.002021962543949485,0.0005883973790332675,-6.939456216059625e-05,-0.002428452018648386,0.0032156389206647873,0.005310114473104477,-0.0007628195453435183,0.00012972380500286818,-0.0026212602388113737,-0.0032137115485966206,-0.0009449318749830127,-0.003051001112908125,-0.00017885526176542044,-0.006393719930201769,0.006164885591715574,-0.001877898583188653,0.003520906437188387,0.004997828043997288,0.00020389643032103777,-0.0014283424243330956,0.00026956829242408276,-0.0035210680216550827,-0.0006224726093932986,1.60380732268095e-05,-0.0024988013319671154,0.002641403116285801,0.003993919584900141,-0.0022838949225842953,0.0031636813655495644,0.0020230417139828205,0.0006290694000199437,-0.004124208819121122,-0.00019165873527526855,-0.004667747765779495,0.007398887537419796,0.0021864159498363733,0.0004553546314127743,0.0016205034917220473,0.002943491330370307,-0.005271138623356819,-0.005091244820505381,0.003252670867368579,0.0030520569998770952,0.0010947954142466187,-0.003643818898126483,-0.0018257858464494348,-0.0008422514656558633,0.0054089464247226715,0.0010697008110582829,0.0013731936924159527,-0.000696263276040554,-0.0015264125540852547,-7.734168320894241e-05,0.0009400143171660602,0.001127348281443119,-0.004465123172849417,-0.0031372741796076298,0.0023392909206449986,-0.0005456644576042891,0.0035300790332257748,-0.0014358065091073513,0.0007035735761746764,0.005455631762742996,-0.0026635436806827784,-0.0022219845559448004,-0.0006411804351955652,-0.004489016253501177,-0.006088152527809143,0.00014411821030080318,7.066142279654741e-05,0.0025835770647972822,-0.0010334941325709224,-0.0001056756591424346,0.0031913581769913435,0.004450937267392874,-0.00025595398619771004,0.0010725302854552865,-2.4499371647834778e-05,-0.0008070791373029351,0.0013035342562943697,0.00017581286374479532,-0.0032250741496682167,0.0007207152666524053,-0.0028589104767888784,-0.0010101288789883256,0.0013176597421988845,0.0003451716620475054,-0.004627188667654991,-0.001820077421143651,-0.0018347345758229494,-0.004481073003262281
評価,-0.004855169914662838,0.0019232049817219377,0.004302980378270149,0.0032931005116552114,-0.005601954646408558,0.0015371462795883417,-0.0014635092811658978,0.003763830056414008,0.0011520173866301775,0.002607845701277256,0.003300359006971121,0.0031566107645630836,-0.004762174095958471,-0.0023453556932508945,-0.0014086622977629304,-0.0032498054206371307,-0.0029446869157254696,-0.002602474531158805,-0.0040148282423615456,-0.000722761731594801,0.0037508048117160797,0.0024194521829485893,-0.0008654507109895349,0.0015588889364153147,0.0013863348867744207,-0.0017583486624062061,0.005065832752734423,0.001519600278697908,-0.0008022435940802097,0.0014180471189320087,0.00034425698686391115,-0.0009159200126305223,-0.001509326510131359,0.0010997075587511063,-0.0002904300345107913,-0.00041696103289723396,-0.002569076605141163,-0.003448809962719679,-0.0027646003291010857,0.0002078759716823697,-0.0038045961409807205,0.0020892478059977293,0.0004737779963761568,0.006834081374108791,0.0036513032391667366,0.002002992667257786,0.002196642803028226,0.0010333562968298793,-0.001087788725271821,-0.001648933277465403,-0.0027685845270752907,0.00266431737691164,-0.0033277033362537622,-0.006988575216382742,-0.001998255029320717,-0.001713382313027978,0.003558861091732979,-0.0005969066405668855,0.0031740348786115646,0.004901430569589138,0.0021617827005684376,-0.006185244768857956,-0.0033904623705893755,-0.0010051379213109612,-0.001819173339754343,0.00021965900668874383,-0.004834303632378578,0.0032982616685330868,0.0033279573544859886,0.0022846574429422617,-0.0008338405750691891,0.002369243884459138,-0.00025955657474696636,0.0016733556985855103,0.0022914574947208166,-0.0015944065526127815,-0.0032953175250440836,-0.008554144762456417,0.0009761692490428686,0.0018529429798945785,-0.0009574735886417329,0.005263755563646555,-0.0015609277179464698,-0.00024326820857822895,0.0011301434133201838,0.0025810874067246914,-0.0005502986605279148,-0.00013431906700134277,-0.0011779707856476307,0.007296501658856869,0.0009222456137649715,0.004050055518746376,-0.00018905484466813505,-0.00617036921903491,-0.004228649660944939,-0.0009049118380062282,-0.0012733627809211612,-0.0007591473404318094,0.006689433008432388,-0.0017286872025579214
目標,7.882830686867237e-05,0.0014142318395897746,0.001654735766351223,-0.0017447981517761946,-0.0005337502807378769,0.002551143988966942,0.0020417114719748497,0.001795258722268045,0.004815349821001291,0.0032338276505470276,0.0012015182292088866,-0.0029932258184999228,-0.0030978855211287737,0.0009554469725117087,0.000666007399559021,-0.002224474912509322,0.0006189276464283466,-0.0060989148914813995,0.006498605944216251,-0.0071510798297822475,-0.003437852021306753,-0.003085076343268156,0.0012064888142049313,0.0018363137496635318,-0.0027786993887275457,0.003825579769909382,-0.005368281155824661,-0.0019253114005550742,0.001950920675881207,-0.005571878515183926,0.0005395168554969132,-0.0028688120655715466,0.0034850884694606066,0.0021342826075851917,0.005655827932059765,-0.004349821247160435,0.00551769882440567,-0.0006331106415018439,-3.86295432690531e-05,0.0015157671878114343,-0.004394544288516045,-0.0015923016471788287,-4.185771103948355e-05,0.007324300706386566,0.002253721235319972,0.0005303029902279377,0.0004764020268339664,0.00021569523960351944,0.00037439915467984974,-0.0018042052397504449,0.0002964757150039077,0.005710113327950239,0.006801011506468058,0.0020889139268547297,0.00018737197387963533,-0.00110319210216403,0.001549315988086164,-0.0020581157878041267,0.0019438648596405983,0.0014527037274092436,0.0012398089747875929,-0.004097301978617907,-0.0004487844998948276,0.0006599639309570193,-0.002432487206533551,0.006105336826294661,0.0003958303714171052,-0.0004988076398149133,-0.0019298635888844728,-0.0034987779799848795,-0.004106415435671806,-0.0008738214964978397,-0.005275221075862646,0.0004569810116663575,0.004000564571470022,-0.0004963867831975222,-0.0041712685488164425,7.367937359958887e-05,-0.0007608495652675629,0.006453249603509903,0.004837650805711746,0.002016864949837327,0.003376092528924346,0.002792303217574954,0.0014388278359547257,0.0018798804376274347,0.002712819492444396,0.0023218656424432993,-0.0023308834061026573,0.0014466255670413375,0.004759462084621191,-0.0013403058983385563,0.004358890000730753,-0.00409435061737895,0.00729717593640089,0.004091320559382439,-0.0009276909986510873,-0.0041708252392709255,-0.000729797116946429,0.0018645719392225146
株価,0.00021408428438007832,-0.002419406548142433,0.004945843480527401,0.004746477119624615,-0.004440286662429571,0.0013354114489629865,-0.002886174712330103,0.004548747092485428,0.001980230677872896,0.005096250679343939,0.001162614906206727,0.0015414012596011162,-0.0034276368096470833,-0.0036751178558915854,-0.0052060699090361595,-0.0029089991003274918,-0.001516620279289782,-0.003239382989704609,0.007052967790514231,-0.0026940368115901947,-0.002240489237010479,0.0014275683788582683,-0.0019621700048446655,0.002019729232415557,-0.004462338052690029,4.356567660579458e-05,-0.0025007908698171377,-0.004249092191457748,0.0009997948072850704,0.00671783834695816,-0.0048338621854782104,-0.0014554464723914862,0.0010720104910433292,0.007161833345890045,-0.0024719364009797573,-0.003965644631534815,-0.0002570780925452709,-0.0005184157053008676,-0.0009957917500287294,-0.004670662805438042,-0.0037292984779924154,-0.00021834700601175427,-0.004523052833974361,0.005788885056972504,-0.0010360723827034235,0.0021266203839331865,0.000904902582988143,0.003119348781183362,-0.000609575305134058,0.0006768261082470417,0.0004410104011185467,0.0035267260391265154,0.002866963855922222,0.0012193942675366998,-0.003528014989569783,0.0007134290644899011,-0.0009803494904190302,0.001253026071935892,-0.0008512749336659908,-0.002636422635987401,-0.0003868829517159611,-0.0001098843349609524,-0.0016727830516174436,-0.004220895003527403,-0.0005109740886837244,0.0036129725631326437,-6.69300789013505e-06,0.0013599356170743704,0.002039950108155608,0.005003439262509346,-0.001850005704909563,0.007042860146611929,-0.0012698087375611067,0.0008897765073925257,0.0007798277074471116,-8.894712664186954e-05,-0.008344645611941814,0.0014842388918623328,1.340784365311265e-05,-0.0036620835307985544,0.005073061212897301,0.004808560945093632,0.0023267348296940327,-0.006479265633970499,0.005578103940933943,0.0007674376247450709,0.003848432097584009,0.0012938473373651505,-0.002028456889092922,0.0036323084495961666,0.002592441625893116,-0.0005324576050043106,-0.0022200443781912327,-0.004515164997428656,-0.00038142199628055096,0.0008858321234583855,0.002427942119538784,-0.0010013618739321828,-0.00395776703953743,0.0018243205267935991
円,0.0032707604113966227,0.0029261396266520023,-0.0008249204838648438,0.0005419449880719185,-0.005181902088224888,-0.0001296313712373376,-0.003007299732416868,0.0021043040324002504,-0.0026216129772365093,0.0014831554144620895,0.000573778641410172,-0.005626893602311611,-0.00528725516051054,0.0003643536474555731,0.0010474304435774684,0.0008797928458079696,0.0012188558466732502,0.005546562373638153,0.0001370093086734414,-0.003795130178332329,0.0006963064661249518,0.004934293683618307,-0.0034461442846804857,0.00022430694662034512,-0.0023189375642687082,-0.007408556062728167,-0.00037453463301062584,-0.001670875702984631,-0.0001733880490064621,-0.005456398706883192,-0.003015377325937152,-0.000680217519402504,0.0007746188202872872,0.003712726291269064,0.002274163067340851,0.0033982465974986553,0.003673386760056019,0.0006919973529875278,-0.003260965459048748,-7.275468669831753e-05,0.0013397702714428306,0.006362410262227058,-0.00013958546333014965,0.0040597254410386086,0.0015093120746314526,0.003299799282103777,0.0017649381188675761,0.005523884668946266,-0.0069516804069280624,0.0012371363118290901,-0.007175548002123833,0.0036567319184541702,-0.0004660855047404766,-0.0033296234905719757,2.805842086672783e-05,-0.000910421134904027,0.004439820069819689,-0.002703957725316286,0.0020088888704776764,-0.0002496633678674698,0.001122047659009695,0.0007606619037687778,-0.005912042688578367,-0.005601647309958935,0.004966388922184706,0.0016457539750263095,0.0005037626251578331,0.0020193220116198063,0.003773815929889679,0.003991629462689161,0.0027823413256555796,-0.003738380502909422,-0.0012511538807302713,-0.005276520270854235,-0.003514560405164957,0.002881888300180435,-0.00318182073533535,-0.00413621636107564,0.0024181136395782232,-0.0008449198212474585,0.001704682013951242,0.0030343453399837017,-0.004919659812003374,0.0064659505151212215,0.0038336061406880617,0.0004213854263070971,0.0011757971951738,-0.003848941531032324,0.0017059019301086664,0.00029712432296946645,-0.0009264507098123431,-0.002249492798000574,0.0027097859419882298,-0.002603122964501381,-0.0029929843731224537,0.0010449942201375961,0.005399249028414488,0.00039972621016204357,0.004645473323762417,-0.0010721739381551743
開始,-0.002381963189691305,0.004536183550953865,-0.0018672057194635272,0.0017219968140125275,0.002498040907084942,0.002285030437633395,0.0020816035103052855,6.718491204082966e-05,-0.0016906815581023693,0.002425983315333724,-0.0010547407437115908,0.004670524038374424,0.0007578001823276281,0.003891004715114832,-0.0029714712873101234,-0.0007427314994856715,0.006965144071727991,0.0005012423498556018,-0.004254118073731661,0.0015586435329169035,-0.00543591845780611,-0.003198134247213602,-0.00744218472391367,0.002088770270347595,-0.0006992396665737033,0.001427707844413817,-0.0002555781975388527,-0.003302564611658454,-0.005663062911480665,0.0028751923236995935,-0.0032723669428378344,5.3401803597807884e-05,0.005144493188709021,-7.366761565208435e-07,0.0014976931270211935,-0.001355686690658331,-0.00028122830553911626,-0.007334196008741856,0.00029154930962249637,-0.00203879876062274,-0.0008736103773117065,-0.0009950622916221619,0.002862107241526246,0.007006324827671051,-0.0057564908638596535,0.0029215426184237003,0.005319909192621708,-0.0002993188099935651,-0.002029996132478118,-0.0037276498042047024,2.695084549486637e-05,9.228260023519397e-05,0.0015711045125499368,0.00039667548844590783,0.0008024034323170781,0.0015346241416409612,0.0008545162272639573,0.0008052873890846968,-0.0005102474242448807,-0.003065140452235937,-0.00013475272862706333,0.0008600906585343182,0.0046815271489322186,-0.006935114972293377,-0.0036207998637109995,-0.00024574206327088177,-0.0021560154855251312,-0.004631799180060625,0.0003142015775665641,0.00208973023109138,-0.0007215243531391025,0.002103482373058796,-0.004182629287242889,-0.001412276178598404,0.0056995004415512085,-0.002025425434112549,0.001494178082793951,-0.0045026689767837524,0.0031376841943711042,-0.0030853995122015476,0.0003287798026576638,0.0015589178074151278,0.0020421629305928946,-0.0010884017683565617,-0.00096124317497015,-0.0020319235045462847,0.0035006480757147074,0.007670177612453699,0.001101858215406537,-0.0017363728256896138,3.337603993713856e-05,-0.000680917059071362,-0.0022342312149703503,-0.0012611879501491785,0.002781581599265337,0.00194694718811661,0.003495453856885433,-0.0014849428553134203,0.00133623112924397,-0.0038540209643542767
日興,-0.0011108610779047012,0.003887870814651251,0.004862155765295029,0.00012641784269362688,-0.004609616473317146,0.006166437640786171,-0.0012647476978600025,0.005638063885271549,0.000630109163466841,-0.000999914831481874,-0.003730571363121271,0.0011693367268890142,0.0009558966848999262,-0.0006985212676227093,-0.001132778823375702,-0.0034059006720781326,-0.006872821599245071,-0.002295069396495819,0.0025849775411188602,0.0010946961119771004,-0.0009956341236829758,0.00011755121522583067,-0.003300422104075551,0.0033948691561818123,-2.2581778466701508e-05,-0.0010595843195915222,-0.0017327193636447191,-0.007936529815196991,-0.0031001258175820112,-0.0038569888565689325,-0.00345796812325716,0.004878711886703968,0.0021001717541366816,-0.001983947353437543,-0.003760810010135174,-0.00046150796697475016,-0.006168808788061142,-0.0009242853848263621,-0.003854939481243491,-0.0037403095047920942,-0.0013568701688200235,0.0005192209500819445,-0.0010949361603707075,-0.0012091242242604494,-0.002324081724509597,0.004221640527248383,0.0020663058385252953,-0.0007018882315605879,-0.0017857279162853956,-0.005163803230971098,-0.0010299142450094223,0.005045335739850998,-0.0015857093967497349,-0.00022728147450834513,0.0016313310479745269,-0.0013310466893017292,0.002223589923232794,-0.00015614146832376719,0.006955901626497507,0.0008503127028234303,0.004087427631020546,1.1825955880340189e-05,-0.0003866968909278512,0.00017890962772071362,-0.0017356800381094217,-0.0016045960364863276,-7.951073348522186e-05,0.0019130957080051303,0.0013602046528831124,-0.001450121751986444,0.004803810268640518,-0.002953138668090105,0.0007946407422423363,-0.004480143077671528,-0.0030587895307689905,0.0012083586771041155,-0.0025629596784710884,-0.003309346502646804,0.0005167581839486957,-0.0017195881810039282,0.002989031607285142,0.0012827363098040223,-0.00534166069701314,0.0029728871304541826,-0.004197278991341591,0.0027046732138842344,0.00667521171271801,0.007518324069678783,0.0021091389935463667,0.002772084902971983,-0.0038217788096517324,0.0027463180013000965,0.0033572176471352577,-0.005645351484417915,0.0012312151957303286,0.0020179750863462687,0.0067888181656599045,-0.0001405242655891925,0.0012454872485250235,0.002800948219373822
証券,-0.0026302740443497896,0.003106050193309784,0.0006091785617172718,0.0025582131929695606,-0.002013187389820814,0.0024281744845211506,0.003207605332136154,0.006144814658910036,0.0012600478949025273,-0.0038971896283328533,0.005774890072643757,0.002669415669515729,-0.0006470434600487351,-0.0022405642084777355,-0.000979710603132844,-0.003748364048078656,0.0017827949486672878,0.0012057352578267455,-0.00029063853435218334,0.0018841339042410254,-0.0022690356709063053,0.0014921510592103004,8.874991908669472e-05,0.002778939437121153,-0.0007690198253840208,-0.0013560059014707804,-0.004975555464625359,-0.00031025399221107364,-0.0034935371950268745,0.0014376846374943852,-0.0038093943148851395,-0.003252448746934533,0.0019309980561956763,0.0030471310019493103,0.0008832283783704042,0.0013256571255624294,-0.002636710414662957,-0.0018522909376770258,-0.005318317096680403,0.0004433572757989168,0.003282857360318303,-0.0028513227589428425,-0.007460503838956356,0.006551862228661776,-0.0017385098617523909,0.0003863578604068607,-0.003970528021454811,-0.0011729616671800613,-0.0013511825818568468,-0.0015363233396783471,-0.004784074611961842,-0.0024593682028353214,-0.002746637910604477,0.0035794603172689676,0.0017776885069906712,-0.004091584123671055,0.0027198982425034046,-0.0020355302840471268,0.001285604783333838,-0.000715800910256803,0.0015303691616281867,-0.003281214740127325,-0.003975389525294304,0.005740301683545113,0.001071876846253872,0.0033752252347767353,-0.0008367373375222087,-0.0025232634507119656,-0.0015044397441670299,0.0025812911335378885,0.0006234111497178674,-0.0033887578174471855,-0.006154775619506836,-0.0006636461475864053,0.0023658121936023235,-0.003688419470563531,0.0003021244192495942,-0.004496726207435131,0.004284634254872799,0.001849193125963211,0.00022583664394915104,0.00029986578738316894,-0.0007804488996043801,-0.0020723382476717234,-0.0023847513366490602,0.003080085851252079,-0.007719110231846571,-0.0018529577646404505,0.002336882520467043,0.0030152422841638327,-0.0017256182618439198,0.0036641054321080446,0.000258538406342268,0.000799992703832686,0.00182602577842772,-0.0001617961097508669,0.0025772755034267902,0.004289351403713226,0.0005580178694799542,0.0015733849722892046
以下,0.00011055590584874153,0.004060608334839344,0.0022437311708927155,-0.0022782308515161276,-0.001094280043616891,0.00719050969928503,-0.0021079368889331818,0.006042012013494968,-0.0004284745082259178,0.0016569141298532486,0.003066906239837408,-0.0006498177535831928,0.003498091595247388,-0.0011600307188928127,-0.003229798749089241,0.0028752656653523445,0.00041451017023064196,0.0007600319222547114,0.0020058301743119955,-0.002535131759941578,0.0029236748814582825,-0.007083538454025984,0.0005476899677887559,0.0008524949662387371,0.0026817945763468742,-0.0012990405084565282,0.0006975753931328654,0.002103702398017049,0.0008914463687688112,-0.0015629419358447194,-0.0035832738503813744,0.00466333981603384,0.00476225558668375,0.005109447054564953,0.001623951131477952,-0.00401660893112421,0.0040609282441437244,0.0006325642461888492,-0.004396745935082436,0.0012471757363528013,0.0063978033140301704,0.001441514352336526,-0.004286274313926697,-0.0009420157293789089,-0.004224363714456558,-0.005873310379683971,-0.0019303575390949845,0.002754596993327141,0.00010658858809620142,0.004311683122068644,0.0028207418508827686,0.00640722643584013,-0.001660165493376553,-0.005037861410528421,0.0007543934043496847,0.003460527630522847,-0.0011865280102938414,-0.004657170735299587,-0.0011409682920202613,-0.004716121591627598,-0.00032083422411233187,0.0022482899948954582,0.0006319840322248638,-0.0018304658588021994,0.001117608044296503,-0.0028500030748546124,-0.0019635818898677826,-0.0014894598862156272,-0.005510516464710236,-0.0011388889979571104,-0.000780324568040669,-0.0009663589298725128,0.0002184072945965454,-0.0007485836977139115,-0.00034939416218549013,0.003655749373137951,5.308794789016247e-05,0.003274842631071806,0.00367989344522357,-0.00042084301821887493,0.005945011042058468,0.0020668089855462313,0.0013359484728425741,-0.0006060507730580866,0.003333928296342492,-0.0010482672369107604,0.0005166037008166313,0.0018321083625778556,0.001417828258126974,1.4892197214066982e-05,0.0019128258572891355,-0.0008378219790756702,-0.0033630994148552418,-0.0008383051608689129,-0.0015343038830906153,-0.0001729981740936637,0.0010253464570268989,0.002484002849087119,0.003363304305821657,-0.002613516291603446
弊社,-0.0008628736832179129,-0.0005376883782446384,-0.0007274025119841099,0.002706346334889531,0.003099163295701146,0.004877642262727022,-0.004003032110631466,-0.0038171380292624235,-0.003418909152969718,-0.002335189376026392,0.0034081602934747934,-0.0015368765452876687,-0.0021444528829306364,0.00230775005184114,-0.0010866222437471151,0.0004435765149537474,0.0034979390911757946,0.0010240493575111032,0.00015600843471474946,0.0002917783276643604,-0.0036126854829490185,-0.002666704822331667,0.00038029454299248755,0.0008909617317840457,0.0031308461911976337,-0.0035422404762357473,0.00030635209986940026,-0.001967503922060132,-0.0008767921826802194,0.0012084916234016418,0.0005987055483274162,-0.0023728252854198217,0.001823123195208609,-0.00012430708738975227,-0.0003867849300149828,-0.0005491634947247803,-0.000327481102431193,-0.002684080507606268,-0.002430665772408247,0.0021844212897121906,0.0003139371401630342,0.001129244570620358,-0.0021687119733542204,0.006130811292678118,-0.0009101027972064912,0.0008285395451821387,0.0008568457560613751,0.0023882868699729443,0.001681437948718667,-0.0021818820387125015,-0.0001257668627658859,-0.0006178689072839916,-0.0007291562505997717,9.938010043697432e-05,-0.0027119910810142756,-0.001376268221065402,0.001665780320763588,0.001699871034361422,0.0009006676846183836,-0.0010315605904906988,0.0004816361761186272,-0.004678762052208185,-0.0010589902522042394,-0.002543305279687047,0.001776333898305893,0.0002607208152767271,0.0009083301411010325,-0.003033573040738702,0.0012014212552458048,-0.0013461326016113162,0.0009644202655181289,0.0037522688508033752,0.000332722527673468,-0.005139579530805349,0.00035134516656398773,0.0010821433970704675,-0.004918356891721487,-0.0044197579845786095,-0.0015570642426609993,0.0020961666014045477,0.0009141780319623649,0.0005512580974027514,-0.001861636177636683,0.0011934825452044606,-0.0014627742348238826,0.005309645552188158,0.0007494917954318225,0.0017239594599232078,-0.0010983404936268926,0.0003868437197525054,-9.665368997957557e-05,0.0033459439873695374,-0.001414384925737977,-0.0016367884818464518,-0.0014885483542457223,-0.0032665948383510113,-0.004122880287468433,0.002079371362924576,-0.0024757401552051306,0.0023921120446175337
同社,-0.001248922199010849,0.003948980011045933,0.0012030670186504722,-0.0001204097643494606,-0.0013361211167648435,0.004095612559467554,0.0035446982365101576,-0.0026292980182915926,-0.0013313516974449158,8.735503070056438e-05,-0.00045152788516134024,-0.0018511493690311909,-0.0010036206804215908,-2.204044722020626e-05,-0.0018378235399723053,0.0024986150674521923,-0.002379031153395772,0.0024658336769789457,0.0014507835730910301,0.00013593723997473717,0.0021232443396002054,0.005608146078884602,-0.002587774768471718,0.0032917559146881104,-0.001859556301496923,-0.0004300645086914301,0.0036896972451359034,-0.007571469061076641,4.276528488844633e-05,0.001996113220229745,0.005655289627611637,0.002467297948896885,0.0013410099782049656,-0.0016842558979988098,-0.0021581314504146576,-0.004074098076671362,0.0023046243004500866,0.004923477303236723,-0.0005376159097068012,-0.003242852631956339,0.002842301269993186,-0.0020910147577524185,-0.0012222062796354294,-0.0016940317582339048,0.0025629266165196896,0.005715391598641872,-0.005132008343935013,0.0004638020182028413,-0.0004221521667204797,-0.0025063962675631046,-0.0015167149249464273,0.0056403623893857,0.00254416442476213,0.002317820442840457,-0.002209183992817998,-0.0005275207804515958,0.0010568340076133609,-0.00019401824101805687,0.0002609700313769281,0.0017191454535350204,0.004533605650067329,0.0017041952814906836,0.00505081145092845,0.0006767341401427984,-0.0045930370688438416,0.0031471773982048035,-0.005014327354729176,-0.0019197245128452778,0.004613700322806835,0.003258434822782874,-0.0020503110717982054,-0.0026355967856943607,-0.00681812409311533,-0.0007214272045530379,-0.001280925003811717,-0.0013401894830167294,-0.0002581196022219956,-0.003775242483243346,0.000859683845192194,-0.001489867689087987,0.0020386893302202225,0.006723388563841581,0.0033844539429992437,0.003851242596283555,-0.0014514441136270761,-0.0004812882689293474,0.003451867029070854,-0.004574884660542011,-0.0005017977673560381,0.0012509952066466212,-0.001257214229553938,-0.0001949830912053585,-0.001447590533643961,6.602669600397348e-06,0.00015743891708552837,-0.0026869047433137894,0.0022683474235236645,-0.0022670701146125793,-0.000611361232586205,-0.0025416347198188305
規,-0.00386616843752563,0.007030155509710312,-0.0005674288840964437,0.002949395449832082,-0.003734592581167817,0.0001991486642509699,0.0026837163604795933,-0.0034029833041131496,0.002325413515791297,0.0029400845523923635,-0.0009285835549235344,0.0005837096832692623,-0.0024241695646196604,-0.0009895478142425418,-0.00010750116780400276,-0.0006177322939038277,-0.0012983846245333552,3.4340424463152885e-05,0.0015198471955955029,-0.0034390948712825775,0.00533707533031702,0.0026804846711456776,-0.0009603118523955345,-6.103224586695433e-05,0.0034086767118424177,-0.004612274002283812,0.0003384931187611073,0.0002786656259559095,0.0022293799556791782,-0.0030768862925469875,-0.004367901477962732,0.0030888570472598076,0.0038239015266299248,0.0055954838171601295,-0.0010929509298875928,-0.0057615963742136955,0.0018177398014813662,-0.0005474532954394817,0.0008239501621574163,-0.0034491491969674826,-0.001255930750630796,0.00046609656419605017,0.002889808500185609,0.0024684257805347443,-0.0026464432012289762,0.0028497655875980854,-0.0031622450333088636,-0.002099083736538887,0.002843015594407916,-0.004420229233801365,-0.004940398968756199,0.002235991880297661,0.00223279045894742,0.000576261430978775,0.005766510963439941,-0.0049285865388810635,0.003602861426770687,0.0007392950356006622,-0.004157593939453363,-0.0036759846843779087,-0.003078970592468977,-0.0020396956242620945,0.001646725693717599,-0.0034155533649027348,0.0002832942409440875,-0.004680177196860313,-0.0016474123112857342,0.0016746636247262359,0.003206948284059763,0.0011099223047494888,0.0011347426334396005,0.002349112881347537,-0.0019379929872229695,-0.005170582793653011,-0.0015543631743639708,-0.0020477287471294403,0.0004360313469078392,-0.005283156409859657,0.0008505493169650435,-0.001937973196618259,-0.002477549947798252,0.004111349117010832,0.0010280542774125934,-0.0036116931587457657,-0.0018659175839275122,-0.0003989695105701685,-0.0006838953122496605,0.0010609637247398496,-0.0006499529117718339,0.005349644459784031,-0.003326247213408351,-0.0012389501789584756,-0.003917905502021313,-0.0006658924976363778,0.00020512030459940434,-0.0038238258566707373,0.004514993634074926,0.0024159271270036697,-0.0005346389953047037,-0.0009100746246986091
する,-0.003820134326815605,-0.0011999751441180706,-0.0011142409639433026,0.0027039041742682457,-0.002096990356221795,-0.0009250524453818798,0.002406307030469179,0.005071469582617283,-0.005566601641476154,-0.003505486762151122,0.0035994017962366343,-0.0008379585342481732,0.0010608609300106764,-0.0014983334112912416,0.0001254545641131699,-0.0011952656786888838,0.005965682677924633,0.0016291941283270717,-0.006032206118106842,-0.001021329895593226,-0.004170987289398909,0.000325762783177197,-0.005424103699624538,0.0010091204894706607,0.0019580847583711147,0.002438931493088603,-0.0021363673731684685,0.0011296940501779318,0.003675198182463646,0.0025913589634001255,-0.0014169318601489067,-0.002439343836158514,-0.00011383113451302052,-0.002307687420397997,-0.0007254309020936489,0.004911309108138084,5.140091525390744e-05,-0.00452197203412652,-0.003950974904000759,0.0017196552362293005,0.00083931814879179,0.003978753462433815,-0.0024167518131434917,8.659856393933296e-05,0.000863316934555769,0.002691380213946104,-0.0017314041033387184,-0.002761023584753275,-0.0032043512910604477,-0.002627852139994502,0.0034583162050694227,0.0012849322520196438,0.002038264414295554,-0.002953191287815571,0.004946110770106316,-0.0033732287120074034,-0.0026650007348507643,0.002495379652827978,0.0016903708456084132,0.0021905263420194387,-0.0023913178592920303,-0.004585688933730125,-0.003918014466762543,-0.0012899615103378892,-0.0007305224426090717,-0.0008279714966192842,-0.0025680360849946737,0.006004850845783949,-0.00041326088830828667,0.001290102954953909,0.0020573961082845926,-0.0008753532310947776,-0.0018556343857198954,-0.00030223745852708817,1.1677737347781658e-05,-0.0013707164907827973,0.0016851865220814943,0.0017179308924824,0.00014174217358231544,-0.0008067157468758523,-0.0002083617728203535,0.0014312154380604625,0.0019757067784667015,0.004437768831849098,0.0003952351398766041,-0.002423451282083988,0.0018682894296944141,0.002183531643822789,-0.00022162916138768196,-0.0022345890756696463,-0.000483395648188889,0.002041212748736143,-0.0009009488858282566,-0.00226649921387434,-0.00011253451521042734,-0.004188830032944679,-0.002435569418594241,-0.0033018712420016527,-0.0033876770175993443,-0.0020600929856300354
年,-0.0031416972633451223,0.002907716203480959,0.006461028009653091,0.0011791214346885681,0.0009905098704621196,-0.0015385622391477227,-0.001995566301047802,-0.0037972480058670044,-0.0023397712502628565,0.004332915414124727,0.00011736463056877255,-0.0001849320251494646,-0.006176387425512075,0.0012038304703310132,0.005363833624869585,0.0025916937738656998,0.003070924198254943,0.0026621646247804165,-0.0011222045868635178,-0.003876261878758669,0.0006326353177428246,0.0014073032652959228,-0.002748318947851658,-0.0010704926680773497,-0.0034896587021648884,-0.00637541338801384,0.0011636161943897605,0.00027177564334124327,-0.0012830995256081223,0.0007093146559782326,0.003655468113720417,-0.003310061991214752,0.0015221405774354935,0.0016874235589057207,0.0008562806178815663,0.0017620990984141827,-0.00044460303615778685,-0.0003482552128843963,-0.0035464083775877953,0.0043572355061769485,-0.0013206899166107178,0.0001545432023704052,-0.005678592249751091,-0.00332572590559721,-0.0014125145971775055,-0.0015595086151733994,0.0034373835660517216,0.0004314782563596964,-0.0011261727195233107,-0.004515218548476696,-0.0013055449817329645,-2.2059772163629532e-05,-0.004080400802195072,-0.0016174893826246262,-0.004606317728757858,-0.0033369765151292086,0.0006317567313089967,-0.0065111154690384865,0.005440829787403345,-0.0009892069501802325,0.0002513986546546221,-0.0004892167635262012,-0.00144598085898906,-0.003419359913095832,-0.0028049296233803034,-0.0007219447288662195,0.001080700196325779,0.0006276986096054316,0.005034465342760086,-0.001021242467686534,-0.0009714269544929266,0.002459792187437415,0.00546459062024951,-0.0021088970825076103,-0.0031041281763464212,0.004671942908316851,0.002388303866609931,-0.0012410857016220689,0.006254536099731922,-0.000652479357086122,0.0052705612033605576,0.0007000693585723639,0.0007974319159984589,0.0007663523429073393,-0.0009478148422203958,0.005117655266076326,0.006151275709271431,-0.002431593369692564,-0.0035588701721280813,0.008081058040261269,0.0009466914925724268,-0.00037178280763328075,-0.0007191051263362169,-0.000994713744148612,0.0019051349954679608,-0.0029425041284412146,0.0009477869025431573,1.8547085346654058e-05,-0.0005714486469514668,-0.0059801810421049595
高騰,-0.005744743160903454,0.001881695818156004,0.003187240567058325,-0.0005727980751544237,0.0035322450567036867,0.0030398888047784567,0.002058339538052678,-0.001948429737240076,0.0028808817733079195,0.003554563969373703,-0.00146429892629385,0.0001545639242976904,-0.005653797648847103,-0.0015012752264738083,0.000426009064540267,0.0022981036454439163,0.006533006206154823,-0.005014139227569103,-0.003249101573601365,0.002397699747234583,-0.0007338394643738866,-0.005409464240074158,-0.0006124834762886167,-0.0042670429684221745,0.0017372984439134598,0.002032256219536066,-0.0020658147986978292,-0.00906397495418787,-0.0030031048227101564,-0.003321581520140171,0.004573827143758535,0.00513714924454689,0.004084771499037743,0.0009758798405528069,0.005564874969422817,0.0059334514662623405,0.001966088078916073,-0.0029316111467778683,-0.002652340102940798,0.00814795307815075,-0.002263406291604042,-0.002692591864615679,0.00678830873221159,-0.0035263330210000277,0.008533632382750511,0.004813451319932938,0.0025740235578268766,0.0037220425438135862,0.0006098358426243067,0.0037580032367259264,-0.0016795196570456028,0.0007500806823372841,-0.0050542326644063,0.006067824549973011,-0.005280638113617897,0.0003984712529927492,-0.005006210878491402,0.0006078483420424163,0.0009813145734369755,-0.005044983699917793,0.001552538713440299,-0.0059664444997906685,-0.0011718206806108356,0.004226055461913347,-0.001824998646043241,0.004995301831513643,-0.006213113199919462,-0.004106653388589621,-0.0020689996890723705,-0.007376181893050671,-0.0056603108532726765,-0.004915870260447264,0.002074082847684622,-0.0021327314898371696,0.006027954630553722,-0.00624376256018877,0.00029828445985913277,-0.006691248621791601,0.000993044814094901,-0.0015429042978212237,-0.0015929930377751589,0.007228512316942215,0.0007796233985573053,0.00032053026370704174,-0.0066546062007546425,-0.0029270451050251722,-0.003905797377228737,0.0011913254857063293,-0.0010332451201975346,0.003995741717517376,0.005081974435597658,0.0014415092300623655,0.004276037681847811,-0.002761473646387458,-0.005664041731506586,-0.0031304629519581795,-0.004944942891597748,-0.002684985287487507,-0.001902389107272029,0.0040953028947114944
時,-0.004189078230410814,0.0008534883381798863,-0.003419265616685152,0.0027691188734024763,-0.006742947734892368,-0.003199606668204069,0.0038313325494527817,0.0027339288499206305,-5.797634366899729e-05,-0.0020713757257908583,0.0031367221381515265,0.0009373557986691594,0.00043442880269140005,0.0015064827166497707,-0.0013316575204953551,0.0022871154360473156,0.0017459369264543056,-0.0029830546118319035,0.0030858353711664677,-0.0015013066586107016,0.0026516010984778404,-0.002875856589525938,7.846485823392868e-05,-2.5451532565057278e-05,-0.0019486555829644203,0.001629465725272894,-0.00218806229531765,-0.002693220041692257,0.0016313559608533978,-0.002278965665027499,-0.00031039625173434615,0.0026340121403336525,-0.006538698449730873,-0.0006447269697673619,-0.0003626058460213244,0.002194343600422144,-0.0007206156151369214,0.0015728767029941082,-0.0024144602939486504,0.006626916117966175,0.0013815227430313826,0.00074656872311607,0.0003326142905279994,0.0017311491537839174,-0.0020081265829503536,0.004595878534018993,-0.0008739092154428363,0.001263011246919632,-0.004211443476378918,0.0034083283971995115,0.001998218707740307,0.0007982953684404492,-0.0035624303855001926,0.002102385275065899,0.0015018818667158484,0.00011182654998265207,0.0028679324313998222,-0.0008504455909132957,0.006418411619961262,-0.005318614654242992,0.0019099501660093665,-0.0024991738609969616,-0.0001031199935823679,-0.004288247786462307,-0.00019256200175732374,0.00107162119820714,-0.0035797676537185907,0.0034986776299774647,0.0027925630565732718,-0.0026008847635239363,0.00038244726601988077,-0.0008724220097064972,0.0025265291333198547,-0.0005700979381799698,0.0023110753390938044,-0.003949955105781555,-0.000824249058496207,-0.0012442064471542835,-0.00014677282888442278,0.002464952412992716,0.003618404967710376,0.005649707745760679,-0.0031362406443804502,0.003614596324041486,0.00023928843438625336,-0.00041147368028759956,0.005679112859070301,-0.000241247151279822,-0.0009785516886040568,-0.0023980357218533754,0.003097930923104286,0.00045747391413897276,0.002056123921647668,-0.001313619315624237,0.004205722827464342,-0.002992675406858325,0.003001399105414748,0.0013161436654627323,0.004126479849219322,-0.002006114460527897
成約,-0.0023145615123212337,0.0031109098345041275,0.00428167637437582,-0.003030880354344845,0.00039553691749460995,6.284448318183422e-05,-0.006154156289994717,-0.0036847423762083054,7.788767106831074e-06,0.0025371864903718233,-0.005391913931816816,-0.0024607949890196323,0.004498747643083334,0.0046114129945635796,-0.0049785105511546135,0.0009223107481375337,0.0037904500495642424,-0.0034225289709866047,0.0030815633945167065,-0.0022123302333056927,0.0007099981885403395,-0.00019642116967588663,0.0014451598981395364,-0.0016015049768611789,0.0005201969761401415,-0.000962329562753439,0.0022462084889411926,0.0010839246679097414,0.0021386840380728245,0.005429314915090799,-0.0022273212671279907,-0.0003405776806175709,0.0011476284125819802,-0.0036233016289770603,-4.9304915592074394e-05,-0.0026281443424522877,0.004753485321998596,-0.003691829741001129,-0.0005896127549931407,-0.005432575009763241,-0.0032673266250640154,0.0017243267502635717,0.0024295193143188953,0.004963103216141462,-0.0008879546658135951,0.0057243239134550095,-0.0033188736997544765,-0.0032569156028330326,-0.0017628578934818506,-0.0014042874099686742,-0.001599685288965702,-0.0017924074782058597,0.0036364668048918247,0.00020712101832032204,0.0017858294304460287,-0.0026886826381087303,0.001130776247009635,-0.0001511159643996507,5.840323865413666e-06,-0.0011600307188928127,0.004467384424060583,-0.003622188698500395,-0.003198604565113783,0.002428243635222316,0.004282334353774786,-0.003091957187280059,0.0018248709384351969,-0.0023620822466909885,-0.0018434252124279737,0.004582063294947147,0.000571289740037173,0.00037132285069674253,-0.004530171398073435,7.756846025586128e-05,-0.005246407352387905,-0.00320444256067276,-0.0010567856952548027,0.002230923157185316,-0.001893392764031887,-0.006300427485257387,-0.0005498914979398251,0.0013500626664608717,-8.200560114346445e-05,-0.001396104460582137,0.0029470392037183046,0.0008336586179211736,-0.00033470778726041317,-0.004068694077432156,0.0009845575550571084,-0.004119538236409426,0.002164742909371853,-0.003550437744706869,-0.00026134890504181385,-0.003901880932971835,0.006115092895925045,0.00391770713031292,-0.0014724595239385962,0.0009077602298930287,-0.0016388772055506706,-0.003128432435914874
中期,-0.007022754289209843,-0.00039486365858465433,-0.001818228280171752,-0.004396041389554739,-0.003471394767984748,-0.00117203569971025,0.007221127860248089,0.002579097170382738,0.0013805285561829805,-0.00675127562135458,-8.883653208613396e-06,-0.0076334187760949135,0.0008652966935187578,0.0012289249571040273,0.0003077674191445112,-0.0013904026709496975,-0.0020286226645112038,-0.006313604302704334,0.0033143654000014067,0.002658451208844781,-0.000667268643155694,-0.0004856809973716736,0.006255562417209148,0.004088930785655975,0.0057235900312662125,-0.005639198236167431,0.005422486923635006,-0.0010655000805854797,0.003067170735448599,-0.0054069701582193375,0.00020131620112806559,-0.005262573249638081,-0.005500344559550285,0.006062271073460579,0.0006614318117499352,-0.0012621472124010324,0.0026862698141485453,0.0014242817414924502,-0.0008437721990048885,0.0006824336014688015,0.002380594378337264,0.00839374028146267,0.0009387144818902016,-0.0010692172218114138,-0.0010089026764035225,0.004787006415426731,-0.007176985498517752,0.004516027867794037,0.003109120996668935,0.0006400642450898886,-0.0017251713434234262,-0.004176792223006487,-0.0025875167921185493,-0.0001529124565422535,-0.0024841874837875366,0.0024681927170604467,-0.0012389097828418016,-0.0028351088985800743,0.003577498020604253,-0.0027691135182976723,-0.005845679435878992,-0.004609772004187107,0.003604154335334897,0.003535393625497818,0.0028775734826922417,-0.005401019472628832,0.0028984134551137686,-0.004663841798901558,0.006045508198440075,0.00440266914665699,0.0009138134773820639,0.0034736786037683487,0.0033691299613565207,-8.640042506158352e-05,-0.006114672869443893,0.0015703814569860697,-0.0020341065246611834,-0.004693272057920694,-0.0035974965430796146,-0.006886109244078398,0.004816002678126097,0.001008919207379222,-0.004360555671155453,-0.0007793125696480274,0.005730489268898964,-0.0036477665416896343,-0.0013009242247790098,0.00841675978153944,0.003987500444054604,0.00186476472299546,0.0010811234824359417,-0.0005076148081570864,-0.0007230358896777034,0.007953637279570103,-0.0011218143627047539,0.0030313145834952593,-0.005822943057864904,0.007963692769408226,-0.0010929650161415339,0.005481032654643059
契約,0.0017333908472210169,0.0006994641153141856,0.002333954209461808,3.355270018801093e-05,0.0049591874703764915,-0.0035426360554993153,0.0042479382827878,0.0014103989815339446,-0.004642149433493614,-0.0015732835745438933,0.006734144873917103,0.0021345349960029125,0.0010165860876441002,0.0031744136940687895,-0.0019200746901333332,-0.0020421252120286226,0.0016915512969717383,0.002280173357576132,0.000551244942471385,0.000602934742346406,-0.005502690095454454,-0.0020861197263002396,0.0008662506006658077,-0.00041517033241689205,-0.004240045789629221,-0.0020060257520526648,0.00149158772546798,-0.002870077034458518,0.005128434859216213,-8.362485095858574e-05,0.002400720492005348,-0.004520957358181477,-0.004854276776313782,-0.0018350916216149926,-0.0071108099073171616,0.005215320736169815,-0.0015001342399045825,-0.00491476571187377,-0.0005618827417492867,-0.0028811541851609945,-0.0007196464575827122,-0.0031549823470413685,-0.000708458770532161,0.0064772069454193115,-0.004745721351355314,0.0004196051158942282,0.00038916891207918525,0.000852715689688921,-0.0016488063847646117,-0.0010571347083896399,0.0004180088872089982,0.0033623857889324427,-0.002739191520959139,-0.0019543461967259645,0.0034898906014859676,0.0015919178258627653,0.0046927351504564285,-0.00018544832710176706,-0.0017615687102079391,0.00261701550334692,-0.002195212058722973,-0.004590895026922226,-0.002706644358113408,-0.0010565957054495811,0.0015447181649506092,0.0012625297531485558,0.0016780461883172393,-0.0008726874366402626,-0.006006876938045025,0.0023332294076681137,0.0007763446774333715,-0.002164064906537533,0.0036723711527884007,-0.00040540285408496857,0.000292878074105829,-0.006205898709595203,0.0016751822549849749,-0.003574124537408352,0.0030844383873045444,0.0016863811761140823,0.0009446146432310343,0.0031078094616532326,0.0006034426623955369,0.0018193877767771482,0.00242827832698822,0.0055486056953668594,0.003740109736099839,-0.00432359566912055,-0.005082248244434595,0.006554536987096071,-0.003188961185514927,0.003935200162231922,-0.0035349566023796797,-0.002481966745108366,0.006069420836865902,-6.313261110335588e-05,-0.00471548642963171,-0.0005119936540722847,-9.225122630596161e-05,0.0011933115310966969
満了,-0.0027310580480843782,0.0037473877891898155,-0.0007230476476252079,0.00023347121896222234,0.0018263185629621148,0.002021052874624729,0.000516109517775476,-0.004120453726500273,-0.0034678135998547077,0.0018775600474327803,8.073635399341583e-06,0.002969152992591262,-0.007157673593610525,-0.0035127971787005663,0.003525229636579752,-0.0013915541348978877,-0.0012932289391756058,-0.001873660716228187,-0.002154663670808077,0.006770259700715542,0.00426650233566761,-0.001887934748083353,-0.003197195939719677,-0.004205597098916769,-0.002371951239183545,0.004102804698050022,-0.0005380465881898999,0.0002437555231153965,0.0018859480042010546,0.0026459279470145702,-2.633169060572982e-05,-0.004117485135793686,0.0017459150403738022,-0.0008079704130068421,-0.0031101403292268515,0.0004740449949167669,0.0007218621904030442,-0.00420165341347456,0.0033415365032851696,-0.0002642640611156821,-0.0005337630864232779,0.0025241649709641933,-0.0019333602394908667,0.001602626172825694,0.0006486352067440748,0.001519658719189465,0.0022392363753169775,-0.0008002300746738911,0.00031585025135427713,-0.00015601652557961643,0.0015676034381613135,0.006982902064919472,0.0029169400222599506,-0.0026290100067853928,0.005338106770068407,-0.00559655949473381,-0.0008909605676308274,0.007228921167552471,0.005829398520290852,0.0020510226022452116,0.004586291499435902,0.0010110031580552459,0.004560339730232954,-0.003385178977623582,-0.0008297926979139447,-2.8031179681420326e-05,0.001409116550348699,0.0014683250337839127,0.001308449893258512,-0.0004035657038912177,-2.5328206902486272e-05,-0.002855055034160614,-0.0014475255738943815,-0.0019734117668122053,0.0008176763076335192,-0.0010978842619806528,-0.004881022032350302,0.0003399878623895347,-0.003095390973612666,0.004156606271862984,-0.0032037929631769657,-0.002253384795039892,0.0016353982500731945,0.002895209938287735,0.00013942155055701733,0.0008828603895381093,0.0019306535832583904,-0.000943000428378582,-0.00576996523886919,-0.006632700562477112,0.0010134635958820581,0.0038895930629223585,-0.0020694315899163485,0.002493668347597122,0.001565609942190349,-0.0012412385549396276,-6.543588824570179e-06,0.0023533417843282223,0.0020898603834211826,-0.0049666548147797585
それ,1.1768192052841187e-05,0.0016650845063850284,-0.001616109162569046,-0.0022918100003153086,0.0012814763467758894,-0.00011856132186949253,0.0021321300882846117,1.2716744095087051e-05,-0.0028966148383915424,0.002669953741133213,0.002898125909268856,-6.051384843885899e-06,-0.0014442093670368195,0.004462054930627346,0.0009441929287277162,-0.0007109337020665407,0.0010223774006590247,0.0016031921841204166,0.0003239242359995842,0.002107731532305479,-0.007593384478241205,-0.0026203091256320477,-0.007933522574603558,0.0006760300602763891,0.0032778140157461166,0.00013584597036242485,0.0003462039167061448,-0.002391828689724207,-0.0011001820676028728,0.005413733422756195,-0.004140572622418404,0.0019779661670327187,0.0017969678156077862,-0.0008126716129481792,0.0002861676039174199,0.003948210272938013,0.0023078476078808308,0.00019858399173244834,0.0030383369885385036,0.002476549707353115,-0.0019427617080509663,-8.667598012834787e-05,-0.0009230268769897521,0.00018558924784883857,0.0006487109931185842,0.00016349065117537975,0.003640294075012207,0.004899435676634312,0.0036429399624466896,0.004442876670509577,0.0014181239530444145,0.0015017513651400805,-2.7010217308998108e-05,-0.0023625765461474657,-0.0018524897750467062,0.00015407009050250053,0.003095214255154133,-0.005416586995124817,-0.002497755689546466,-0.0019252843922004104,-0.0008087841561064124,-0.0009996152948588133,-0.0017283025663346052,-0.003367567900568247,0.004934269469231367,-0.0008076897356659174,-4.994021583115682e-05,0.0007043714867904782,-0.000300504791084677,-0.0026801058556884527,-0.002433451358228922,0.001458111684769392,0.00039555883267894387,-0.0008969358750618994,0.0028103759977966547,-0.0070745148696005344,-0.008681995794177055,-0.004247775301337242,0.0013189116725698113,-0.0006080087041482329,0.0007481427164748311,0.0006683479878120124,-0.0016618409426882863,-0.003630561986938119,-0.0019429030362516642,0.001558702439069748,0.0013976990012452006,0.0033442354761064053,0.00034243264235556126,-0.0021262397058308125,6.664660759270191e-06,-0.0011879263911396265,0.0037473642732948065,-0.00021565740462392569,0.0018527267966419458,0.003109639510512352,-0.0019308807095512748,-0.0040286569856107235,-0.0006524613127112389,-0.0050399997271597385
利益,-0.001919012749567628,0.002267272910103202,0.0029289033263921738,0.0038266319315880537,-0.004930706229060888,-0.0014122603461146355,0.002092893235385418,0.00063812464941293,0.0030763286631554365,0.0013786489143967628,0.0020796882454305887,-0.0021379392128437757,-0.0012522583128884435,0.0007409308454953134,-0.0006607427494600415,0.0012287218123674393,-0.004138504154980183,-0.002191079081967473,-0.002356957644224167,-0.002557460917159915,-0.003766839625313878,0.00039516700780950487,-0.0017401089426130056,-0.0005987169570289552,-0.0010826060315594077,0.0007527361740358174,0.0006004453753121197,-0.00013249779294710606,0.002999089192599058,0.0017958134412765503,0.0012360690161585808,0.0008474186761304736,0.003032585373148322,0.0015314308693632483,-0.0008334675803780556,-0.0007884953520260751,-0.00046448243665508926,-0.00015034207899589092,-0.0004761400050483644,0.0015949832741171122,0.0005667140358127654,0.00021924797329120338,-0.001799978082999587,0.0007841810584068298,-0.002086631255224347,0.0031616357155144215,-0.0016300211427733302,0.0007830184185877442,0.0006092592375352979,0.0024845111183822155,-0.00036484882002696395,0.00016550013970118016,0.0007720473222434521,0.0003818289842456579,0.002362137893214822,-0.001862080185674131,0.0011331549612805247,-0.001545967417769134,-0.0015729049919173121,-0.004083328880369663,0.0005084398435428739,-0.003120055655017495,0.002362800994887948,0.0005176191334612668,0.001052585314027965,-0.003156989347189665,-0.002586111193522811,5.006435821997002e-05,-0.0018811037298291922,0.001546925283037126,0.0028316194657236338,0.0006208013510331511,0.0019417160656303167,-0.002225737553089857,-0.0032557391095906496,-2.2589170839637518e-05,-0.0030810274183750153,-0.005611815489828587,-0.0010448398534208536,0.0008553924853913486,0.001642351970076561,0.004314542748034,-0.004172698128968477,0.0017887043068185449,0.001807061955332756,-0.0034879143349826336,0.002258271211758256,-0.001826323801651597,0.0008678381564095616,-0.0018441606080159545,0.0018742007669061422,-0.0016718835104256868,0.0011833569733425975,-0.0011105866869911551,-0.0017132287612184882,-0.0010737174889072776,-0.0021489690989255905,-0.0033186268992722034,-0.0021197099704295397,-0.0037507214583456516
減少,0.0008017066866159439,0.004068698268383741,0.002831687917932868,0.0019373430404812098,-0.003216063603758812,-0.004929224029183388,-0.0012385377194732428,0.003231568494811654,-0.004364042542874813,-0.00041392003186047077,0.0017844669055193663,0.0011227269424125552,-0.0024106036871671677,0.00011091155465692282,0.0022682962007820606,-0.003364013973623514,0.006791261024773121,-0.0005099409027025104,0.0022983448579907417,-0.002917213598266244,-0.0021208501420915127,-0.0026629893109202385,0.00014042414841242135,-0.0012981754262000322,-0.0010923182126134634,-0.0027859036345034838,0.0006078251171857119,-0.006100362166762352,-0.004005589988082647,-0.0026535559445619583,0.0020782339852303267,0.0014230760280042887,-0.0016549107385799289,-0.004267440643161535,-0.0018781910184770823,0.0012578851310536265,0.0014103312278166413,0.00047697918489575386,0.0004524828982539475,0.00037233554758131504,0.004507348872721195,0.0012925313785672188,0.00042683316860347986,0.00450174231082201,-0.004312481731176376,0.0018246339168399572,0.0005683597410097718,0.0016372902318835258,-0.00040400022407993674,0.002721065189689398,-0.001944135525263846,0.0014870455488562584,-0.004661281127482653,0.0009764698334038258,-0.00021988002117723227,-0.0030060147400945425,0.008535938337445259,0.0017386055551469326,-0.0003534084535203874,-0.001395005383528769,-0.0014318771427497268,-0.0033513240050524473,0.0004506567493081093,-0.00140650593675673,0.000967158586718142,-0.0014210649533197284,0.0007197014056146145,-0.0021272015292197466,0.005568548105657101,0.001064128358848393,-0.0012545895297080278,0.0005717478925362229,-0.0062889233231544495,-0.0011365870013833046,0.00015137012815102935,-0.003538666758686304,-0.004853199236094952,-0.004228123463690281,0.003701441455632448,-0.005653033033013344,-0.0015997521113604307,-0.00028256105724722147,-0.000776267668697983,0.0003244044492021203,-0.0010343024041503668,-0.001269931672140956,0.0033964915201067924,-0.00259567191824317,-8.425279520452023e-05,0.003610633546486497,0.0013880630722269416,-0.005327925086021423,0.005372175946831703,0.004842696245759726,-0.0020712222903966904,-0.0007250912021845579,-0.0009515386773273349,0.0022535219322890043,0.002814985578879714,0.0004745490150526166
イン,-0.0031190323643386364,-0.0059914179146289825,-0.001058847876265645,0.0009565604850649834,-0.00019574613543227315,-0.0018044989556074142,-0.0035157620441168547,0.0014228841755539179,0.0005487186135724187,-0.0016213193302974105,-0.0009106396464630961,-0.0013437720481306314,-0.00470318365842104,0.0004549003788270056,-0.00034376594703644514,0.00344218872487545,0.0035852889996021986,-0.0015223813243210316,-0.0008174843387678266,-0.001584974816069007,-0.0030220989137887955,0.0016062406357377768,0.0019938491750508547,-0.0030243401415646076,-0.0036998013965785503,0.0033491672948002815,0.001073366031050682,0.00590995978564024,0.0026272470131516457,-0.002143986988812685,0.0007388888043351471,-0.007048085331916809,0.002275894396007061,0.0009698435897007585,-0.003603072138503194,-0.0010875607840716839,-0.00433129258453846,-0.0004310167860239744,0.0014780376804992557,-0.003576873801648617,-0.005174572579562664,0.0031936236191540956,-0.0021436302922666073,0.0038245730102062225,0.00034773105289787054,0.004622606094926596,0.002280459739267826,0.003909687511622906,0.0006630824645981193,-0.004596083424985409,0.0021943647880107164,0.0033684680238366127,0.004751645959913731,-0.003106465097516775,0.005905752535909414,0.0004783386830240488,0.00037581007927656174,0.0016563923563808203,0.004163410514593124,0.004399389494210482,0.004168124869465828,-0.0017176191322505474,-0.0006631083670072258,-0.00491379713639617,0.0015306861605495214,0.000338607031153515,-0.0007737826090306044,-0.0005857829819433391,-0.0007957037887535989,0.0041374266147613525,-0.00112770008854568,5.4525211453437805e-05,0.002448320621624589,0.0010167728178203106,0.0025721685960888863,0.00103956856764853,-0.0015085183549672365,-0.003303266130387783,-0.0012574988650158048,0.0045129987411201,-0.0034325611777603626,-0.0031188223510980606,0.0027795000933110714,0.0009249896975234151,-0.0002913713688030839,0.0028318455442786217,-0.001597028924152255,0.002628838177770376,0.001914802473038435,-0.003930292092263699,-0.0013118726201355457,0.0023997954558581114,-0.0038044501561671495,-0.002099732868373394,-0.0030466467142105103,-0.004904978908598423,0.004170730244368315,0.005860972683876753,0.0007429493125528097,0.005521972663700581
他社,-0.0054184673354029655,-0.00021973787806928158,0.005818958394229412,0.0032973510678857565,-0.0031168696004897356,-0.00425694277510047,-0.0024676797911524773,0.00016344059258699417,-0.0034692571498453617,0.002380091929808259,-7.507106056436896e-05,0.0033584225457161665,0.0034987451508641243,0.0016003292985260487,0.0017225481569766998,-0.00528360903263092,-0.0019037825986742973,-0.0003339002141728997,0.0026274302508682013,0.003643843811005354,0.0010223998688161373,0.0016965471440926194,-5.915237125009298e-05,0.0021036462858319283,0.004319638013839722,0.0007991581223905087,-0.0025489507243037224,-0.0005160863511264324,0.0007078674389049411,0.0008533799555152655,-0.0007081701187416911,0.0032473665196448565,-0.0016370494849979877,0.0023099035024642944,0.0044892095029354095,-0.0026944982819259167,-0.0019601299427449703,-0.0005937634268775582,-0.001991840312257409,0.0029804231598973274,0.005921474192291498,-0.003066086443141103,0.003481792053207755,0.002673785900697112,0.005790160037577152,0.0014755907468497753,0.0004491916042752564,0.004160046111792326,0.004269619472324848,-0.0003335794899612665,0.0022384864278137684,-0.002577540697529912,0.0023084140848368406,0.0065673952922225,-0.0015504558105021715,0.00022716610692441463,-0.000607114692684263,-0.005341191776096821,0.002840794390067458,0.003404369344934821,0.0018296504858881235,-0.003211471950635314,-0.000440348987467587,-0.00330197811126709,0.007178714498877525,0.0017666236963123083,-0.001091725891456008,-0.0006570486584678292,0.0018612629501149058,-0.00021867870236746967,-0.005205752328038216,-0.0010831045219674706,-0.0070103732869029045,-0.002985981060191989,-0.0020994343794882298,-0.0008060364052653313,-0.001779755111783743,0.0017578743863850832,0.003523097140714526,0.0033626072108745575,-0.0003956172149628401,7.086305413395166e-05,0.0009267586283385754,-0.004335097968578339,-0.0009457620908506215,0.004257721360772848,0.0018832441419363022,-0.002534650731831789,-0.001483623287640512,-0.0015895302640274167,-0.0007010663393884897,0.0028235330246388912,-0.003532037604600191,-0.0057044257409870625,0.0015658964402973652,0.005003893747925758,-0.0007565951673313975,-0.0020119985565543175,0.00100467330776155,-3.2652635127305984e-05
比較,0.003859261516481638,-0.004592151381075382,0.0071051535196602345,-0.003039416391402483,-0.0027482695877552032,0.0014639206929132342,-2.827029675245285e-06,0.00333588570356369,-0.0020698090083897114,4.962956882081926e-05,0.0025676817167550325,0.0005846716812811792,-0.0033416093792766333,0.00382545730099082,0.003170229960232973,0.002916347701102495,0.0029835347086191177,-0.00364136160351336,-0.004055488388985395,-0.004627121612429619,-0.0009051100350916386,0.0018257807241752744,-0.004496102221310139,0.0009485309128649533,-0.0013681072741746902,-0.003921224735677242,-0.005247266497462988,-0.0014441278763115406,-0.004734518937766552,0.0002733564469963312,-0.004958605393767357,-0.0010845393408089876,-0.0030740899965167046,0.00032114781788550317,0.0014038720401003957,0.005012799054384232,-0.0022202765103429556,-0.0010113543830811977,0.0001457698963349685,0.00024913065135478973,-0.0013256242964416742,0.0008450445020571351,-0.005603063851594925,0.002767433412373066,0.0005416773492470384,0.0006347916787490249,-0.0026094121858477592,0.0016333532985299826,-0.0006400977727025747,0.000425273145083338,-0.0026593345683068037,0.002715418115258217,-0.0037212069146335125,0.0015437535475939512,0.003035621251910925,-0.001592542277649045,0.0018412889912724495,0.0053763603791594505,0.0028600450605154037,0.00019002810586243868,0.00038468558341264725,-0.0021845437586307526,-0.0001336340792477131,-0.004403671249747276,0.0020945188589394093,-0.001759795006364584,-0.0016404201742261648,0.0009943671757355332,-0.0015085515333339572,-0.0007179940002970397,-0.000684213824570179,0.005797742400318384,0.0007524038664996624,-0.0004334207624197006,0.004250723868608475,0.0022316372487694025,0.000291157397441566,-0.004286463372409344,-0.0025120778009295464,-0.0003417158732190728,-0.0022876982111483812,-0.0011861855164170265,-0.005240416154265404,0.0011473163031041622,0.002281121676787734,0.0012364827562123537,-0.0030615844298154116,-0.0012330713216215372,-0.0003825211897492409,-0.002334836171939969,-0.0012266280828043818,0.0020044350530952215,0.003643395844846964,-0.002818831941112876,0.000820776098407805,-0.0030464674346148968,0.0006965289358049631,0.00524396076798439,-0.0015156485605984926,0.00040625897236168385
大きい,0.0017572813667356968,0.005785688292235136,-0.0021406200248748064,-0.004343504086136818,-0.0038355665747076273,9.157299064099789e-05,-0.00036685168743133545,0.006347320508211851,-0.00287166447378695,0.002663912484422326,-0.005450839176774025,-0.004362132865935564,-0.003226208733394742,-0.0013275857781991363,-0.0019108629785478115,-0.0037697209045290947,0.007010417990386486,0.005785579793155193,0.003200166393071413,-0.0023745291400700808,0.000137966126203537,-0.0036146941129118204,-0.005791095085442066,0.0030837098602205515,-0.005010533146560192,-0.00035320897586643696,0.0014792797155678272,0.00462942523881793,-0.006136083044111729,-0.005818616598844528,0.00013082579243928194,0.008292470127344131,-0.004199674353003502,0.0014174686511978507,9.029917418956757e-05,0.0017175921238958836,-0.003997583407908678,0.00027871178463101387,0.001779860584065318,-0.004919649567455053,-0.0048474641516804695,0.0014636317500844598,0.0004635397344827652,0.0011328905820846558,-0.005078603513538837,-0.006996420212090015,0.0001157168298959732,0.0035682807210832834,-0.0051407054997980595,0.0060562193393707275,0.004331274889409542,0.004027933813631535,0.000284565263427794,-0.006958367303013802,-0.005271328613162041,-0.001880621537566185,0.007276618853211403,0.0019471835112199187,-0.0015439405106008053,-0.0005713356658816338,0.003462455701082945,-0.009849144145846367,-0.0019849855452775955,-6.702390965074301e-05,0.005505527835339308,0.005970690865069628,-0.0019544181413948536,-0.007723077200353146,-0.0043916255235672,-0.004694485105574131,0.00441755261272192,0.006055857054889202,-0.0007440014742314816,0.0016912074061110616,-0.008072646334767342,0.002286960370838642,-0.004033694975078106,0.0028397468850016594,-0.006402554456144571,0.0036308984272181988,-0.0010149775771424174,0.0019945604726672173,0.0007183968555182219,1.1012190952897072e-05,-0.0026455719489604235,0.0018335222266614437,-0.0028925659134984016,-0.004549769219011068,0.002226325450465083,0.0012463643215596676,0.0030840011313557625,-0.005285198800265789,-0.000768550205975771,-0.005321217700839043,0.0013074978487566113,0.005563337355852127,0.0007589083397760987,-0.005066541489213705,0.00043926131911575794,-0.0018592651467770338
なる,-0.001875717774964869,-0.00019783414609264582,0.002967605134472251,-0.0023205000907182693,0.001525009865872562,0.0013120869407430291,-0.004882616922259331,0.0018039308488368988,0.00017806468531489372,0.005113048013299704,-0.001531598623842001,0.0015636736061424017,-0.0021522287279367447,-0.003320538904517889,0.0026399344205856323,-0.0026454231701791286,-0.0012523892801254988,-0.0016517636831849813,-0.0015044866595417261,-0.00029150990303605795,-0.007916133850812912,-0.0010160475503653288,-0.0025784350000321865,-0.0030536078847944736,0.006619629915803671,-0.001316093374043703,-0.00011203251779079437,-0.0012729221489280462,-0.002247266937047243,0.002032245509326458,-0.001120066037401557,-0.003043439704924822,-0.0012795091606676579,0.002443502191454172,0.0013690749183297157,-0.005878149531781673,-0.002061161445453763,0.0015962948091328144,0.003151757176965475,0.0015415314119309187,-0.0029957101214677095,0.0011152945226058364,0.00042226770892739296,-0.0015567168593406677,0.00016687670722603798,-0.0006741867982782423,-0.003580112010240555,-0.0021114149130880833,0.0021547391079366207,-0.002120525809004903,0.0028108390979468822,0.0011415474582463503,-0.0006994615541771054,0.0013017577584832907,0.0007997402572073042,-0.0003164478694088757,0.0022948882542550564,0.0034810462966561317,-0.007013832218945026,-0.003500949125736952,0.0039316704496741295,0.0015266153495758772,-0.0011921892873942852,-0.00010228369501419365,-0.0028360970318317413,-0.0017001116648316383,-0.002608286449685693,-0.0028035365976393223,-0.004425222985446453,0.00020655186381191015,0.00013734656386077404,-0.0005874704802408814,0.0011874251067638397,-0.0017024524277076125,-0.0020846142433583736,0.006511594168841839,-0.0015017681289464235,0.0033505528699606657,0.00018090219236910343,0.0025848783552646637,0.003541072830557823,0.0017608635826036334,0.0005433066980913281,-0.0034513084683567286,0.0018416638486087322,0.003018217161297798,-0.0010654524667188525,-0.000888663693331182,0.0012138189049437642,-6.674602627754211e-05,-0.0001765661290846765,0.007420186884701252,-0.0023122725542634726,0.00018369918689131737,-0.0024566894862800837,7.915892638266087e-05,-0.0030245413072407246,0.0024615898728370667,-0.001955070998519659,-0.002721097320318222
そう,-0.003391591366380453,0.004538100212812424,0.004659425467252731,0.004113683942705393,-0.004042902961373329,0.002685679355636239,0.004850883036851883,0.0010189992608502507,0.002741705859079957,-0.001362064154818654,-0.00012207264080643654,0.0025753439404070377,-0.003302859840914607,-0.0028593982569873333,0.0007332995301112533,-0.0016797101125121117,0.0006437628762796521,-0.0036721243523061275,-0.0011628825450316072,-0.0008937628590501845,0.00016860815230756998,0.0020261178724467754,-0.004265511874109507,-0.004229343496263027,0.0033742357045412064,-0.00041041040094569325,-0.0017217897111549973,-0.0050522079691290855,0.005424405448138714,-0.0030287501867860556,-0.0032147462479770184,0.0028935878071933985,-0.0021906401962041855,0.0030253452714532614,-0.0034811373334378004,-0.0018784989370033145,0.0038200144190341234,-0.00607942882925272,0.00109835434705019,0.0013539956416934729,0.004355818033218384,0.0030217517632991076,0.001670710276812315,0.007581247948110104,-0.002493783365935087,-0.0007580078672617674,0.00029908173019066453,0.0017508093733340502,0.0028555584140121937,-0.0023866770789027214,0.0009262521052733064,-4.873017314821482e-05,0.001892048865556717,0.007598609663546085,0.004686555825173855,-0.004063204396516085,0.0008564160671085119,-0.0006049812654964626,-0.0017637922428548336,0.003936569206416607,-0.002931776223704219,-0.001960115972906351,0.0020361975766718388,-0.0004715317045338452,-0.0012882319279015064,-0.002797825960442424,-0.0009593968279659748,-0.00555547047406435,0.00217980588786304,0.002840531524270773,-0.0009048712672665715,0.0045789387077093124,-0.0021177728194743395,-0.001902385032735765,0.001036306843161583,-0.001898308051750064,-0.0062339454889297485,-0.0010322279995307326,0.002890385687351227,-0.0006073912372812629,-0.0002535822568461299,0.005218555219471455,0.0035651400685310364,-0.0008285691728815436,0.003667664946988225,-0.001233898219652474,0.0054983049631118774,-0.0013350443914532661,0.0035122090484946966,0.002230910351499915,-0.0006057488499209285,-0.00044477591291069984,0.002241729060187936,-0.004010587930679321,-0.0025642302352935076,0.0006620824569836259,-0.00038589409086853266,0.0005981142167001963,0.0038341409526765347,0.0022742371074855328
期,-0.004170528147369623,0.005143049638718367,0.0037417456042021513,0.0014655786799266934,-0.0013514223974198103,-0.0015575995203107595,-0.0017018982907757163,0.0026741980109363794,0.0010852209525182843,-0.004533611238002777,0.002985380357131362,0.0016423480119556189,-0.002995737362653017,0.0009207408875226974,-0.0024025386665016413,-0.002013386692851782,0.0019738636910915375,0.0014933672500774264,0.0005198856815695763,0.0027087039779871702,-9.94544752757065e-05,-0.0009120101458393037,-0.0034997446928173304,-9.172609134111553e-05,0.0015730276936665177,-0.0009432956576347351,-0.0023373591247946024,-0.0016710791969671845,0.0012514777481555939,-0.0021187772508710623,0.0033456534147262573,0.0012874898966401815,-0.0013754816027358174,0.0016404824564233422,-0.0013812350807711482,0.0028875272255390882,0.0009360675467178226,0.0011155788088217378,-0.000526478688698262,0.0011292913695797324,-0.0018527396023273468,0.0028203220572322607,-0.0066946870647370815,-4.141777753829956e-05,0.0022980100475251675,0.003188949078321457,0.002304427558556199,0.0013445112854242325,0.00307639641687274,0.0019898477476090193,0.003081185044720769,0.006746975239366293,0.0020208063069730997,0.0022334076929837465,0.0036003494169563055,-0.0023927318397909403,0.005066888872534037,0.0029520918615162373,0.004929686430841684,-0.002233185339719057,-0.00018347321019973606,-0.004333905875682831,0.0031786549370735884,-0.0009439466521143913,0.0008607081254012883,-0.0012697966303676367,0.00010359134466852993,-0.0012612388236448169,-0.001860430813394487,0.0029112682677805424,-0.0014341730857267976,0.0005741763161495328,-0.006208669859915972,0.0012632859870791435,-0.002249934943392873,0.0016495330492034554,0.0029632875230163336,-0.003505334723740816,-0.00044652126962319016,0.0017776255263015628,-0.0010577996727079153,0.004612394608557224,0.003520079655572772,0.0013587011490017176,-0.002151337917894125,0.004099175799638033,0.00030250867712311447,0.001648260047659278,-0.002116486895829439,0.00040071658440865576,0.0038351735565811396,0.0016867174999788404,0.0020895968191325665,0.0010504903038963675,0.003388653276488185,-0.0010386236244812608,0.0006128830718807876,0.0023787033278495073,0.0037412901874631643,-0.0002380791847826913
格差,0.004491842817515135,-0.0008426703279837966,0.005875066854059696,0.004009818658232689,-0.0046827225014567375,0.0016009325627237558,-0.0009430963546037674,-0.0009743064292706549,0.004440282937139273,0.0022909529507160187,0.004116160795092583,0.0007486147806048393,-0.0010787902865558863,0.000780590926297009,-0.002585340291261673,0.0014299374306574464,-0.0026018463540822268,0.000409802800277248,0.0034621055237948895,0.0027850749902427197,-0.0014812401495873928,-0.001987241907045245,-0.007260238751769066,0.0015848273178562522,-0.005165427457541227,-0.0002364239189773798,-0.005304854363203049,0.004559997469186783,0.005212500691413879,0.007678038440644741,-0.0018471772782504559,-0.002581232925876975,0.006770201958715916,0.0018469924107193947,-0.0003876416012644768,-0.007297661155462265,0.0023455615155398846,-0.002168052364140749,-0.0016577219357714057,-0.0007117367349565029,-0.0005890009924769402,0.0029194667004048824,-0.009544781409204006,-0.0009763659909367561,0.000755860295612365,-0.0009543610503897071,-0.0009634705493226647,-0.0018282342934980989,0.003607774619013071,0.00018456106772646308,5.754633457399905e-05,0.00711615476757288,-0.002031550742685795,0.003656557993963361,-0.0005963878356851637,-0.003800684120506048,0.0018777899676933885,-0.0022851801477372646,0.00027398508973419666,0.0029344046488404274,0.0037228965666145086,-0.004865243099629879,0.0004372548428364098,-0.004192768596112728,0.0004020287306047976,-0.001804511295631528,-0.0041910563595592976,0.0008969245245680213,0.0028678039088845253,0.006361400708556175,-0.002205719007179141,0.0034186469856649637,0.003573175985366106,-0.004823142196983099,0.003469620831310749,-0.00015028088819235563,-0.008878853172063828,-0.004340093117207289,-0.001074102707207203,0.003149086609482765,9.392248466610909e-05,0.0038723875768482685,0.00432956637814641,0.0006328013841994107,-0.00266853766515851,0.001370810903608799,0.007762243039906025,0.0021008728072047234,0.0010608567390590906,0.004211926832795143,-0.0006535983411595225,0.007969946600496769,-0.000792815291788429,-0.0009350705659016967,0.0035483860410749912,-0.0003372232895344496,0.0005100885173305869,-0.005505257286131382,-0.002980476710945368,0.00587912043556571
解,-0.0032019433565437794,0.0011372272856533527,-0.0013825370697304606,0.00270874984562397,-0.0008696822915226221,0.0029862564988434315,-0.0007551747839897871,0.0021216508466750383,-0.003427725052461028,0.001005608239211142,0.001428878167644143,-0.00029572076164186,-0.001176713965833187,0.0007841640035621822,0.0022041560150682926,0.0017623534658923745,-0.003774714656174183,0.002901354804635048,0.0065405359491705894,0.0006868495838716626,-0.00220262142829597,-0.004843530245125294,-0.008148610591888428,0.002209675032645464,0.00016543935635127127,-0.0010395231656730175,0.0023182802833616734,-0.0022616232745349407,-0.00069614895619452,0.00442915502935648,0.0018412962090224028,0.0017740126932039857,0.006220254115760326,0.00012594566214829683,0.001876508118584752,-0.0019087307155132294,0.0029465174302458763,-0.005944572389125824,-0.002066744491457939,0.004121746867895126,-0.0010125027038156986,-0.0002748331753537059,-0.0028103161603212357,0.003390335477888584,-0.0005138191627338529,0.007152448408305645,-0.0025529274716973305,-0.0003676323685795069,0.0036232993006706238,0.006072900723665953,-0.00405601691454649,-0.0009826576570048928,2.675037831068039e-05,-0.0023619262501597404,0.00496178213506937,-0.0023327390663325787,0.0009605753002688289,0.0003818065160885453,-0.0009866640903055668,0.0002589027280919254,0.001839181873947382,0.0011053407797589898,-0.003526556771248579,0.005045111756771803,-0.0017399131320416927,0.0046552689746022224,0.00011103274300694466,-0.0007376519497483969,0.0027660797350108624,-0.004594229161739349,-0.0007398163434118032,-0.0028807863127440214,-5.9721642173826694e-05,-0.001223943312652409,0.004964168183505535,-0.0019472294952720404,-0.0015976564027369022,-0.0014112242497503757,-0.0013031968846917152,0.0010300184367224574,0.003065293189138174,0.002237282693386078,-0.0020338832400739193,0.002670444082468748,-0.0006335099460557103,0.005161863751709461,0.0018343753181397915,-0.003533493960276246,-0.0052822064608335495,-0.003811002243310213,0.0021472107619047165,-0.0019433299312368035,0.0003880674485117197,-0.0024018941912800074,0.0047567179426550865,0.002865139627829194,0.0029568688478320837,-0.0003855839604511857,-0.0004861257039010525,0.0031471895053982735
消す,-0.0020869120489805937,-0.005186793860048056,0.0009388253092765808,-0.002461666241288185,-0.0007446800591424108,-0.004370890092104673,0.00444482546299696,-0.0037292190827429295,0.0020237837452441454,0.009335873648524284,0.0021608369424939156,0.004262203350663185,-0.003322101663798094,-0.00033953716047108173,-0.0020780579652637243,-0.0024794761557132006,-0.00735190324485302,-0.0020122963469475508,-0.0009277630597352982,-0.0002650718670338392,-0.001461391570046544,-0.008552679792046547,-0.004572800360620022,0.007668100763112307,-0.0018599529284983873,0.0046958643943071365,-0.0030324470717459917,0.002739459741860628,-0.0024011738132685423,-0.0035780700854957104,0.0017909299349412322,-0.0013174207415431738,-0.0024193390272557735,0.003653080901131034,-0.00642152177169919,-0.0003516367869451642,0.0050770193338394165,-0.002856978913769126,-0.0011137473629787564,-0.00513817835599184,-0.008281651884317398,-0.005262061487883329,-0.009371158666908741,0.007632976397871971,-0.0020544652361422777,0.003421842586249113,0.0033847056329250336,0.00129246199503541,-0.00047477835323661566,0.003767852671444416,-0.001288156257942319,-0.00022505788365378976,-0.0010818496812134981,0.0017088570166379213,0.005481428001075983,-0.005910723004490137,0.005552713759243488,-0.006376525387167931,0.003419751301407814,0.004285483621060848,0.00040053401608020067,0.0006469557993113995,-0.004411271773278713,-0.007486904505640268,0.0011239442974328995,-0.0011932844063267112,0.004255513660609722,0.002121095545589924,-0.002214530948549509,0.0008947578025981784,0.00399800855666399,-0.006753730587661266,-0.0005051270127296448,-0.00019625620916485786,0.000837873260024935,-0.0055569978430867195,0.001290333573706448,-0.0028513737488538027,-0.005438318941742182,0.0012467438355088234,-0.0010209039319306612,0.002787437755614519,0.0004513804742600769,-0.0013607245637103915,-0.004335406702011824,0.0010680535342544317,0.005499206483364105,-0.0037452583201229572,-0.0010432694107294083,-0.0033272255677729845,-0.008423296734690666,-0.0028043484780937433,0.0003224308602511883,0.0006827230099588633,-0.0032477136701345444,0.0043495092540979385,-0.003921632654964924,-0.002367692533880472,0.00236719474196434,0.0033694370649755
れる,-0.003928185906261206,0.0032185912132263184,0.0030457188840955496,-0.001700273947790265,0.0007110968581400812,-0.006020234897732735,-0.0031896147411316633,-0.0016958385240286589,0.00011548667680472136,-0.0058338697999715805,0.0018961839377880096,-0.00115797424223274,-0.0019568961579352617,-0.003223540959879756,-0.0007408015080727637,0.0038219038397073746,0.001018462353385985,-0.005099751520901918,0.0020128083415329456,-0.0012045707553625107,0.0018132856348529458,-0.005321922712028027,-0.000708201143424958,0.009078850969672203,0.0011432217434048653,0.0025649690069258213,-0.0035756793804466724,-0.002730736043304205,0.005834231618791819,0.006397330667823553,-0.0007592604961246252,-0.001496358192525804,0.0011026380816474557,0.0009475070983171463,-0.001917287241667509,-0.0019595350604504347,-0.0010114770848304033,-6.835954263806343e-05,-0.001244465820491314,0.005268139764666557,0.0012619522167369723,0.002432888839393854,-0.0027565760537981987,0.0012970190728083253,-0.0010837707668542862,-0.0031318655237555504,-0.0012211317662149668,0.006235130131244659,0.0016050110571086407,-0.0016409116797149181,-0.0019689069595187902,0.0015256402548402548,0.002814570674672723,0.0014523956924676895,0.004415595903992653,0.00012460257858037949,0.004550925921648741,0.002541323658078909,-0.0005373267340473831,0.0005056378431618214,-0.002427714876830578,-0.0004497634945437312,0.0015055806143209338,-0.0017995205707848072,0.002980954945087433,0.0006295591592788696,0.002533800434321165,0.0005547873442992568,9.335239883512259e-05,-0.00029384600929915905,0.0023009974975138903,-0.0010434066643938422,0.0009720547241158783,-0.0050923265516757965,0.007227904628962278,0.0008314871811307967,0.0028416847344487906,0.0014404677785933018,0.003777642035856843,0.0010856399312615395,-0.0012438009725883603,-0.0017384074162691832,0.002739180810749531,0.0052020978182554245,0.0029238031711429358,0.005121106281876564,0.0018812267808243632,0.0026307119987905025,0.002988833002746105,-0.0015543658519163728,-0.003865808481350541,0.0016659274697303772,-0.0019023481290787458,-0.0053542740643024445,-0.00033667811658233404,-0.0008610771037638187,-0.004028881434351206,-0.0012349162716418505,0.005342972464859486,0.0020080087706446648
維持,0.0005428986623883247,0.00800267606973648,0.0017001964151859283,-0.0037598791532218456,0.008123154751956463,-0.0005980454152449965,-0.0022022174671292305,-0.0024049710482358932,-0.006414669565856457,0.0010879349429160357,0.005949999205768108,-0.004206356126815081,0.0034405970945954323,0.0013427510857582092,-0.00030459556728601456,-0.009443935006856918,0.0063588572666049,0.005987006705254316,0.01008387841284275,0.0008308060932904482,-0.004016654100269079,-0.0001431591808795929,-0.008105018176138401,-0.003314992878586054,0.0010807119542732835,0.001795304473489523,0.002186722122132778,0.0039712488651275635,-0.005953156389296055,0.002929995534941554,0.004821244161576033,-0.004710490349680185,-0.00417303666472435,-0.004149843472987413,-0.0063233524560928345,0.0024468100164085627,-0.0011114046210423112,-0.003756912425160408,-0.0021150854881852865,-0.0029880767688155174,-0.007155805826187134,0.005962830036878586,0.004513522610068321,0.0013297447003424168,-0.005508173257112503,0.0003592297434806824,-0.0061426591128110886,-0.00026176730170845985,-0.002226115670055151,-0.0009296308271586895,0.0030737135093659163,-0.0022046868689358234,0.0012423230800777674,0.0030846958979964256,0.0014039184898138046,-0.008697477169334888,0.007273589726537466,-0.002787725068628788,0.009411226958036423,-0.00629807636141777,0.009420434013009071,0.0023596337996423244,0.0014405406545847654,-0.005402214825153351,-0.005614412948489189,-0.0003222329542040825,0.006393244955688715,-0.0009844135493040085,0.0038310526870191097,-0.0025908173993229866,0.0025871165562421083,0.0009908571373671293,0.0024647098034620285,-0.0038274244870990515,0.0076836710795760155,0.0023656878620386124,-0.00014005624689161777,-0.0061684343963861465,0.002239441266283393,-0.00021193240536376834,0.00229635089635849,-0.00010015023872256279,-0.0028808030765503645,-0.0055849021300673485,-0.0036114135291427374,0.0009275428601540625,0.001194514101371169,-0.0031748684123158455,0.0073511479422450066,-0.0005556617397814989,-0.0029993033967912197,0.004919418599456549,0.008919740095734596,-0.001617414760403335,0.0071645136922597885,-0.00869709625840187,0.003876286093145609,-0.0016442607156932354,-0.006070231087505817,-0.0010802720207720995
の,-0.0009320293320342898,0.0034338044933974743,7.742663729004562e-05,-0.0025197863578796387,-0.0054905954748392105,0.00022756587713956833,0.0017459876835346222,0.0029463288374245167,-0.002715194597840309,-0.000979157630354166,-0.0012498138239607215,0.0022454916033893824,-0.0032087883446365595,0.003827923908829689,-0.0022918027825653553,-0.004593441262841225,-0.0036250439006835222,-0.001194576034322381,-0.0006132250418886542,0.0009509108494967222,-0.0019148604478687048,0.0034861837048083544,-0.006872526369988918,0.00465207127854228,-0.004134675953537226,-0.005846471060067415,0.0005154829705134034,-0.000697218463756144,0.0022435523569583893,0.0021240566857159138,-0.0021723792888224125,-0.004716986324638128,0.002951831789687276,-5.189480725675821e-05,0.004507993347942829,0.003827615175396204,-0.00025032865232788026,-0.0020654865074902773,-0.0015270058065652847,0.005032690707594156,-0.00036263655056245625,0.0007490906864404678,-0.003031321568414569,-0.00040161341894418,1.204037107527256e-05,-0.0021710204891860485,-0.0008754207519814372,0.006967328023165464,-0.001774331321939826,-0.0007037242176011205,-0.004991648718714714,0.0011083530262112617,0.00504661351442337,-0.005800786428153515,-0.0012205539969727397,0.0026961402036249638,0.002115268725901842,-7.733260281383991e-05,-0.0017759498441591859,-0.005441576708108187,-0.004065893590450287,-0.0019019825849682093,0.002941091312095523,-0.001981905894353986,0.0020576391834765673,-0.004848186857998371,-0.000863047142047435,0.0031646094284951687,0.001221551327034831,0.002067846478894353,0.005870831664651632,-0.0017093676142394543,0.0012119747698307037,-0.0019709193147718906,0.0015092630637809634,-0.003293801797553897,-0.004337195307016373,0.002146352082490921,-0.0015243198722600937,-0.0030326463747769594,-0.0013049956178292632,-0.003565659746527672,0.0019878672901540995,-0.00011826260015368462,-0.0025093320291489363,-0.003200547769665718,-0.0006906059570610523,-0.0005730229313485324,-0.0019617867656052113,0.003550537396222353,-0.0018079656874760985,-0.0012228238629177213,0.0008891855250112712,0.0022799717262387276,-0.0021922034211456776,0.002465787809342146,0.0008018009830266237,0.0009512698161415756,-0.002571073593571782,-0.0027078089769929647
