,0,1,2,3,4,5,6,7,8,9,10,11,12,13,14,15,16,17,18,19,20,21,22,23,24,25,26,27,28,29,30,31,32,33,34,35,36,37,38,39,40,41,42,43,44,45,46,47,48,49,50,51,52,53,54,55,56,57,58,59,60,61,62,63,64,65,66,67,68,69,70,71,72,73,74,75,76,77,78,79,80,81,82,83,84,85,86,87,88,89,90,91,92,93,94,95,96,97,98,99
商船,0.003883868455886841,0.0054600718431174755,0.011329328641295433,0.00391367357224226,-0.007435176987200975,0.003889108542352915,0.0009765045251697302,-0.006568362005054951,0.001160870073363185,0.007640829775482416,-0.006689648609608412,-0.0026219794526696205,0.0002658874145708978,0.003035722067579627,0.004919585771858692,-0.005087338387966156,0.003198036225512624,-0.00582916522398591,0.0058418093249201775,-0.0013081538490951061,0.002982525620609522,0.0026292388793081045,0.004362058825790882,0.0024909593630582094,-0.00168222701177001,-0.003107022028416395,-0.004471599590033293,-0.0011597045231610537,-0.0002805026597343385,0.0025006134528666735,0.004379661288112402,0.0024449683260172606,-0.006914696656167507,-0.005746264010667801,-0.010909800417721272,-0.005963413044810295,-0.0017114195507019758,-0.01043939869850874,0.0019040950573980808,-0.009492102079093456,0.0034633828327059746,-0.008019295521080494,-0.0010114212054759264,-3.1204244805849157e-06,-0.009208380244672298,0.008191041648387909,-0.00018802628619596362,0.0031144211534410715,0.000725356861948967,0.001410707482136786,-0.00266857142560184,0.003265756880864501,-0.003777857404202223,-0.0022423225454986095,-0.0043632956221699715,-0.002601848915219307,0.005552534479647875,0.0002277168387081474,0.009140681475400925,0.003551848465576768,0.005243638996034861,0.004480473697185516,-0.0022485200315713882,0.0020618573762476444,-0.008705305866897106,0.0013085809769108891,0.007643734570592642,-0.0028198445215821266,-0.0017524735303595662,0.006793983280658722,-0.005900917574763298,0.0022137064952403307,0.00433672871440649,-0.007295497227460146,-0.0006458356510847807,-0.00872001051902771,-0.005457199644297361,0.002014630241319537,-0.003263243241235614,-0.001918927882798016,-0.008127693086862564,-0.00045087223406881094,-0.0020167632028460503,0.0009228980634361506,0.004396954085677862,0.001389103359542787,0.002446802332997322,6.056767961126752e-05,-0.003424910129979253,0.0012691369047388434,0.002541574649512768,0.0024227711837738752,0.0028610520530492067,0.005101354327052832,0.004067623522132635,0.004227714613080025,-0.001778894104063511,-0.005114795174449682,-0.0042775291949510574,0.007169881369918585
三井,0.0028995899483561516,0.007173504214733839,0.007288438733667135,0.0015511652454733849,0.00047855140292085707,-0.001576746697537601,0.002748857019469142,0.0003290590248070657,0.0036353468894958496,0.002292347839102149,-0.004248938988894224,-0.004002667963504791,-0.0015562582993879914,-0.0015568457311019301,0.006641562096774578,0.0018250934081152081,0.001475440338253975,0.0014615680556744337,0.004265594761818647,-0.0019298673141747713,0.00038139140815474093,0.0054778121411800385,-0.0010211911285296082,0.0014041576068848372,0.0008940682164393365,0.0027203448116779327,-0.0030303308740258217,-0.0018360427347943187,-0.002157611073926091,0.0004811581165995449,0.004777382593601942,0.0005587678169831634,-0.000420618976932019,-0.0032719105947762728,-0.0011687936494126916,-0.0009574452415108681,-0.002133691683411598,-0.00684908265247941,-0.0052663725800812244,-0.008277825079858303,-0.0009938697330653667,0.002281662542372942,-0.002542204689234495,0.0009401723509654403,-0.008746393024921417,-0.001762581872753799,-0.0030475391540676355,0.0008520190021954477,-0.0032868313137441874,0.0011049772147089243,-0.001672436366789043,-0.001931419363245368,0.00468298839405179,0.002266651950776577,-0.0039936574175953865,0.002365987980738282,0.005608076695352793,-0.0008342966320924461,0.007185149937868118,-0.002961150137707591,0.0033418298698961735,0.0010847016237676144,-0.00129015336278826,-0.003962941933423281,-0.0008483586716465652,0.0016116747865453362,0.0043573868460953236,0.0021390640176832676,0.0040992191061377525,0.006433986593037844,-0.000808000739198178,-0.005542937200516462,-0.0024411033373326063,-0.0032252671662718058,0.0029388186521828175,0.0007979454821906984,-0.001943690120242536,-0.0017002663807943463,0.0008983640000224113,-0.002374133327975869,-0.002747190184891224,0.001029536477290094,0.0036923117004334927,0.00343402405269444,-0.001824985258281231,0.0035354315768927336,0.004105734638869762,0.0016518095508217812,-0.0006787919555790722,-0.0017059135716408491,0.0013822080800309777,0.0030901425052434206,0.0002610220108181238,0.00564136728644371,-0.004070894327014685,0.0008904051501303911,0.004751576576381922,0.0001425673981430009,0.0030913634691387415,-0.00023123735445551574
*,-0.0006191052380017936,0.008191038854420185,-0.0004639321705326438,0.00018555880524218082,-0.002322992542758584,0.0024390157777816057,-0.005487401504069567,0.002008491661399603,0.0057602315209805965,0.007316006347537041,3.492275936878286e-05,-0.005025458987802267,-0.004457965958863497,0.004272672813385725,0.006055609323084354,-0.0007379867602139711,0.004168019164353609,0.00016835067071951926,-0.0014442660612985492,-0.002559434389695525,0.005211370065808296,0.0004370753886178136,0.0006093911360949278,-0.004976680036634207,-0.00015624675143044442,0.0016711307689547539,-0.00666090939193964,0.003400432877242565,-0.006870544049888849,-0.005221981089562178,-0.002073822310194373,0.0015402628341689706,-0.004979162942618132,-0.005162467248737812,-0.005578944459557533,-0.0036157690919935703,0.0006667827838100493,-0.007825766690075397,-0.0010661559645086527,-0.0021714852191507816,-0.004324530716985464,0.0003544606443028897,-0.006004597060382366,-0.0028071340639144182,-0.006956002209335566,0.00471584452316165,-0.0005154049722477794,0.00011535666271811351,-0.004523898009210825,-0.005580822471529245,0.00068494031438604,0.0003540674224495888,0.0024839735124260187,0.003510940819978714,0.000137190698296763,-0.005620293319225311,0.0055021923035383224,-0.005673539824783802,0.005810628645122051,0.0027323730755597353,0.006963734980672598,-0.003943629562854767,0.0065767113119363785,-0.006933931261301041,-0.008211985230445862,-0.0015866467729210854,0.004654671065509319,-0.0013570025330409408,0.0037397516425698996,0.005614455323666334,-0.008211338892579079,-0.003472005482763052,-0.004398352932184935,0.002322152489796281,0.0028357887640595436,-0.003343338379636407,-0.0060558021068573,-0.0031998318154364824,-0.0004541113739833236,-9.620518540032208e-05,-0.006970827933400869,-0.003230527974665165,0.0034809093922376633,0.004311332944780588,-0.0034405167680233717,-0.0025459593161940575,-0.00018567006918601692,-0.0023960659746080637,-0.0032524617854505777,-0.0035395731683820486,-0.0038797385059297085,-0.0038740092422813177,0.004438246600329876,-0.003649927442893386,-0.0016483390936627984,-0.004315335303544998,0.00487324595451355,-0.0015741504030302167,0.00017126715101767331,0.003761619795113802
新規,0.004465403035283089,0.006187247112393379,0.006664104759693146,0.0023634033277630806,0.00025338807608932257,-0.003273050067946315,-0.004323563072830439,-0.00031421342282556,-0.0031178335193544626,0.004496789537370205,-0.004090254195034504,-0.0017224422190338373,0.0019281526328995824,-0.0029137853998690844,0.0035919640213251114,-0.0017499669920653105,-0.002452380023896694,-0.005499264691025019,0.0034163431264460087,0.0010204052086919546,-0.0024416015949100256,-0.0011022432008758187,0.0034640971571207047,0.0021924760658293962,0.0061858585104346275,0.0008780462085269392,-0.0018673725426197052,-0.004649341572076082,-0.006534014828503132,-0.002035159384831786,0.0023245862685143948,-0.0020004326943308115,-0.00661048199981451,0.00018487428314983845,-0.0055167521350085735,0.002334985649213195,-0.0015591628616675735,-0.0048137446865439415,0.0005086428136564791,-0.008454112336039543,0.0018713863100856543,-0.004572711419314146,8.114359661703929e-05,0.00029122582054696977,-0.00853208638727665,0.005819328129291534,-0.0010650338372215629,0.0020658511202782393,-0.00099108403082937,0.0012985230423510075,0.0016930006677284837,0.001265411265194416,-0.004465316887944937,-0.0017271185060963035,-0.0005122554721310735,-0.006432693917304277,-0.0009254070464521646,-0.0029510571621358395,0.0011001060483977199,0.003958822228014469,0.003448228817433119,0.0035680553410202265,0.003168697003275156,-0.006393527612090111,-0.0011820202926173806,0.0035869155544787645,0.0006877551786601543,-0.0031442504841834307,0.0023843084927648306,0.004811322782188654,-0.002482178620994091,0.0012142070336267352,0.0005390620790421963,-0.003217812394723296,0.0017515983199700713,-0.0023550759069621563,0.0033355657942593098,-0.0037006486672908068,0.002086429391056299,0.003294680966064334,0.0008630870142951608,0.0003121829067822546,-0.000882987747900188,-0.0016921006608754396,0.0014719406608492136,0.004295043647289276,0.0005102093564346433,-0.00030344913830049336,0.0033495526295155287,0.0005803719395771623,-0.0008199925650842488,-0.0018875881796702743,-0.004182219505310059,0.0010575103806331754,0.00023890122247394174,0.004659482277929783,-0.002738586626946926,-0.004992980509996414,-0.0037750957999378443,-0.0008672291878610849
ドライ,0.0026167018804699183,-0.0019883757922798395,0.0041704135946929455,0.005285367369651794,-0.0038894093595445156,0.00536259263753891,-0.00019844953203573823,-0.005120822694152594,-0.0037220697849988937,-0.0012147842207923532,-0.0004575166094582528,0.00047999827074818313,0.003973549231886864,0.002219256479293108,0.0028034381102770567,-0.002477893140166998,0.00497137475758791,0.001063919859007001,-0.0015433640219271183,-0.0016743764281272888,-0.001084267278201878,0.005331654567271471,0.0022767423652112484,0.0007124553667381406,0.00553033035248518,0.0032579631078988314,-0.0031850070226937532,0.004484069533646107,-0.0037130333948880434,-0.0038902927190065384,-0.0021756915375590324,0.003737298073247075,-0.004929795861244202,-0.0029923375695943832,-0.006855561397969723,0.0033857503440231085,-0.0037800671998411417,-0.0016785548068583012,0.003258605720475316,0.0022310500498861074,0.0026071707252413034,8.388084825128317e-05,-0.0034848987124860287,-0.002563788555562496,-0.0017798339249566197,-0.0006988944369368255,0.003137729363515973,0.004733664449304342,-0.0022607215214520693,0.004626567009836435,-0.003274548100307584,-0.00040747964521870017,-0.001099786371923983,-0.002645336790010333,-0.0006863805465400219,-0.0036971743684262037,0.0011791873257607222,0.0012727311113849282,-0.0022881708573549986,0.0008573610102757812,0.0032376477029174566,-0.0011179089779034257,0.0035887407138943672,0.002838255139067769,-0.00658754725009203,0.002349858172237873,0.0019136491464450955,0.0006613535806536674,-0.004152670502662659,-0.00291144079528749,-0.006682184059172869,-0.0017511899350211024,0.003998801112174988,-0.0009110778337344527,0.0034076424781233072,-0.0025805081240832806,-0.001423881622031331,0.002476897556334734,-0.004792362451553345,-0.004042253829538822,0.0003769758914131671,0.0022419868037104607,0.00410619517788291,0.002338640857487917,0.0031648168805986643,-0.0038207408506423235,-0.002973364433273673,-0.004913407377898693,-0.0025550143327564,0.004004079382866621,0.001060397014953196,-0.004054330289363861,0.002661340404301882,-0.004219613503664732,0.0031672175973653793,0.0031619351357221603,-0.004188752267509699,0.0034233967307955027,-0.0023160965647548437,-0.00216110423207283
市況,0.004047015681862831,0.0055885170586407185,0.0017549869371578097,0.0057911048643291,-0.004716037772595882,0.0027894098311662674,-0.005098077934235334,0.0010630758479237556,-0.0039303479716181755,-0.0034286738373339176,0.0031748320907354355,0.0014908516313880682,0.000692596600856632,-0.0041695404797792435,0.0009568993700668216,-0.0008537628455087543,0.004377756733447313,-0.003295992501080036,0.003520520403981209,0.0010265577584505081,-0.004212202504277229,0.0014629134675487876,-0.004605363123118877,-0.0009245100663974881,0.0037495349533855915,-0.0028993275482207537,-2.5268902390962467e-05,-0.00026713137049227953,-0.0006514695123769343,-0.00426507368683815,-0.0022383760660886765,0.0038045088294893503,0.003758265869691968,0.0006645757821388543,0.0028285454027354717,-0.0019158966606482863,-0.00012125083594582975,-0.0034626449923962355,0.0028925396036356688,-0.003262118436396122,-0.004658638499677181,0.0017017463687807322,-0.003909936640411615,0.0018623557407408953,-0.005753970239311457,0.0021881191059947014,0.003598167095333338,0.003216591663658619,-0.0026109314057976007,-0.0024448074400424957,-0.000489449012093246,-0.0032038921490311623,0.0019982082303613424,0.0023717142175883055,-0.0042151338420808315,-0.002698976080864668,0.0031415505800396204,-0.0037909275852143764,0.0002218075533164665,8.487623563269153e-05,9.48759334278293e-05,-0.002679340308532119,-0.0033905920572578907,-0.0027224260848015547,-0.0020576780661940575,0.0018100142478942871,0.0026281028985977173,-0.002853317651897669,-0.0043206303380429745,-0.0029047557618469,0.0009979119058698416,0.00030732282903045416,-0.0019620757084339857,0.0033085132017731667,-0.0013509938726201653,-0.003501125378534198,0.0019596628844738007,-0.0031802495941519737,-0.002794276224449277,-0.005125592462718487,-0.0003551859699655324,0.0015506872441619635,-0.00388334016315639,0.0037031187675893307,0.0020982641726732254,0.0048982929438352585,0.003247854532673955,0.0038488334976136684,0.0025609335862100124,-0.0027918252162635326,-4.628084570867941e-05,0.002592510776594281,-8.422524115303531e-05,-0.0032585258595645428,-0.001823698403313756,-0.0010179425589740276,-0.0026074328925460577,-0.001473429729230702,0.000407867570174858,0.0024182377383112907
水準,0.0036834347993135452,0.0021973911207169294,0.0013427757658064365,-0.001589726540260017,0.003713109064847231,-0.002561327535659075,-0.00019121244258712977,-0.000790701131336391,0.00016986698028631508,0.0016872166888788342,-0.0005320892669260502,0.00024655149900354445,-0.004543800372630358,-0.0022004463244229555,0.00025536760222166777,-0.0050066388212144375,-0.0036970253568142653,-2.041412517428398e-05,0.003446027636528015,-0.004798025358468294,-0.001685456489212811,-0.001864184276200831,0.002793146064504981,0.00313610234297812,-0.0027037120889872313,-0.004100437741726637,-0.003497061552479863,-0.0008226209320127964,-0.0035022159572690725,0.00043446404743008316,-0.00047576692304573953,-0.0002919101680163294,-0.0013500336790457368,-0.002805067226290703,-0.0021377038210630417,-0.005246415734291077,0.00017969519831240177,-0.005853018723428249,-0.0018327173311263323,-0.006073587108403444,0.0010162042453885078,0.0029211014043539762,-0.0018010338535532355,-0.00013800273882225156,-0.0047682891599833965,0.001707721152342856,-0.0017606012988835573,0.003863754915073514,0.0032908902503550053,0.000777607609052211,0.0016787485219538212,-0.004896711558103561,-0.003632052568718791,0.00339382141828537,-0.005444009322673082,0.0021565533243119717,0.002886822447180748,0.002912921132519841,0.0013018427416682243,-0.004510913975536823,0.0006386457826010883,0.0017853465396910906,0.00014964403817430139,0.003808866022154689,0.00034981383942067623,0.004815326072275639,0.005149094387888908,-0.002681335899978876,0.0018051539082080126,-0.0014086202718317509,-0.0047342414036393166,0.0017649471992626786,0.0004228476609569043,-0.00020322788623161614,-0.003340041032060981,0.0038952045142650604,-0.0032325051724910736,-0.001098870998248458,-0.0029547172598540783,-0.004179880488663912,-0.004572439473122358,0.004081638529896736,-0.0017855347832664847,-0.003290734253823757,-0.002844102680683136,-0.0015177743043750525,-0.002812037244439125,-0.0005088326870463789,-0.003920827526599169,-0.002699614502489567,-0.0010499490890651941,0.003816015785560012,-0.0025878765154629946,-0.0006432774243876338,0.002982210833579302,0.004934402648359537,0.004181358031928539,-0.005573513451963663,0.0006736083887517452,0.005881066434085369
低下,0.002628945279866457,-0.00038467595004476607,0.007773182820528746,0.006141888443380594,-0.0013822558103129268,0.0007556627970188856,0.002348137553781271,-0.003733845427632332,-0.0031504633370786905,0.0033017362002283335,0.0034516784362494946,-0.00026132981292903423,0.001106812385842204,-0.0034269848838448524,0.0015972907422110438,0.0018194002332165837,-0.004019616637378931,-0.0008201500168070197,0.0022223489359021187,0.0021149429958313704,0.004074160009622574,0.00018051340884994715,-0.004393691197037697,0.0006389535265043378,0.0008886249270290136,-0.0034154269378632307,-0.006498400121927261,0.0017023852560669184,-0.00477450480684638,0.002373906783759594,0.0037050070241093636,0.0034086769446730614,-0.0011940760305151343,0.0006840421119704843,0.0002619370352476835,0.00345930946059525,-0.0030195030849426985,-0.006769019179046154,0.0009009225759655237,-0.0006681917584501207,-0.0046927789226174355,-0.0017922010738402605,-0.005760279018431902,-0.002440724289044738,-0.0030955676920711994,0.0016048226971179247,0.0008215113775804639,-0.0015076440759003162,-0.0033610330428928137,-0.0017727361992001534,0.003448916831985116,-0.005023302510380745,0.0005144650349393487,-0.003053714521229267,-0.0017980828415602446,-0.0035404583904892206,0.004996877629309893,0.0041811359114944935,0.0010338639840483665,0.0026464336551725864,0.0006821266142651439,-0.004001101013273001,0.0016837372677400708,0.00012947141658514738,-0.006796203088015318,0.0006839021225459874,-0.0032604974694550037,0.002910904586315155,0.004496986046433449,0.004887338727712631,-0.003948506899178028,0.003088149707764387,0.0009176185121759772,-0.002626790665090084,-0.0032269589137285948,-0.002683594124391675,9.941960888681933e-05,-0.0025480836629867554,-0.004789595026522875,0.0027808144222944975,0.0027573544066399336,0.0011973342625424266,-0.004613800439983606,-0.0046022022143006325,-0.0028094397857785225,-0.0005831050802953541,0.004138118587434292,-0.002248341916128993,-0.0012786979787051678,-0.0017425253754481673,9.420257265446708e-05,0.0011391661828383803,0.0010233224602416158,-0.0017841299995779991,0.0026053457986563444,0.0005578362615779042,-0.0002521813730709255,0.002418650547042489,-0.0022237300872802734,0.006206040270626545
剥落,0.001993350451812148,0.0025185307022184134,1.2746939319185913e-05,-0.0027230551932007074,-0.005581100471317768,0.0008628087234683335,-0.004570390563458204,-0.003872077679261565,0.0033356831409037113,-0.0024445182643830776,-0.0019236610969528556,7.409756653942168e-05,0.0009799781255424023,0.0002331529976800084,-0.0020508517045527697,-0.00043023793841712177,0.0055314344353973866,-2.1690107132599223e-07,-0.002073542447760701,-0.0021257365588098764,0.004967526067048311,-0.0001104583207052201,-0.00323655316606164,-0.003765196306630969,0.004538962617516518,-0.0006715804920531809,0.00324595021083951,-0.004641070030629635,-0.0027589136734604836,-0.004712963011115789,0.0025181935634464025,-0.002082517370581627,-0.0023966862354427576,-0.002811729907989502,-0.004726275335997343,-0.003888625418767333,0.00410428736358881,-0.0003581443743314594,-0.0008486805600114167,0.0005736954626627266,-0.0005637537688016891,-0.005184962879866362,-0.003326097736135125,0.004138388205319643,-0.0020573169458657503,0.004343498032540083,0.0018404178554192185,-0.0005456237122416496,-0.0005543992156162858,0.0003005456237588078,-0.002280502812936902,0.0020575602538883686,0.0025933070573955774,0.0008305920637212694,-0.0052975756116211414,-0.00469578243792057,-0.0020696213468909264,-0.005574708804488182,-0.001082917326129973,-0.0032076360657811165,0.002721835859119892,-0.0020405345130711794,0.0008752947323955595,-0.004564933944493532,0.0018813456408679485,0.004483297001570463,0.002181314630433917,0.0040796962566673756,0.0024479618296027184,0.006707238964736462,-0.0003510866081342101,-0.0026362298522144556,-0.0023263576440513134,-0.0031902187038213015,-0.0032740666065365076,-0.004485787358134985,0.002820576773956418,-0.003241404425352812,-0.00312802498228848,0.0034118075855076313,0.0007561600650660694,0.003875461872667074,0.0005295868613757193,0.00472937012091279,0.005374605767428875,0.00022536468168254942,-0.0021941231098026037,0.0036222911439836025,0.0027646878734230995,-0.0005279121687635779,-0.0014125066809356213,-0.0037741682026535273,-0.0025650321040302515,0.0036892432253807783,-0.002715861890465021,-0.0040084137581288815,0.0016660918481647968,-0.004917720332741737,3.256252239225432e-05,0.0057734036818146706
投資,0.00536559522151947,0.0012284073745831847,0.0013167980359867215,-0.0025794613175094128,-0.0017365156672894955,0.004000616725534201,-0.00022236097720451653,-0.0028279649559408426,0.0053634741343557835,-0.00040415473631583154,0.0022709250915795565,-0.004281853791326284,0.0016427811933681369,0.003557758405804634,0.004909195937216282,-0.00393172400072217,-0.0005161097506061196,-0.006035264115780592,0.0004974464536644518,-0.0006366712041199207,-0.003344746306538582,-0.00066116958623752,0.0016880864277482033,0.002656186930835247,0.0031741990242153406,-7.204666326288134e-05,-0.0001819124590838328,-0.0025036297738552094,0.0007536309421993792,-0.005490411072969437,0.0026587462052702904,-0.004991062451153994,0.00246666232123971,-0.005378169473260641,-0.0049539851024746895,-0.001515937503427267,0.002233351580798626,-0.008461304940283298,-0.0006376435048878193,-0.0016716254176571965,-0.002571196760982275,-0.005494655575603247,-0.0064943027682602406,0.001034091110341251,-0.008064121939241886,0.0017988126492127776,-0.0038966175634413958,0.0032258578576147556,-0.004144080448895693,0.0040301610715687275,-0.0025958509650081396,-0.00010613246558932588,0.0023966352455317974,-0.0013407119549810886,-0.004514424595981836,-0.001531220506876707,-1.8954542611027136e-05,0.0008888655574992299,0.0029387138783931732,7.74759755586274e-05,0.0041526020504534245,-0.0035175401717424393,-0.0015440289862453938,-0.0032780487090349197,0.0008542448631487787,0.005024735815823078,0.0026073658373206854,0.002152232453227043,-0.0022415397688746452,0.00229430734179914,-0.004964220803231001,-0.0058828783221542835,0.003388023702427745,-0.003125185379758477,0.0034580163192003965,-0.006959109101444483,0.0028113126754760742,-0.0004533002502284944,-0.0011949168983846903,0.001229403424076736,-0.005487540736794472,-0.0043904827907681465,0.0011465296847745776,0.0018172533018514514,-0.0035462933592498302,-3.381765418453142e-05,-0.0017246190691366792,-0.004918051417917013,0.0007200613617897034,-0.004251980222761631,-0.0015055433614179492,-0.0024786493740975857,0.0031009207013994455,-0.0031054625287652016,0.004967258311808109,0.005039313342422247,-0.0038813853170722723,1.042429812514456e-05,-0.0045057982206344604,0.00254373112693429
評価,0.00535458792001009,0.0023564202710986137,0.0007247616304084659,0.0007995159248821437,-0.005263613536953926,0.0021954867988824844,0.003682910930365324,-0.0005546078900806606,0.0020924871787428856,-0.0012395306257531047,-0.0006003500893712044,-0.0012037338456138968,-0.0016871782718226314,0.005112729500979185,0.00094829429872334,-0.0014582566218450665,0.004427741281688213,-0.0049132476560771465,0.003451146651059389,-0.002351311733946204,0.0053775194101035595,0.001288378844037652,-0.003095293650403619,5.804461397929117e-05,0.0016297496622428298,-0.003121117362752557,-0.001699718995951116,0.0034424560144543648,0.0036178063601255417,-0.0028182410169392824,0.0014860766241326928,0.003973908722400665,-0.003021199256181717,-0.003846497042104602,-0.001621539588086307,0.003981057088822126,0.0005666952929459512,-0.00392959313467145,0.00046949792886152864,-0.005372028797864914,-0.004617679864168167,0.0006535106804221869,-0.0024795159697532654,-0.0005938845570199192,-0.006597162690013647,-0.0009337395313195884,-0.002187692327424884,0.004757045302540064,0.004109351430088282,-0.0006728252628818154,0.004886261653155088,0.004451403394341469,0.0019221047405153513,-0.002670302987098694,0.0012784239370375872,-0.00021435899543575943,0.004272565711289644,0.0029611235950142145,0.0009561156621202826,-0.0013024115469306707,0.003347632475197315,0.0034847117494791746,-0.001364605501294136,-0.002864626469090581,0.0034285045694559813,-0.004667710047215223,0.005677369423210621,0.0031426202040165663,-0.004372892435640097,-0.0035101415123790503,-0.005346832796931267,0.0030213785357773304,-0.00026636532857082784,-0.005409506149590015,-0.001042659510858357,-0.004029651638120413,-0.002827627118676901,-0.0020809725392609835,-0.004132524598389864,-0.004657289013266563,-0.0014830840518698096,0.0003444859175942838,0.0009196831379085779,-0.0002851777244359255,-0.0028325144667178392,-0.0013266477035358548,0.0013154868502169847,-0.00451086089015007,0.003755610203370452,0.001035639550536871,0.0006180858472362161,0.005122211296111345,0.0024274506140500307,0.0016477336175739765,0.002861015498638153,-0.0029064761474728584,-0.0029156433884054422,-0.0028285887092351913,-0.004655392374843359,0.001681370078586042
目標,0.005330975633114576,0.006696838885545731,0.0018942117458209395,0.004584416747093201,-0.007325140293687582,-0.0018959001172333956,-0.0002876034704968333,0.0020055018831044436,0.0020704008638858795,-0.00013077269250061363,-0.0002618606376927346,-0.006119472440332174,0.0013877019518986344,0.003255389863625169,0.0016821259632706642,0.00018809910397976637,0.003382946364581585,0.001492209150455892,0.0010976261692121625,0.0004055580939166248,0.0025351885706186295,0.003491662908345461,-0.001314042485319078,-0.003587204497307539,0.004402836784720421,0.003059171373024583,-0.006857891567051411,-0.0020332259591668844,-0.0044793542474508286,0.003816549899056554,-0.0019277326064184308,-0.002433877671137452,-0.0004132073372602463,0.00047271890798583627,-0.0026705290656536818,-0.002137704286724329,-0.0013702581636607647,-0.0027973821852356195,-0.002113433787599206,-0.0005719022592529655,-0.0012392739299684763,-0.0037346966564655304,0.00029469304718077183,-0.004451345652341843,-0.007486763875931501,0.0062488652765750885,-0.00427110493183136,-0.004283913876861334,-0.004894502926617861,-0.0004828759701922536,0.0013410738902166486,-0.0008880888926796615,-0.0012586276279762387,-0.0023243138566613197,-0.0027412965428084135,0.0004693874507211149,0.0035045736003667116,0.0005531767965294421,0.004907252732664347,-0.0036998402792960405,-0.0006671716691926122,-0.004276034887880087,0.006306160241365433,0.0025002642069011927,-0.002264944603666663,0.0053351218812167645,0.006451932713389397,0.0033640458714216948,0.0010783143807202578,0.0037858327850699425,-0.003914118744432926,-0.0021378304809331894,-0.001204565167427063,0.00036371982423588634,0.0019208209123462439,-0.003376404056325555,0.003313650144264102,0.0009286153945140541,-0.004420494195073843,-0.0027781056705862284,-0.006748464424163103,-0.0050443983636796474,0.0035858829505741596,-0.0038301723543554544,-0.003530469024553895,0.005124443210661411,-0.003991038538515568,-0.0019087048713117838,-0.0006015109247528017,-0.0005255918367765844,0.004122712183743715,0.0015789270401000977,-0.0018208841793239117,0.0039449045434594154,0.0022216455545276403,-0.0027052718214690685,0.0023652829695492983,-0.006433738395571709,0.0006958852172829211,0.0010759261203929782
株価,0.003485630499199033,0.006035080645233393,0.004506226629018784,0.005207601003348827,0.0031538030598312616,0.0032444314565509558,-0.003311679232865572,0.0024638217873871326,0.004727914463728666,0.0019847583025693893,-0.0024280590005218983,-0.005386962555348873,0.0042061698623001575,0.0034332945942878723,-0.0018643892835825682,0.0003703442052938044,0.004444347228854895,-0.006032371427863836,0.003601471893489361,-0.003066578647121787,0.005362008232623339,-0.0012740661622956395,0.0038163226563483477,-0.002051209332421422,0.0015753410989418626,-0.002718681003898382,-0.0016186587745323777,-0.0010198423406109214,-0.005680381320416927,-0.005143672227859497,-0.0011693297419697046,-0.0047838143073022366,0.0028469490353018045,0.002480575582012534,-0.006687788292765617,0.0031283502466976643,8.910708857001737e-05,-0.004675381351262331,0.003095635212957859,-0.006845391355454922,-0.002091846661642194,0.0018649216508492827,-0.006275143940001726,0.003669298253953457,0.0018000338459387422,-0.0025675955694168806,0.0038850856944918633,0.0005357539048418403,-0.0017729289829730988,-0.001567917293868959,0.002986422972753644,0.002661521313712001,0.004458377603441477,-0.003252998925745487,-0.000822654867079109,-0.0001745987101458013,0.0006625795504078269,0.00417171698063612,0.005614749621599913,0.0015788309974595904,-0.003244504565373063,0.005026968661695719,0.004393627401441336,-0.006248650141060352,-0.005645705386996269,-0.0008387156412936747,0.00589006906375289,0.00014226687198970467,-0.004565354902297258,0.004166162107139826,-0.006090034265071154,-0.00468961289152503,-0.0011754684383049607,-0.0033391343895345926,-0.005429364275187254,0.0031895488500595093,0.001995289232581854,0.003157037077471614,0.0011640496086329222,-0.005330129060894251,-0.004086458124220371,0.0008970781927928329,0.0029431709554046392,-0.0004502412921283394,0.0009697350324131548,-0.0019194325432181358,0.002192274434491992,-0.002243395894765854,0.003580422606319189,0.0016590848099440336,0.0032553698401898146,0.0012001964496448636,-0.0012510550441220403,-0.0009156523738056421,0.00312240282073617,-1.852304194471799e-05,-0.00195556809194386,-0.0011922027915716171,0.0005493983044289052,0.0016182766994461417
円,-0.0011290190741419792,0.003672102466225624,-0.0014267584774643183,0.0015880768187344074,-0.0011648101499304175,-0.0005494207725860178,-0.005629499442875385,7.803156040608883e-05,-0.0033331625163555145,0.0014269195962697268,0.0006359280669130385,0.0033650181721895933,9.04724292922765e-05,-0.0023807755205780268,-0.001329887192696333,-0.00041402573697268963,-0.0024590701796114445,-0.006238535046577454,0.004566241055727005,-0.00040146743413060904,0.00031818411662243307,0.004960949532687664,-0.0019583487883210182,-0.0036713939625769854,-0.0019085161620751023,0.000607444322668016,0.00037352845538407564,0.0025618046056479216,0.0017690235981717706,-0.002986286533996463,-0.003785621840506792,0.0030060741119086742,-0.002425613347440958,0.0014698326122015715,-0.005936427507549524,-0.005251942202448845,0.0024683563970029354,-0.0027013560757040977,-0.00032702257158234715,-0.005646285600960255,0.0015360413817688823,-0.001905078999698162,0.0030043369624763727,-0.0005990995559841394,-0.0008625099435448647,0.0021973024122416973,-0.0027923481538891792,-0.0004343500186223537,0.0029969741590321064,-0.004756558686494827,1.0431248483655509e-05,-0.002769302809610963,0.004144052974879742,0.0032944544218480587,-0.006234960164874792,-0.004174292553216219,0.004456879571080208,-0.005362721625715494,-0.0007340609445236623,0.0038547662552446127,0.0044670263305306435,0.00341974594630301,0.003548280568793416,-0.003749147290363908,-0.0041779447346925735,0.0024177057202905416,0.0027318259235471487,0.004327201284468174,0.001505284570157528,0.0010251215426251292,0.0005378835485316813,-0.00559963146224618,0.00302606332115829,-0.0032086754217743874,-0.0026043609250336885,0.0003465513582341373,0.0016718573169782758,0.0011497118975967169,0.0010945912217721343,0.00036906165769323707,-0.003943814430385828,-0.002978627337142825,-0.003171012969687581,-0.003775454591959715,0.0016978667117655277,0.0002363369712838903,0.001149982213973999,-0.00042338657658547163,0.002969766268506646,-0.0025470079854130745,0.0029857722111046314,0.00036294679739512503,-0.0005594180547632277,0.003785301698371768,-0.0029128759633749723,0.0008180611184798181,0.0006688290741294622,7.481274951715022e-05,0.0015788469463586807,-0.0018114198464900255
開始,9.590105764800683e-05,0.0007748239440843463,0.004017415456473827,0.0019923048093914986,-0.005280491430312395,-0.00018684974929783493,-0.0009275645716115832,0.0023574819788336754,-0.002301771193742752,-0.0018976052524521947,0.0013047166867181659,0.0038773389533162117,-0.0011327622924000025,0.0041161952540278435,0.0021575530990958214,0.003955695312470198,-0.00033503343001939356,0.0018592692213132977,0.0009982645278796554,0.0014577218098565936,-0.00019543692178558558,-0.003388341050595045,-0.0027146588545292616,0.003385049058124423,0.0025582080706954002,-0.004592929966747761,-0.005927481222897768,-0.0002829161530826241,-0.0026288251392543316,0.0016267175087705255,0.0009271830786019564,0.0029660630971193314,-0.0015153405256569386,-0.0005793400923721492,-0.00422580074518919,0.001552039640955627,0.005193437449634075,-0.007359023205935955,-0.0038165252190083265,-0.004023759625852108,-0.004851466976106167,0.0024131902027875185,-0.001576832844875753,0.0012308143777772784,-0.007744766306132078,0.00030127103673294187,0.0044326321221888065,0.001162836910225451,0.0018142459448426962,-0.003578798146918416,0.001461700303480029,-0.002420060569420457,-0.00043733319034799933,-0.00385904754512012,0.0019435688154771924,0.002190375467762351,0.005827744957059622,-0.003892723470926285,8.978349069366232e-05,0.002076862147077918,0.0011152804363518953,0.004484720062464476,-0.001429324853233993,0.00359649327583611,-0.005159515887498856,0.001652723760344088,0.0009174113511107862,-0.0011569641064852476,-0.0039446610026061535,0.0018231902504339814,0.0014796936884522438,-0.003482676576822996,-0.003085619769990444,-0.005047288257628679,-0.0030493554659187794,-0.004770806524902582,0.0009226437541656196,-0.005571997724473476,0.0033432876225560904,-0.0012437546392902732,-0.004464499186724424,-0.0053716725669801235,-0.002670129993930459,-0.000274476915365085,-7.454385922756046e-05,0.0027418257668614388,-0.003301275195553899,-0.0009383116848766804,-0.0031737727113068104,-0.004280704539269209,0.004589525517076254,0.002894425531849265,0.004595545586198568,0.003677170490846038,0.0005770355346612632,0.0020649621728807688,0.0023058452643454075,0.0020416395273059607,-0.0044481935910880566,0.0030473547521978617
日興,0.0031058588065207005,0.002372689777985215,0.0011102959979325533,0.005347623489797115,-0.0021289896685630083,-0.0005417994689196348,-0.0040440489538013935,-0.0033342374954372644,0.0045701563358306885,0.003559076227247715,-0.0011568265035748482,9.607939136913046e-05,0.0008174942340701818,6.49650201012264e-06,0.004387452267110348,-0.004778046626597643,0.002025210065767169,-0.0046749715693295,0.00031941477209329605,0.004265273455530405,-0.0014318239409476519,0.0014899024972692132,0.0023289641831070185,-0.003279795404523611,0.0060089570470154285,0.0029270241502672434,-0.005989194381982088,0.001898554153740406,-0.00011229744995944202,-0.004722588695585728,-0.00163364433683455,-0.0010213336208835244,-0.006342224311083555,-0.0047989157028496265,-0.006185080856084824,0.001222815248183906,0.001089175115339458,-0.006560029927641153,-0.00020060630049556494,-0.00456360075622797,-0.0009885337203741074,1.7254273188882507e-05,-0.0017997270915657282,-0.0012208600528538227,0.00010935682075796649,0.0043557859025895596,0.0008903986890800297,-0.0027438318356871605,-0.002227922435849905,-0.004532509949058294,0.0006899992004036903,-0.005040318705141544,6.0520316765177995e-05,-0.0004438356845639646,-0.006218516733497381,-0.0007563394610770047,-0.0008968648035079241,-0.0035630303900688887,0.005569188389927149,0.0006598967011086643,0.0028961787465959787,0.001794501324184239,0.005276101641356945,0.0007076769252307713,-0.003695599501952529,-0.0012197848409414291,0.002389502013102174,0.0031763415317982435,0.0010424238862469792,0.005440177861601114,0.0003914352273568511,0.003509507980197668,0.0022524911910295486,0.00044436819734983146,-0.0022968731354922056,-0.006362506654113531,-0.005805677268654108,0.003915710840374231,0.0017733678687363863,-0.0027210901025682688,0.0025634400080889463,-0.0004455670132301748,-0.0016731589566916227,-0.0038144399877637625,0.0002092797076329589,-0.0021496673580259085,-0.0033355727791786194,-0.003403702052310109,0.003211366245523095,0.0037872351240366697,0.0015095731941983104,-0.003139629028737545,0.0023129472974687815,-0.003895559348165989,0.0017660110024735332,-0.002833707956597209,-0.002238345565274358,-0.006390830967575312,0.001081623020581901,0.0002709511900320649
証券,0.003593666944652796,0.0007190298638306558,0.004441247321665287,-0.0004610078758560121,0.00323642254807055,0.00012694521865341812,-0.00042660124017857015,0.0017242777394130826,-0.003591754473745823,-0.0012461449950933456,-0.0038215676322579384,0.004056790843605995,-0.0040120817720890045,0.0018755041528493166,-0.0006420545396395028,-0.0011136571411043406,0.004189595114439726,-0.00036476398236118257,0.0011197399580851197,-0.0021220433991402388,-0.0026652486994862556,-0.0019954172894358635,0.003487955778837204,0.001702304114587605,0.0011550899362191558,0.0029165628366172314,0.0002276622981298715,-0.0023170611821115017,-0.0018066571792587638,0.004526067525148392,0.0015311874449253082,0.0023601106368005276,-0.0013280248967930675,0.00232415902428329,-0.00579946069046855,-0.0041360813193023205,0.0031504405196756124,-0.004794642794877291,-0.00493231974542141,-0.005307256709784269,-0.0019039426697418094,0.002449228661134839,-0.0008264526259154081,0.0031055689323693514,-0.002112174406647682,0.002688951790332794,0.0026109942700713873,-0.0028196789789944887,0.00018934586842078716,0.0030114015098661184,-0.0009615272865630686,0.004304624628275633,0.00323780276812613,-0.0026454858016222715,-0.005218551494181156,-0.00131353666074574,-0.0001456929458072409,-0.002531489823013544,0.0004407143860589713,0.004450136795639992,0.003930899780243635,-0.0003898995346389711,0.0015304945409297943,-0.0030684806406497955,-0.005749342497438192,-0.00391199579462409,0.0039019661489874125,0.004971763584762812,0.0026947371661663055,0.004525453317910433,0.002388897817581892,-0.0028792954981327057,-0.0023676343262195587,0.000710410880856216,0.002979083452373743,0.003827933454886079,-0.003066480625420809,-0.00484161963686347,0.002246110700070858,-0.004987504333257675,-0.0023440781515091658,-0.0015063980827108026,-0.00023138920369092375,0.00018910049402620643,0.0004368257650639862,0.005597005132585764,-0.004366038832813501,0.0019447109661996365,0.0010064189555123448,0.0016458691097795963,0.0015105935744941235,-0.004402360413223505,-0.0028960739728063345,0.003845224156975746,-0.003210473572835326,-0.0002159995783586055,-0.0010788493091240525,0.0005966093158349395,0.0014285915531218052,0.0016148494323715568
以下,-0.00047439575428143144,-0.003108569420874119,0.002854210790246725,-0.0015125347999855876,-0.000836941646412015,0.0008450799505226314,0.00032578594982624054,0.004116974305361509,0.00020809704437851906,-0.0009899114957079291,-0.0019633201882243156,0.003069381695240736,0.002825019881129265,0.0021578415762633085,-0.0014393499586731195,-0.0003691482124850154,-0.003411366604268551,-0.004134668968617916,-0.0014038123190402985,-0.0020455089397728443,-0.004346600268036127,-0.0021101473830640316,-0.004202733747661114,0.004420576151460409,0.004644945729523897,0.0024436991661787033,0.0016168479342013597,0.002466849284246564,0.0023887103889137506,0.0018560881726443768,-0.00240717688575387,0.0035341724287718534,-0.00239645061083138,-0.005310679320245981,-0.004929066635668278,0.0003580191114451736,-0.0035205925814807415,-0.00316432467661798,0.004079505801200867,-0.005632885731756687,0.003340343479067087,0.004033677279949188,-0.002325365785509348,-0.00225970265455544,-0.001080766785889864,0.005090741440653801,-0.004690025467425585,-0.0026124301366508007,-0.005070991814136505,-0.0023813359439373016,-0.0007076047477312386,-0.003461711574345827,-0.004313090816140175,-0.0023163282312452793,-0.004402774851769209,0.00030030778725631535,-0.0034897448495030403,-0.0026428885757923126,0.0006822534487582743,0.0034745230805128813,-0.001448015565983951,-0.0023719491437077522,-0.003948409575968981,-0.0020682280883193016,-0.0020641337614506483,-0.002658698009327054,-0.001639326917938888,0.003814947558566928,-0.0027083393651992083,-0.0010616254294291139,-0.00018138470477424562,0.004209296312183142,-0.0011061144759878516,-0.0021349817980080843,-0.0017747763777151704,0.0014109971234574914,-0.002470953855663538,0.0002771716099232435,0.0027847636956721544,-0.003929476253688335,-0.0018851144704967737,-0.00508816447108984,-0.0040902080945670605,0.004147738683968782,0.0033708326518535614,-0.0033458948601037264,-0.0017504621064290404,-0.0010362683096900582,-0.0018799088429659605,-0.001594063243828714,0.0020758965983986855,0.004419640172272921,0.0048249163664877415,-0.0001344647171208635,0.004737068898975849,-0.0019796795677393675,0.004706766922026873,-0.005659160669893026,-0.004953002091497183,-0.0010199620155617595
弊社,-0.002164344536140561,0.004343367647379637,0.0031166491098701954,-0.0036916923709213734,0.002092524664476514,-0.0029794906731694937,0.0023782600183039904,-0.003584057092666626,-0.002602327149361372,0.0028346192557364702,0.003858308307826519,-0.0010618928354233503,0.004890013486146927,0.004897963255643845,-0.003115901257842779,-0.0018314877524971962,0.00025895333965308964,-0.0043403636664152145,0.004410542082041502,-0.0029893822502344847,-0.0009945688070729375,0.00502450717613101,-0.005060096271336079,0.0032431764993816614,0.004424822982400656,0.0010123216779902577,-0.0049819136038422585,-0.004544005263596773,-0.0019833524711430073,-0.0044768620282411575,-0.0020342387724667788,-0.004295415244996548,-0.0012473242823034525,-0.002039580373093486,0.0010686891619116068,0.003308722749352455,-0.0038204423617571592,0.0007348348153755069,-0.0014146753819659352,0.00242991978302598,0.00034146022517234087,0.00183573504909873,0.003946966025978327,-0.003087275195866823,-0.004216580186039209,-0.0028532641008496284,0.0035824838560074568,-0.001879992661997676,-0.004993675276637077,0.0015582562191411853,0.00012166090164100751,-0.002031394513323903,-0.0014854484470561147,-0.004282331559807062,0.003934444859623909,0.004348669201135635,-0.0013175364583730698,0.0013691448839381337,-0.0004306133487261832,-0.0020582901779562235,-0.001710111740976572,0.003228007582947612,0.0038051323499530554,-0.002823562128469348,-0.004821390844881535,-0.0003763362765312195,0.0023948606103658676,-0.002953966148197651,-0.003647960489615798,-0.001462741056457162,-0.0001105743067455478,-0.0020173247903585434,0.00019685659208334982,-0.004758764524012804,0.002860100707039237,-0.0033039154950529337,0.002179858274757862,-0.004747800994664431,0.002840703120455146,-0.005368572659790516,-0.0007409963291138411,-0.0039019996766000986,0.00038998282980173826,0.0008243087213486433,-0.004724720027297735,0.003064158372581005,0.0015699819196015596,0.004985702224075794,0.0019626650027930737,0.0017455052584409714,-0.0029855454340577126,0.0048346128314733505,-0.0014478383818641305,-0.003979160450398922,-0.0005663318443112075,-0.0009716801578179002,0.0037739602848887444,0.0003818778204731643,0.0025651417672634125,0.0019481241470202804
同社,0.0014600071590393782,0.005591378081589937,0.0005821796366944909,0.005181295331567526,0.0030031183268874884,0.002889365889132023,-0.0037553387228399515,-0.00436460692435503,0.0021554965060204268,-0.0012757660588249564,-0.0013878996251150966,-0.000579094048589468,0.001875221380032599,-0.002103811129927635,0.003939417656511068,0.0033280549105256796,0.003710287157446146,-0.002437909599393606,-0.001378917135298252,0.0012382150162011385,0.0013853143900632858,-0.0024740896187722683,-0.003918998874723911,-0.0037494704592972994,-0.0010724872117862105,0.0034597674384713173,-0.002686043968424201,0.0006551485857926309,0.0024848156608641148,-0.0022367737255990505,0.003520618425682187,0.0015633245930075645,-0.003943047020584345,-0.0024326269049197435,0.0006559564499184489,0.002806098433211446,0.004267369396984577,0.0026255196426063776,-0.0013006656663492322,0.002664899919182062,0.004149840213358402,-0.004117854405194521,0.0011975582456216216,0.001143157947808504,-0.005589719861745834,0.0038619779516011477,-0.0007879326003603637,0.0041119251400232315,0.001437114435248077,0.002153980080038309,-0.0014802204677835107,0.0012302343966439366,-0.001450438518077135,-0.0009128822130151093,-0.001917848945595324,-0.001972950529307127,0.002931288443505764,-0.005242400802671909,0.0016316587571054697,0.004743786994367838,0.0032249281648546457,0.002670206129550934,0.001788867637515068,-0.003128018695861101,-0.0018138880841434002,-0.003501767525449395,-0.0021390884649008512,-0.0019458176102489233,-0.0008638567524030805,-0.0030503463931381702,-0.0026654803659766912,0.004284599795937538,-3.4638640499906614e-05,-0.0038765945937484503,0.0028755159582942724,4.398261444293894e-05,0.0012236445909366012,-0.004545435309410095,0.003544485429301858,-0.002623459557071328,-0.0018856829265132546,-0.00016160520317498595,-0.005206767935305834,-0.001182291191071272,0.0007652128115296364,-0.00021653127623721957,0.0033162871841341257,-0.002067168243229389,-0.001600464340299368,-0.0053526172414422035,-0.0021376661024987698,2.1273714082781225e-05,-0.0044972519390285015,0.00020054208289366215,-0.0008802472148090601,-0.0049537974409759045,-0.00042344117537140846,0.002909198636189103,0.004074016120284796,0.0037396622356027365
規,-0.0007177460938692093,0.0030335760675370693,0.0024516917765140533,-0.0005606305203400552,-0.0065847341902554035,0.0002499068505130708,-0.00560039933770895,-0.0015620666090399027,-0.0006237963098101318,0.0064858244732022285,-0.0013851892435923219,0.0019165317062288523,0.002174208639189601,0.004040429834276438,0.0020926243159919977,-0.0019607411231845617,-0.004030282609164715,-0.0032611344940960407,0.003477447433397174,0.0034831357188522816,0.0022159372456371784,0.002604957902804017,-0.0013653826899826527,0.004334129858762026,0.005572389345616102,-0.003842826234176755,-0.0018990004900842905,-0.00037440191954374313,-0.0036433241330087185,0.0037529661785811186,-0.0018873654771596193,0.00262581929564476,-0.003504497231915593,-0.004634106531739235,0.0008648347575217485,-0.005691448226571083,-7.380596798611805e-05,-0.006700938101857901,-0.002434350550174713,-0.007013626862317324,-0.0046091401018202305,-0.0038823853246867657,-0.003516490338370204,0.0001486482797190547,-0.005884845275431871,0.004002186935395002,0.0032212077639997005,-0.005024596117436886,-0.006003513932228088,-0.0016397754661738873,-0.00045543277519755065,0.003236283315345645,0.0001653743238421157,-0.005540072452276945,-0.004031131509691477,-0.0056203389540314674,0.003992712590843439,0.0019784439355134964,0.006017758976668119,-0.0006423607119359076,0.0026694380212575197,0.0012474287068471313,-0.0014516267692670226,-0.0031651444733142853,-0.0013256990350782871,-0.0034700173418968916,0.004595627076923847,-0.00031136409961618483,0.0025404056068509817,0.003957882523536682,-0.0021542569156736135,-0.0030826253350824118,0.0001664283190621063,-0.006098630838096142,-0.005298410076647997,-0.004726205486804247,-0.004237450193613768,-0.000434703630162403,-0.002674328861758113,0.00034619076177477837,-0.0007231752388179302,0.0011291953269392252,-0.0052445679903030396,-6.430550274671987e-05,-0.0013862272026017308,-0.003087118733674288,0.0018190727569162846,-0.001117013511247933,-0.004792200867086649,-0.005017892457544804,0.003014213405549526,-0.0015628704568371177,0.0006242716917768121,0.00019422931654844433,-0.0017504177521914244,0.0018443487351760268,-0.0024148731026798487,-0.004845666233450174,-0.0011031914036720991,0.0004900037893094122
する,-0.003417655359953642,0.005237151402980089,0.005548928398638964,0.004780291114002466,-0.003525061998516321,-0.0002569567004684359,0.0015351093607023358,-0.00040856568375602365,0.004989101551473141,0.004092285875231028,0.0029332307167351246,-0.0010640345280990005,0.0036213018465787172,0.002549863653257489,0.0015252794837579131,0.004594214726239443,-0.004009502474218607,0.003800679463893175,0.004879625514149666,0.002156341914087534,0.001519161043688655,-0.0004203783464618027,-0.0038755564019083977,0.0025910085532814264,0.003345922566950321,0.00013250111078377813,0.003684990108013153,-0.00501991156488657,-0.004781485069543123,-0.0017346178647130728,0.0024060660507529974,-0.00020641865557990968,-0.003248186782002449,-0.00494803162291646,0.0026046358980238438,-0.004294241312891245,-0.00018817299860529602,-0.0032821695785969496,-0.0045385886915028095,-0.0006280006491579115,0.003909831400960684,0.0023655977565795183,-0.0026274400297552347,-0.0021643375512212515,-0.002350500551983714,7.617809751536697e-05,-0.00027480541029945016,0.004341945983469486,0.003299173666164279,-0.00427874643355608,0.0013734821695834398,-0.003303926670923829,0.004794991575181484,-0.0019563590176403522,6.0381680668797344e-05,0.0028529330156743526,0.003380227368324995,-0.00025830071535892785,0.000856021186336875,0.0043833088129758835,-0.004292214754968882,-0.0003496748104225844,0.003857446601614356,-0.005462417844682932,-0.0052705672569572926,-0.0006263779359869659,0.005585412494838238,-0.004092280752956867,0.00200920132920146,0.0044108289293944836,0.0003444158937782049,-0.0024139329325407743,0.0005154656246304512,-0.0048980326391756535,-0.003231258597224951,0.00010757994459709153,-0.0003368001780472696,0.0013566960114985704,-0.0025098284240812063,-0.0007875077426433563,0.002677110256627202,-0.0005402748356573284,-0.0011810208670794964,-0.0012480039149522781,0.004047546535730362,-0.003468315815553069,0.004193571396172047,0.0016445255605503917,0.004306949209421873,-0.0006350298644974828,0.003803269239142537,-0.0020225034095346928,0.004508475307375193,-0.0006085497443564236,0.0034357206895947456,-0.00422471622005105,-0.002921557053923607,0.0036276013124734163,0.0032516648061573505,-0.0011085880687460303
年,-0.0033711623400449753,0.0024341668467968702,-0.0019848754163831472,-0.0005764114903286099,0.002339951926842332,0.003971152473241091,-0.0022306032478809357,-0.0010268815094605088,0.00043009480577893555,0.0035673428792506456,0.00021275514154694974,-0.0019302397267892957,-0.003109371056780219,0.002739483956247568,0.0031229383312165737,-0.0017753036227077246,0.001249568653292954,0.001945067080669105,-0.0031369663774967194,-0.0023583632428199053,-0.0009083069744519889,-0.0017150265630334616,-0.0038697158452123404,-0.0038501364178955555,0.0043603163212537766,0.003267577849328518,-0.00017193847452290356,0.0008533851942047477,-0.0019643036648631096,-0.00211292109452188,0.0021347315050661564,-0.0034386226907372475,-0.005162439309060574,0.0027009800542145967,-0.00180520536378026,-0.0036179069429636,0.00015030849317554384,-0.0034084338694810867,-0.002830205950886011,-0.0013058241456747055,-0.0032968351151794195,-0.0015729424776509404,-0.002302605425938964,0.004471748135983944,-0.00554242916405201,0.0021590813994407654,-0.0008107615285553038,9.61539990385063e-05,0.0003179075720254332,6.659046630375087e-05,0.002009731950238347,0.0026588845066726208,-0.004172035958617926,-0.0013219265965744853,-0.004398577380925417,0.003672561841085553,-0.002302750013768673,-3.8496003980981186e-05,0.0003840119461528957,0.0018777884542942047,0.0034887781366705894,0.001630463870242238,0.001034801360219717,-0.0018175244331359863,0.00269878888502717,0.0024633989669382572,-0.0014286082005128264,-5.1641411118907854e-05,-0.0011739847250282764,-0.0006064617773517966,-0.0023006536066532135,0.0029113758355379105,-0.00071933981962502,-0.004319833591580391,0.0027051682118326426,-0.0025428226217627525,-0.005087587051093578,0.0003776895464397967,-0.0020022576209157705,0.0013092056615278125,-1.031760621117428e-05,-0.0050377328880131245,-0.0012420520652085543,0.004815995693206787,0.004247077740728855,0.004320408683270216,0.002608327427878976,-0.0034611974842846394,-0.0037957585882395506,0.003509927773848176,-0.000619312806520611,0.0017312936251983047,-0.0038237047847360373,0.0026435861364006996,-0.0038243820890784264,0.001942474627867341,-0.0024635649751871824,0.0011167218908667564,-0.00039148435462266207,-0.003871096530929208
高騰,0.004263106267899275,-0.0009570543770678341,0.003382214577868581,0.0057061947882175446,0.0016857758164405823,-0.0016861084150150418,0.001773104420863092,0.0015227735275402665,0.0003333795757498592,0.00599487591534853,-0.0035799953620880842,-0.006441408768296242,0.0009408842888660729,-0.0033407837618142366,-0.0007328095962293446,0.0013704706216230989,0.005315490532666445,0.002917584963142872,-0.002210888545960188,-0.0035507234279066324,0.0038551248144358397,-0.0031094311270862818,-0.005390667822211981,0.0013534306781366467,0.00038677756674587727,-0.004522716626524925,-0.0008847949211485684,0.00020580105774570256,-0.004658641759306192,-0.00549277663230896,0.0044740648008883,-0.0027634338475763798,-0.0014569679042324424,-0.00421313289552927,-0.006948641035705805,-0.0002533439255785197,0.004469508770853281,-0.003324512392282486,0.0004888747353106737,-0.005179767031222582,-0.0008227000362239778,-0.0012915527913719416,-0.0031832479871809483,0.0029834078159183264,-0.00482533872127533,0.0072939833626151085,-0.0003430655924603343,-0.003166663460433483,0.002029392635449767,-0.002495734952390194,-0.0042150262743234634,0.0014006663113832474,-0.0020712707191705704,-0.0058412677608430386,-0.004321345128118992,0.0012415871024131775,-0.002163044875487685,-0.002215433167293668,0.00479844817891717,0.002703908598050475,0.005049706436693668,-0.0002647616493050009,0.005509770009666681,-0.005734418518841267,0.002286285161972046,0.0049287923611700535,0.005189892835915089,-0.0041145640425384045,-0.001133100944571197,0.0033335015177726746,-0.00823116209357977,-0.0026885238476097584,0.0015282693784683943,-0.0022967986296862364,-0.0028627391438931227,0.001000647316686809,0.0009205114329233766,0.003358744317665696,-0.0061197783797979355,0.0006942598265595734,-0.006485031917691231,0.0011579758720472455,-0.001588800922036171,0.00023171366774477065,-0.0016098568448796868,0.00508310878649354,0.0014860735973343253,-0.0040685259737074375,-0.002561073051765561,-0.0031163152307271957,-0.0018539396114647388,0.0020869970321655273,0.003467940492555499,-0.003909942228347063,-0.0030429025646299124,0.001467739581130445,-0.001086943200789392,-0.006684077437967062,0.0012235562317073345,0.0018050555372610688
時,0.0018256095936521888,0.003725788090378046,0.005364199634641409,0.004106818698346615,-0.004815143533051014,-0.004534010775387287,-0.004671729635447264,-0.0025915890000760555,0.0036671042907983065,0.00592099828645587,0.002400836208835244,0.00036765701952390373,0.0018951090751215816,0.003641868941485882,0.0032214378006756306,-0.002403304446488619,0.002590430900454521,0.0008255674038082361,0.0006713995826430619,0.0007345316698774695,0.004132586997002363,-0.004185078199952841,-0.002397959353402257,-0.0026591771747916937,-0.003737005405128002,0.0012317290529608727,-0.00463585089892149,0.0025104302912950516,-0.0038729540538042784,0.001340053859166801,0.002208039863035083,0.0014300510520115495,0.0007495351019315422,-0.0035827846731990576,-0.005749301519244909,-0.0007523848325945437,-0.0011540778214111924,-0.004516891203820705,-0.004941076040267944,-0.0015162572963163257,0.002121025463566184,-0.006035595200955868,0.0037017541471868753,0.003103335853666067,-0.001749819261021912,0.004817085340619087,-0.002134841401129961,0.003239390207454562,-0.0029197917319834232,-0.0006805366720072925,0.0004464833182282746,-0.0007027978426776826,-0.0001773106341715902,-0.0016862148186191916,0.0005238953162916005,0.00020922532712575048,0.004802444018423557,0.0015240275533869863,0.0016235974617302418,0.0022084477823227644,0.004927735310047865,0.0023163589648902416,0.0010798234725371003,-0.003851659130305052,-0.00037083070492371917,0.003949248231947422,0.004744799342006445,-0.0015150199178606272,-0.0004209134494885802,0.00031011199462227523,-0.005550137721002102,0.00234219036065042,-0.004124728962779045,0.0030025732703506947,-0.0002947840257547796,-0.00420282082632184,0.0007969712023623288,-0.0026615848764777184,-0.00222503999248147,-0.004723064601421356,-0.0034173817839473486,-0.0002566509647294879,-0.00533109437674284,-0.002081818412989378,-0.004273389000445604,0.003366501070559025,0.0004508043348323554,0.0014865052653476596,0.0021686493419110775,0.00036152327083982527,-0.0021588371600955725,0.0018319564405828714,-0.0025677888188511133,0.0007404005737043917,-0.0033018607646226883,-0.0025211197789758444,0.00397062674164772,-0.0021870217751711607,-0.003653531428426504,0.0012513058027252555
成約,0.0036400409881025553,0.004050372168421745,0.00011896595970029011,0.002566317096352577,-0.001154168858192861,0.00023647589841857553,0.004690683912485838,0.00029503507539629936,0.0034793089143931866,-0.0016803438775241375,0.0031038871966302395,-0.0007154514896683395,-9.639385098125786e-06,0.0013193490449339151,0.003583709243685007,0.004236352164298296,-0.0013470783596858382,0.0008080230327323079,0.001029263250529766,-0.002579422201961279,0.002378486329689622,-0.0021715809125453234,0.0028257237281650305,-0.002636329736560583,-0.0010740470606833696,0.0036973762325942516,0.004115489777177572,0.003888697363436222,0.0038573481142520905,0.001469767652451992,0.002372069749981165,-0.004981687292456627,-0.00036562641616910696,0.0011791205033659935,-0.003567816922441125,-0.0012380224652588367,0.0023639893624931574,-0.004855170380324125,0.000419341929955408,-0.0038486847188323736,0.00378623278811574,-7.977269706316292e-05,0.0023634890094399452,-0.0016998357605189085,0.0035339684691280127,-0.003946748096495867,0.0044643087312579155,-0.0013607281725853682,0.004628269467502832,-0.003840200137346983,-0.0010291546350345016,0.0031204181723296642,-0.002825896954163909,-0.0010078144259750843,0.0007769352523609996,-0.003075071843340993,0.0021926299668848515,-0.004688347689807415,0.0034517182502895594,-0.0031902017071843147,-0.0033699488267302513,0.0020751329138875008,-0.0030995886772871017,-0.002621100749820471,-0.0034616899210959673,0.004179848358035088,-0.0038628368638455868,0.0021395846270024776,0.002051236340776086,0.0007876079180277884,-0.003512563416734338,-0.003916394896805286,0.0029106815345585346,0.00071229093009606,0.0016126101836562157,0.0001720720320008695,-0.0011376154143363237,-0.003163261106237769,-0.0006632900913245976,-0.0027349877636879683,0.0009362886776216328,0.004639358259737492,-0.002630484290421009,0.0019308914197608829,-0.00041329330997541547,0.0006447439664043486,0.0013025342486798763,-0.003528925823047757,-0.0021011775825172663,0.004109144676476717,-0.0002225069038104266,-0.0028681897092610598,-0.004188671708106995,-0.0015140457544475794,-0.003965276759117842,0.00014293723506852984,0.0023988622706383467,0.0007637770613655448,-0.0019719882402569056,-0.0001818586461013183
中期,0.005235852207988501,0.00445623230189085,-0.0010243583237752318,0.0022701856214553118,-0.0034970566630363464,-0.0008738486794754863,0.0025839207228273153,0.0015377203235402703,0.002600634703412652,0.0025451849214732647,-6.373837095452473e-05,-0.00048608609358780086,-0.003435798455029726,-0.003563090693205595,-0.0023008219432085752,-3.927147918147966e-05,-0.003470487892627716,0.0037364927120506763,0.0012033525854349136,0.003372973296791315,-0.0003870107466354966,-0.00437587033957243,0.001298126415349543,-0.0020683438051491976,0.0043064565397799015,-0.0031322950962930918,-0.0005650832317769527,0.0033022556453943253,-0.001739859115332365,-0.004921837709844112,0.004748547915369272,-0.004862992092967033,-0.004185067024081945,-0.0010223237331956625,-0.002019183710217476,0.004471184220165014,0.0034082308411598206,-0.0008784186211414635,-0.00490010529756546,0.00222278805449605,0.0012717926874756813,-0.0030069502536207438,0.003273680107668042,0.004613310564309359,0.002487694378942251,0.0030443028081208467,-0.00427384814247489,0.0023474518675357103,-0.0010327317286282778,-0.0034520411863923073,-0.0048015788197517395,-0.004960434976965189,0.002345130778849125,0.00038469431456178427,0.0027240205090492964,0.003069202182814479,0.005345925223082304,-0.0028973110020160675,0.0037174837198108435,0.0002704193175304681,0.0043001603335142136,0.0027627241797745228,0.003718352410942316,0.0039506093598902225,0.0021444505546242,0.000805459450930357,0.0008513273787684739,0.0029911308083683252,-0.0022146999835968018,0.000556786369998008,-0.0028951247222721577,-0.004055797588080168,0.004347540438175201,0.0010811162646859884,-0.0009853012161329389,0.0014630721416324377,0.004292799159884453,-0.004126707091927528,-0.0032879114151000977,0.00419270433485508,0.004149181768298149,0.0038196726236492395,-0.005115657579153776,-0.003913688939064741,0.004050515126436949,0.0030700324568897486,-0.0025336940307170153,-0.0017339045880362391,-0.0052545079961419106,-0.0017761768540367484,-0.0026753696147352457,0.0011165845207870007,-0.004311458207666874,0.0027854160871356726,-0.001875421148724854,-0.0016153919277712703,-2.239080822619144e-05,0.002615126548334956,-0.0046554752625525,3.240612932131626e-05
契約,-0.0017471809405833483,0.003995458595454693,0.0022683690767735243,-0.0024673750158399343,0.001812383416108787,-0.0019236303633078933,-0.0007777436403557658,-0.00205729971639812,-0.0034473449923098087,-0.003155023092404008,0.0007553949253633618,-0.00014164892490953207,-0.0031374720856547356,-0.000821518013253808,-0.00011780815111706033,-0.002231987426057458,-0.0021494978573173285,0.001453115837648511,0.0022636500652879477,0.004096387419849634,-0.0034349847119301558,0.004784884862601757,-0.003535307478159666,-0.0015996722504496574,-0.0034683733247220516,0.0025569649878889322,0.0016962080262601376,-0.000718112860340625,0.003307039849460125,-0.0012440430000424385,0.00029376582824625075,-0.0025314083322882652,0.0010506307007744908,0.0016703341389074922,-0.004578806459903717,-0.00458033662289381,0.003965414594858885,-0.0058268955908715725,0.002904352033510804,-0.0008113185176625848,0.003998449072241783,-8.812169835437089e-05,-0.0011831014417111874,0.0022980980575084686,0.001721107866615057,0.0010689583141356707,0.0005219736485742033,-0.0017636226257309318,0.002121070632711053,-0.0031041025649756193,-0.003827045438811183,-0.0002767465775832534,-0.0010513599263504148,0.0015347768785431981,0.003090647282078862,0.00021137928706593812,0.002448523882776499,0.0025184766855090857,-0.00023069401504471898,0.002413756214082241,-6.053117249393836e-05,0.0022776962723582983,-0.003172955010086298,-6.99576994520612e-05,-0.0020312306005507708,-0.004191956017166376,0.0014074831269681454,-0.00421946682035923,0.00432622293010354,-0.0029349655378609896,0.0011435734340921044,0.0027298307977616787,-0.001461292034946382,-0.003077632514759898,-0.004515716806054115,-0.0054285344667732716,-0.0008825460099615157,0.0032750112004578114,-0.002023407956585288,-0.00021407286112662405,-0.005412553437054157,-0.0004903223598375916,-0.0037597205955535173,0.0001664601149968803,0.003980476874858141,0.0026210343930870295,-0.0013161328388378024,0.0006144874496385455,-0.00255594146437943,-0.0012622404610738158,-0.0024085259065032005,0.0030664762016385794,-0.0048432257026433945,-0.0031001511961221695,-0.001029710634611547,0.0007862193160690367,0.0031495392322540283,-0.0047937361523509026,0.002797065768390894,0.00466447789222002
満了,0.0053735896944999695,0.004127326887100935,0.004939451813697815,0.0019279674161225557,0.0025702749844640493,0.002765697194263339,-0.0017118743853643537,-0.004326387774199247,-0.0028247912414371967,-0.0012991131516173482,-0.00022385174816008657,0.004334559198468924,0.0026321664918214083,0.0042411102913320065,-0.001400505192577839,-0.0001590641913935542,0.0012103348271921277,0.004002301022410393,0.004992261063307524,-0.0011458080261945724,0.0027018184773623943,0.0026802876964211464,0.0016490009147673845,-0.000959729659371078,-0.0012191332643851638,-0.003824475221335888,0.0016012972919270396,0.0015246589900925756,0.0023906121496111155,-0.0004406253283377737,-0.001882761251181364,0.000262936286162585,0.00019873518613167107,-0.002474724780768156,-0.005408930126577616,-0.0045331623405218124,-0.0030056466348469257,-0.005453932099044323,-8.191756205633283e-05,-0.003455688711255789,2.86438807961531e-05,-0.0032102179247885942,-0.0047725192271173,0.00407048873603344,0.0029876541811972857,-0.0035920499358326197,0.0007329661166295409,-0.000470061379019171,-0.005198907572776079,-0.0026373995933681726,0.00172010762616992,-0.0008659849991090596,0.001337102148681879,-0.0004479640338104218,-0.004865397233515978,-0.0035724749322980642,0.0013034892035648227,0.003611944615840912,-0.0023494453635066748,-0.003879930591210723,-0.0027363572735339403,0.003685006173327565,0.004370109643787146,-0.0015991950640454888,0.0004178053350187838,0.0016380914021283388,0.0020258550066500902,0.00019778251589741558,-0.00037488871021196246,-0.0021691475994884968,-0.004576841834932566,-0.0021462191361933947,-0.0014322310453280807,3.588672916521318e-05,-0.004918948747217655,0.003501154948025942,0.0003224190731998533,0.0032505320850759745,0.0008491591433994472,-0.0051055122166872025,0.0014982059365138412,-0.0005204787012189627,0.0016089745331555605,0.002866811351850629,0.0031161049846559763,0.0029255892150104046,-0.003938587382435799,0.0012868799967691302,0.0009887238265946507,0.001354952808469534,0.002232599537819624,0.004826126620173454,0.003442264162003994,0.003692873753607273,-0.004039605613797903,0.0046766274608671665,-0.003182501532137394,-0.0018351975595578551,0.0021831695921719074,0.001465545385144651
それ,-0.0024213329888880253,0.006229064892977476,-0.0018482363084331155,0.0019473035354167223,-0.002713919384405017,0.004604825749993324,0.0031236486975103617,-0.0019368411740288138,0.0009599712211638689,0.004882417619228363,0.003684054361656308,-0.003671183716505766,0.0025009161327034235,-0.0006439647404477,0.0016631674952805042,-0.005200482439249754,0.000538985594175756,0.002324973465874791,0.0033236071467399597,-0.001680326065979898,0.003943290561437607,0.0021367017179727554,0.0010573351755738258,-0.0035047116689383984,-0.0031315882224589586,-0.005632289685308933,-0.0044219158589839935,0.000816435320302844,-0.0028058115858584642,-0.0017747973324730992,0.003561131889000535,0.002759933937340975,-0.00330737023614347,-0.0008721770718693733,-0.0028014248237013817,-0.0037670833989977837,-0.003970266319811344,-0.003041724441573024,0.0018174033612012863,-0.003321019932627678,0.0025926895905286074,0.0020308142993599176,-0.0006563921342603862,0.0020588315092027187,-0.0010495670139789581,0.004366287495940924,-0.0035534179769456387,0.0042703538201749325,-0.00273492350243032,-0.004932345822453499,-0.00500064343214035,0.00011183696915395558,-0.0002916836820077151,-0.005261499434709549,-0.003955536987632513,-0.000156822832650505,0.005890068132430315,0.001523836050182581,0.006309624295681715,0.003737770253792405,0.00492732971906662,0.004263757262378931,0.0052255913615226746,8.677116966282483e-06,-0.0031891714315861464,-0.004714850336313248,0.0037865194026380777,0.0025454785209149122,0.005222952459007502,0.0002902929554693401,0.0006626052781939507,-0.0019250849727541208,0.0010076008038595319,0.0010031895944848657,-0.0031699303071945906,-0.003709889017045498,-0.0028265162836760283,0.0011462699621915817,-0.0012647570110857487,0.00191553367767483,0.003345370991155505,-0.004788458347320557,-0.0006988018285483122,-0.00026416537002660334,0.0009000463178381324,-0.002369932597503066,-0.005055675283074379,-3.2544605346629396e-05,-0.0026877925265580416,0.00227773142978549,-0.0042457375675439835,0.005118656437844038,-0.0001482146471971646,-0.003698240499943495,0.0036239756736904383,0.004837037995457649,0.0049359179101884365,-0.004937450401484966,0.002939987927675247,-0.0027266277465969324
利益,0.0052520097233355045,0.0030719260685145855,0.0024479320272803307,0.003676119726151228,-0.0016379589214920998,0.0018994106212630868,-0.004530344624072313,0.0003484417393337935,-0.0036160056479275227,0.0018098499858751893,0.004363263491541147,-0.004785532597452402,0.0036776880733668804,5.032348053646274e-05,0.003971937112510204,-0.0010543769458308816,-0.002178965136408806,-0.003402563277631998,-0.00415413361042738,-0.005420250818133354,-0.002302446635439992,0.004817096050828695,-0.0012511428212746978,-0.0008599748834967613,-0.0026087502483278513,-0.005119821988046169,-0.005919233430176973,0.0004220022528897971,-0.0034092480782419443,-0.004820617381483316,0.002319407882168889,0.0002457392984069884,0.003333057975396514,-0.0038415230810642242,-0.0037487817462533712,0.0012853018706664443,-0.0004962871316820383,-0.002550694392994046,-0.0030857911333441734,0.0012345357099547982,0.00020175828831270337,-0.0014745519729331136,-0.0017217983258888125,0.0010351483942940831,0.002153894165530801,0.005052437074482441,-0.0019475450972095132,-0.004772370681166649,0.000744508346542716,0.0027378136292099953,-0.004646054934710264,-0.003092169063165784,0.004631656687706709,0.0041804867796599865,-0.006077847443521023,0.0038995160721242428,-0.0020765922963619232,-0.0028470526449382305,0.00132176058832556,0.004011428449302912,-0.0022568621207028627,0.0011296920711174607,-0.0033147581852972507,-0.004309602547436953,-0.0053201098926365376,-0.0014117886312305927,0.0017174954991787672,0.004917134530842304,-0.0021326786372810602,-0.002880186541005969,-0.006223554257303476,0.0011403575772419572,-0.001966154668480158,0.0015508633805438876,0.003105063224211335,-0.0038007369730621576,-0.002800398739054799,-0.0015232362784445286,0.00022281637939158827,-0.0033085772302001715,-0.00439365953207016,-0.004558205138891935,-0.0032344867940992117,0.00235005933791399,-0.0020832689478993416,-0.0008492646738886833,0.0018362314440310001,0.0015405925223603845,0.0036640458274632692,0.002881078515201807,0.004517524503171444,-0.0001869081170298159,-0.002811355981975794,-0.0008521493873558939,-0.000710642896592617,0.003787419991567731,0.0029289021622389555,-0.005395310930907726,-0.004278020467609167,-0.000844575755763799
減少,-0.003054598346352577,0.005106151569634676,-0.002147397492080927,0.0048040482215583324,-0.0029226101469248533,0.002825781935825944,-0.0031865083146840334,-0.002774158027023077,-0.0007421377813443542,0.005821550264954567,-0.0021837446838617325,0.0002086325694108382,0.004540415946394205,-0.001775064505636692,-0.003755635814741254,-0.0016097172629088163,0.0041315290145576,-0.0033462904393672943,-0.00025353883393108845,0.0002396029740339145,-0.003384907729923725,-0.0032870483119040728,-0.003160397056490183,-0.0012396583333611488,-0.0010455166921019554,-0.004746148828417063,-0.005984742194414139,0.0008898602100089192,-0.004273742903023958,-0.0009845340391620994,0.0020206368062645197,0.0004941602237522602,0.00011488714517327026,-0.0011780352797359228,-0.00683319428935647,0.0005323414225131273,-0.0038858018815517426,0.0028310557827353477,5.9269717894494534e-05,-0.005674718413501978,0.0013998713111504912,-0.0031306587625294924,-0.0002362684899708256,-0.0006810378399677575,-0.004364845808595419,0.0038431561551988125,-0.00362640549428761,0.002345878863707185,0.0005008492153137922,0.003303896402940154,-0.0009602407226338983,0.0042834035120904446,-0.0005992894875817001,0.0006866698386147618,-0.0030198341701179743,-0.004666804801672697,0.00019742065342143178,-0.0012167147360742092,-0.0031907744705677032,0.002044112654402852,0.005208828020840883,-0.0022260418627411127,0.004323400557041168,0.003421950386837125,-0.005114014260470867,-0.004273359198123217,-0.003263433463871479,-0.0018781496910378337,-0.003170022275298834,0.0018273034365847707,-0.005401140544563532,0.00306699494831264,-0.000620707985945046,-0.005748703610152006,-0.0055142478086054325,-0.001464839675463736,-0.002602416556328535,0.00029153679497539997,0.002886437112465501,0.0012840793933719397,0.0036099471617490053,0.0025935776066035032,0.003135635983198881,0.004067869391292334,-0.0008275118307210505,0.005200476385653019,-0.00393094215542078,-0.0005192786338739097,0.0017773068975657225,-0.0023566619493067265,0.0043383692391216755,0.0032070805318653584,0.0030446259770542383,-0.0013623234117403626,-0.0029260802548378706,-0.0024691452272236347,-0.003222301136702299,-0.0006853783270344138,-0.0022672887425869703,0.003412373596802354
イン,-0.0035596538800746202,-0.0043084947392344475,0.0007776455604471266,-0.0038669409696012735,-0.002484674798324704,0.0016046573873609304,-0.0007150229066610336,0.00043686883873306215,-0.0025003431364893913,0.005153315141797066,0.0015112397959455848,0.0006373479263857007,0.0023538218811154366,-0.003873986192047596,-0.0020295537542551756,0.002463643904775381,0.0019340838771313429,0.004589669872075319,0.0013795116683468223,-0.0035711119417101145,-0.0015574005665257573,-0.0018048444762825966,-0.004854382947087288,0.0015308053698390722,-0.00017788629338610917,-0.0029205449391156435,-0.004549390636384487,0.0002904698485508561,0.00012262257223483175,-0.003180153202265501,0.0013671453343704343,-1.2765540304826573e-05,0.001079402631148696,-0.004375140182673931,-0.0025627983268350363,-0.0024828624445945024,-0.0017998093971982598,0.0033041490241885185,-0.0025422703474760056,0.0011453405022621155,0.003682930488139391,-0.0020977146923542023,-0.0024755941703915596,-0.0007142534013837576,-0.00020149484043940902,0.0001590907049831003,0.002427399158477783,-0.003293388057500124,-0.0037098329048603773,-8.834266191115603e-05,0.0011995331151410937,0.00028220127569511533,0.0018142223125323653,-0.001197324600070715,0.004393760114908218,-0.004141105804592371,-0.0021514766849577427,-0.0011115719098597765,0.002126203151419759,-0.0006630793213844299,0.003580034477636218,-0.0035499923396855593,0.0028198452200740576,-0.0025116654578596354,-0.0013247275492176414,-0.0012129215756431222,0.003116272622719407,0.003400967223569751,-0.0021875204984098673,0.0036763413809239864,-0.002181064337491989,-0.003930011298507452,-0.001404461800120771,-0.003084819531068206,0.0026905175764113665,-0.0016259819967672229,0.0030224958900362253,-0.0009109117090702057,-0.004483493510633707,0.004674549214541912,-0.003873170120641589,0.0046854643151164055,-0.0012762803817167878,0.0032336474396288395,0.003546160878613591,-0.004269938450306654,8.086558227660134e-05,0.002839745720848441,0.004613880533725023,-0.0007114750915206969,-0.0011078364914283156,-0.002014107769355178,-0.00482892245054245,0.00044873749720864,-0.0035222601145505905,0.0018855318194255233,0.0047182380221784115,0.002317356411367655,-0.004080301616340876,0.0020880436059087515
他社,-0.004465227946639061,0.004103390965610743,-0.0005353345186449587,0.0053878119215369225,-0.000417320552514866,-0.003956314641982317,-0.0037012796383351088,0.0009717015200294554,0.004274551756680012,-0.0012317756190896034,-0.003979984205216169,0.0018079616129398346,-0.003516776254400611,0.0006497692666016519,0.0006936813006177545,0.004179015755653381,0.004543038085103035,-0.0008829013677313924,0.002160152420401573,0.0007777985883876681,0.0024470968637615442,0.004644833039492369,0.002179452683776617,0.00010843353811651468,0.0004378834564704448,-0.003802005434408784,0.0011053041089326143,-0.0011271403636783361,-0.003368163015693426,0.001344529096968472,0.0039055112283676863,-0.003934808541089296,-0.000931881251744926,0.001660774927586317,-0.004057356156408787,-0.0009564051288180053,-0.002616444369778037,0.0032847076654434204,-0.0003493485855869949,0.0008917590603232384,0.003560225013643503,-0.0036893393844366074,-0.004308789502829313,-0.00021430003107525408,-0.0036995403934270144,0.0006938600563444197,0.0022858991287648678,0.00424641277641058,0.0021612336859107018,0.004192704800516367,-0.00022093241568654776,-0.002124970545992255,0.0024384481366723776,0.00028385562472976744,0.002551974728703499,-0.004614115692675114,0.0008914581849239767,-0.0034813955426216125,0.005352097563445568,-0.0014111464843153954,-0.0004978536162525415,0.0027702003717422485,0.002004304900765419,-0.0038463412784039974,0.00018827196618076414,-0.001829203451052308,-0.0020941910333931446,0.0015897187404334545,-0.00032484077382832766,0.0028136437758803368,-0.002785209333524108,-0.0024257260374724865,0.0024585453793406487,0.0023629222996532917,0.0007520712679252028,0.0006121000042185187,-0.0038302592001855373,0.0009758396772667766,-0.003043524222448468,-0.0016451239353045821,0.0012413982767611742,0.00029177506803534925,0.0036687087267637253,-0.0037482583429664373,-0.0034920747857540846,0.00033575683482922614,0.0026948184240609407,5.375768523663282e-06,0.00457663182169199,-0.0011633913964033127,0.0012609473196789622,0.0028592413291335106,-0.0005114361410960555,0.004141562152653933,0.004406814929097891,0.004163211211562157,5.001515819458291e-05,-0.0007931699510663748,-0.004201478790491819,0.004004557617008686
比較,0.0032219516579061747,0.0006762818666175008,-0.0015561466570943594,0.0031705894507467747,-0.0013887336244806647,-0.0009370066109113395,-0.0044442517682909966,-0.0009257206111215055,0.0017979959957301617,-0.0005109697231091559,0.0017101208213716745,-0.004665755201131105,-0.0048577627167105675,0.0012499380391091108,0.006235106382519007,-0.004068918991833925,0.0022064833901822567,-0.005217649508267641,0.0010352893732488155,0.0005174199468456209,0.003678326727822423,-0.0013731775106862187,-9.865297215583269e-06,-0.0038173904176801443,-0.0018992179539054632,-0.0031804151367396116,-0.005421569105237722,-0.003370128571987152,-0.0009390757186338305,-0.0032356842420995235,-0.0019989272113889456,-0.000866539659909904,-0.005212957039475441,0.0008100377162918448,0.0015666330000385642,0.00015800335677340627,0.0038904095999896526,-0.0038425561506301165,-0.0007956258486956358,-0.0032502799294888973,-0.00331721268594265,-0.005641641560941935,-0.005310976877808571,0.002444769022986293,-0.0030133577529340982,0.005785837769508362,-0.0025992197915911674,0.0034855089616030455,0.0005329480627551675,0.0036910464987158775,0.00445611821487546,-0.0038163999561220407,-0.0007019807235337794,-0.003453637007623911,-0.004994381684809923,0.0031920326873660088,0.006640804931521416,-0.005478963255882263,-0.00046982249477878213,0.0005681479233317077,0.000831807847134769,-0.000494376930873841,-0.0029459651559591293,-0.005330871324986219,-0.0027959230355918407,-0.0014824274694547057,0.0038370471447706223,-0.0005466968868859112,0.005154309794306755,0.00503976084291935,0.0011559510603547096,-0.0030977630522102118,0.005083676427602768,-0.00458572618663311,0.0010071853175759315,-0.0016308063641190529,-0.0005566856707446277,0.0036649475805461407,-0.004652520641684532,0.0038188807666301727,0.0031836035195738077,-0.0015147541416808963,-0.000951704743783921,-7.037713658064604e-06,-0.0022540984209626913,0.0016946636606007814,0.0009445277974009514,-0.0050457678735256195,0.0008207801729440689,-0.00046466136700473726,-0.0021478161215782166,0.003168771043419838,-0.0032200696878135204,-0.0025847365614026785,0.0011659915326163173,-0.002435125643387437,-0.004986920859664679,-0.006123772822320461,-0.00543811172246933,0.0061565181240439415
大きい,5.658058580593206e-05,-0.0029230015352368355,0.007031078916043043,0.0025079436600208282,0.000554524187464267,0.005063265096396208,-0.00211537117138505,0.003945119678974152,-0.00434042839333415,0.006181149743497372,-0.0035307251382619143,0.00226597604341805,-0.004306405782699585,0.0003139996260870248,0.00533360056579113,-0.0043265302665531635,0.0015466631157323718,-0.001555460738018155,-0.0033926735632121563,-0.0018475264078006148,3.7179779610596597e-07,-0.002061141189187765,-0.0005994620150886476,-0.0038024785462766886,-0.002796664834022522,-0.0005683274939656258,0.0028792941011488438,-0.0025535812601447105,-0.002043467713519931,0.004103630781173706,0.0013077148469164968,0.0002629257505759597,-0.001685185357928276,-0.002918829908594489,-0.005541213788092136,0.0008133939118124545,0.0014601401053369045,0.0009306282736361027,0.00046047821524553,-2.413790934951976e-05,-0.004063306841999292,-0.0035994022618979216,0.003351851599290967,0.004975138697773218,-0.005165390204638243,0.004711756482720375,-0.0015925896586850286,-0.004242799244821072,-0.003891971195116639,0.0034259334206581116,0.0045541017316281796,0.004732584115117788,0.0014419028302654624,-0.003908820915967226,0.0022791940718889236,-0.004168947227299213,0.0053942264057695866,-0.003541641402989626,0.004194953478872776,0.004686967935413122,-0.0009020117577165365,0.0035134819336235523,0.002769723068922758,0.0024550720117986202,-0.00165569968521595,-0.000897000718396157,0.005873837508261204,-0.002489834325388074,0.0017345476662740111,-0.0032187129836529493,-0.002459773328155279,-0.0015286714769899845,0.004360744263976812,0.00013659488467965275,-0.004395544994622469,-7.340929005295038e-05,0.0010211968328803778,0.00013236404629424214,-0.0024914892856031656,0.00041599254473112524,-0.002712976885959506,0.0016748553607612848,0.0014381317887455225,-0.0039499299600720406,0.003916632849723101,0.0001615782966837287,0.003375719301402569,-0.004440336488187313,-0.0037230132147669792,-0.0039412532933056355,-0.004624003544449806,0.0023487978614866734,0.0013414187123999,0.0018161404877901077,-0.00221245433203876,0.0008360042120330036,-0.004416293930262327,-0.00041054849862121046,0.003938534762710333,0.0054258848540484905
なる,-0.0023256235290318727,0.00435190973803401,0.004782607778906822,-0.0032411564607173204,-0.005031174514442682,0.0018965520430356264,-0.004173594061285257,8.052446355577558e-05,0.001647079479880631,0.00027686814428307116,0.004398743622004986,-0.004200682509690523,0.002524313051253557,0.000905991590116173,-0.0005123417940922081,-0.00023284918279387057,-0.002709707710891962,0.0007467840914614499,0.003624221310019493,-0.0008632887620478868,0.002930472604930401,-0.0006986104999668896,0.004792509134858847,-0.000924720719922334,0.0022980880457907915,-0.004773459862917662,-0.0020127790048718452,0.003639312693849206,-0.005040473770350218,0.0035800309851765633,-0.0026646375190466642,0.0043029701337218285,0.004189995117485523,0.0017538659740239382,-0.0018418887630105019,0.0037052498664706945,0.0012599524343386292,0.0006006309995427728,-0.003386730095371604,-0.004082069266587496,-0.0031290436163544655,0.003093923907727003,-0.003254339564591646,-0.0021938623394817114,-0.004217627923935652,-0.00017935934010893106,-0.003917987458407879,0.003607712918892503,-0.0013219569809734821,-0.002830574754625559,-0.0031681847758591175,0.0019501213682815433,-0.0032946704886853695,-0.005063185002654791,-0.005252944305539131,-0.0017035080818459392,-0.0010977400233969092,0.0006144943763501942,-0.003202886087819934,0.004467067774385214,-0.0036628542002290487,0.00042859173845499754,0.0006357605452649295,-0.003910494968295097,-0.005674596875905991,-0.003769081784412265,0.002036225749179721,-0.00016115028120111674,-0.0015846046153455973,0.004087066277861595,-0.004080633632838726,-0.003723632311448455,-0.0019357529236003757,-0.002017407678067684,-0.0019647320732474327,0.0016877093585208058,-0.004463609308004379,-0.004976826719939709,-0.001973668346181512,-0.0020876950584352016,0.0033604009076952934,-0.0010179798118770123,-0.0023053516633808613,-0.0017980241682380438,0.0035273837856948376,0.0009101873729377985,-0.0030524416361004114,-0.002812162274494767,-0.0014445767737925053,0.003301578341051936,-0.0011148377088829875,-0.0025348872877657413,0.0021846964955329895,0.0038404781371355057,-0.0023959472309798002,-0.0011537682730704546,0.0019294542726129293,-0.00040106259984895587,-0.004066077526658773,-0.0033926907926797867
そう,0.00271046906709671,0.002019548090174794,0.0031429093796759844,-0.002661622129380703,-0.0005401814705692232,0.00014245229249354452,0.00281619094312191,0.0036495274398475885,-0.0035885050892829895,0.0034045004285871983,0.0004234114021528512,-0.0020741685293614864,0.0037591704167425632,-0.0029034395702183247,0.000272606237558648,0.0014044587733224034,-0.003218601457774639,-0.0007251882343553007,0.0007588281878270209,0.0001906521210912615,0.0032032104209065437,0.0053799147717654705,0.0023113281931728125,-0.0018239464843645692,-0.0031843637116253376,0.0005503527936525643,-0.0010375338606536388,0.0010682581923902035,-0.004614511039108038,0.00017787735851015896,-0.004190715029835701,-0.002503506373614073,-0.003981047309935093,0.0011916309595108032,-0.005937236826866865,-0.0025804198812693357,-0.003205304965376854,-0.00011843971151392907,-0.0028045284561812878,-0.00520209688693285,-4.715104296337813e-05,0.0016910630511119962,-0.0037829368375241756,0.0039731841534376144,-0.0014435520861297846,0.0005088399047963321,0.004326671827584505,0.0016328025376424193,0.0026886083651334047,-0.004278458654880524,0.00043832728988491,-0.004112641792744398,0.0011030262103304267,-0.0035018394701182842,-0.0008814840111881495,0.0009898628341034055,0.0050773280672729015,-0.004948822315782309,0.003541083773598075,0.00418805843219161,0.0021219151094555855,0.0011722857598215342,0.0032947780564427376,0.0015252530574798584,-0.003458995372056961,0.0005246203509159386,0.0015454126987606287,0.004189766943454742,0.0036511016078293324,0.004411616362631321,-0.0010822383919730783,-0.003445480251684785,-0.004851437173783779,-0.004114596173167229,-0.0028093180153518915,-0.0030565958004444838,-0.0008161905570887029,-0.004289146978408098,0.0036568257492035627,-0.005006223451346159,-0.0030054005328565836,0.002502892166376114,-0.003115561557933688,0.0009348792373202741,-0.0046018618158996105,0.004070242866873741,-0.0012722809333354235,-0.0009962889598682523,-0.005108301527798176,0.0021730544976890087,-0.002431609435006976,-0.003672592341899872,-0.0038442963268607855,-0.0021400758996605873,0.004358379635959864,-0.00037206977140158415,-0.0019365355838090181,-0.005563823040574789,0.001909227343276143,0.0051125576719641685
期,-0.001054194988682866,0.004462770652025938,0.004425908904522657,0.0019810704980045557,-0.001969895325601101,-0.001766268047504127,0.0005588087951764464,-0.0010200153337791562,0.001936817541718483,0.003625148441642523,-0.0028809630312025547,0.0019990771543234587,-0.0021060765720903873,0.0014605340547859669,-0.0012969436356797814,-0.0048110466450452805,0.005154724232852459,-0.0036092689260840416,-0.0009705474367365241,0.0034323958680033684,-0.0004843484202865511,0.0043069301173090935,0.002965775551274419,0.001875210669822991,0.005098417866975069,-0.004258797504007816,-0.0035248149652034044,0.0028732866048812866,0.0033724221866577864,0.0014927048468962312,0.0038891080766916275,-0.00421526376157999,0.0019218366360291839,-0.0005328973056748509,0.0004766090423800051,-0.0011162555310875177,-0.0006917187129147351,-0.004932856187224388,-0.00012311134196352214,0.0004471631837077439,-0.00020824176317546517,-0.004234866704791784,-0.0022078135516494513,0.003847884014248848,-0.0033027532044798136,0.002476597437635064,0.0013291025534272194,0.0030008461326360703,-0.003039030358195305,0.0038277897983789444,0.0045470898039639,-0.0032261619344353676,0.004585547372698784,-0.004710290115326643,0.001977442530915141,0.002959991106763482,-0.002856641774997115,-0.0037450387608259916,-0.001403887290507555,0.001330919680185616,0.00136623065918684,-0.0037490546237677336,-0.0032841162756085396,0.003635014407336712,-0.006405049003660679,0.002573800040408969,0.0024451795034110546,0.0027984147891402245,-0.001990034244954586,-0.0002743449585977942,-0.005349553190171719,-0.00474549550563097,0.0034489345271140337,-6.681647937512025e-05,0.0029106189031153917,-0.005619742441922426,-0.0033221514895558357,0.001286673010326922,-0.005590078420937061,-0.0023049216251820326,-0.005143435206264257,-0.004225834738463163,-0.002881907392293215,-0.0006639284547418356,0.0038851499557495117,-0.0004591241304297,0.002079273806884885,-0.002529310528188944,-0.002136210910975933,1.0005702279158868e-05,-0.004186573904007673,0.0007922623190097511,-0.0007688573095947504,-0.003627224825322628,-0.0024886021856218576,-0.003912403713911772,0.0032967873848974705,-0.006060748361051083,-0.0015734868356958032,-0.003107390832155943
格差,0.0016629768069833517,0.0014525956939905882,-0.000560083135496825,-0.0005271033733151853,-0.005619109608232975,-0.004497408866882324,-0.0049823555164039135,0.0018854121444746852,0.004885610193014145,0.00454811891540885,0.0037737281527370214,0.0009467366035096347,-0.0018203995423391461,0.0023391912691295147,-0.0033040493726730347,0.00034042377956211567,0.002723623299971223,-0.0009989417158067226,0.0038173089269548655,0.003732325043529272,-0.00255110627040267,-0.000732485787011683,-0.003298346186056733,-0.003987472970038652,0.0016060963971540332,-0.001135544036515057,0.00029467695276252925,-0.003788377856835723,0.00302519416436553,-0.000945572042837739,-0.0011847642017528415,0.0005818417994305491,-0.005930554121732712,-0.0022697490639984608,0.0007975258049555123,-0.0019395038252696395,0.002045214641839266,-0.004506422206759453,0.00307952961884439,-0.007067127153277397,-0.0034230202436447144,-0.005102850962430239,-0.006130630616098642,-0.0036722212098538876,-0.0063284607604146,0.0022768008057028055,0.0011831863084807992,-0.0011930873151868582,-0.005022615194320679,-0.0045200856402516365,0.002903064712882042,0.0048452154733240604,-0.001145531889051199,0.0007768406067043543,-0.0018102918984368443,-0.005657366011291742,0.0020715396385639906,3.063558688154444e-05,-0.000733103952370584,0.0019250808982178569,0.005575872026383877,0.002034109318628907,0.0014554873341694474,-0.005519219674170017,-0.0005997633561491966,0.0033159907907247543,0.0008082591230049729,0.002209640573710203,-0.0003452095261309296,0.0029926258139312267,-0.004976698663085699,-0.0001658736146055162,0.003514434676617384,-0.00028527778340503573,0.0007732539088465273,0.0011581858852878213,-0.004348610527813435,0.0010348904179409146,-0.006113569252192974,-0.003046997357159853,-0.0027646494563668966,-0.003511962713673711,-0.003902073949575424,-0.0009594433940947056,-0.00046709287562407553,2.5006440409924835e-05,-0.004555647261440754,-0.0029975641518831253,-0.0009821493877097964,8.991728827822953e-05,0.0038381388876587152,-0.0019689740147441626,-0.004499934613704681,0.004059690982103348,-0.0048583392053842545,0.0005923856515437365,-0.0013715287204831839,-0.005863631144165993,-0.0006521075847558677,-0.0027614955324679613
解,0.002979966811835766,0.0008651300449855626,0.0038854707963764668,0.004380964674055576,-0.0030746653210371733,-0.0017739564646035433,-0.00209756288677454,-0.004085859749466181,0.00531888660043478,-0.0036922572180628777,0.0033294097520411015,-0.0008916628430597484,0.0001820972829591483,-0.0030237215105444193,0.003797088051214814,-2.828100696206093e-05,0.004064240492880344,-0.004473409615457058,0.0022294968366622925,-0.004925585817545652,-0.0037701386027038097,0.003979214932769537,-0.00024004449369385839,-0.004155587404966354,-0.0012479673605412245,0.0014136172831058502,0.003895894391462207,0.002177978167310357,-0.00533513817936182,-0.0005544067826122046,0.0024132514372467995,0.0015272735618054867,0.0031931372359395027,0.002946034539490938,0.003415728220716119,-0.004385076463222504,-0.004692763555794954,-0.0011984296143054962,0.0025072037242352962,-0.0045765722170472145,0.0027104353066533804,-0.00420739222317934,-0.003281482495367527,0.0029506562277674675,-0.00309909344650805,0.0003955286811105907,0.0030184315983206034,0.00038311394746415317,-0.005340232979506254,-0.004058774560689926,0.0002809232100844383,-0.004468594677746296,-0.0036841712426394224,0.0024459734559059143,0.002370443195104599,-0.005360097158700228,-0.0016541178338229656,0.0003739278472494334,0.004616667982190847,0.000652134942356497,0.0006817086832597852,0.004460130352526903,-0.0032620220445096493,0.0021793204359710217,0.0037710696924477816,0.0019635732751339674,0.004274033475667238,0.0035634052474051714,0.004764010664075613,0.0044006765820086,-0.0005886002327315509,-0.005574797745794058,0.0026128662284463644,0.0029407236725091934,0.002532142447307706,-0.0026473146863281727,-0.0012460500001907349,-0.0017252814723178744,0.0030726143158972263,-0.00515923323109746,0.003088050289079547,0.0007279679994098842,-0.0016539937350898981,0.0007321375887840986,-1.9378928755031666e-06,0.004812144674360752,0.0037469465751200914,0.0029764999635517597,-0.004918328952044249,0.00333137484267354,0.0023761317133903503,-0.00024137696891557425,0.00435194605961442,0.004370537120848894,0.0015249629504978657,-0.002113192342221737,0.0008146349573507905,0.003917627036571503,0.0005314099253155291,-0.002625866327434778
消す,-0.0006188423139974475,0.0014411022420972586,0.0013767036143690348,-0.004040171857923269,-0.0020444029942154884,0.005212192889302969,0.00010855530854314566,-0.0002678635355550796,0.004650554619729519,0.0033615396823734045,0.0019389982335269451,-0.002653973177075386,-0.0019310745410621166,0.0016209975583478808,-0.0026986091397702694,-0.0003377186949364841,-0.0020684401970356703,-0.005007531493902206,0.0022299953270703554,-0.000906817615032196,0.004124839790165424,8.709332178113982e-05,-0.004672768525779247,0.004311785567551851,0.0011483331909403205,0.0001396965963067487,-0.002513842424377799,-0.004688876215368509,0.0002909271861426532,0.0013592722825706005,0.004590003285557032,0.0011197526473551989,-0.004709915723651648,-0.0022467097733169794,-0.004044962581247091,0.003724245587363839,0.0011153294472023845,-0.0010914420709013939,0.00421213498339057,-0.0021665289532393217,0.004238947760313749,-0.0022939990740269423,-0.004803643561899662,-0.003805789165198803,-0.0004428114916663617,0.002905314089730382,-0.004871361423283815,0.0007877586176618934,0.0012618873734027147,-0.0016261694254353642,-0.004924633074551821,-0.003778960322961211,-0.0032059357035905123,-0.002701127901673317,-0.005145116709172726,-0.0021967319771647453,-0.002473621629178524,-0.004642553627490997,0.0028724046424031258,-0.0015205760719254613,0.004268860910087824,0.003984733019024134,0.0009486065828241408,0.00035789102548733354,-0.0011804403038695455,-0.003815827891230583,-0.002373003400862217,0.0017384592210873961,-0.00216222507879138,0.001495004747994244,-0.006143955979496241,0.00380090344697237,0.0011012371396645904,0.0013373057590797544,-0.00011194253602297977,0.00016202799452003092,0.002498088637366891,-0.0020411850418895483,-0.004677757155150175,0.000320672697853297,-0.0027071190997958183,0.0039358921349048615,-0.002595380414277315,-0.0002482767740730196,-0.0010595449712127447,0.00427393801510334,-0.0012912285747006536,0.0027216558810323477,-0.0009123692288994789,0.0016836872091516852,-0.002286513801664114,0.0017953886417672038,-0.0029009822756052017,-4.823441486223601e-05,0.004441245459020138,0.0034006338100880384,-0.0014176728436723351,-0.004121137782931328,-0.0034365905448794365,0.004852384328842163
れる,0.004460335709154606,-0.0021664451342076063,0.004605287220329046,0.0033438943792134523,0.0010957111371681094,0.00455445284023881,-0.004921785555779934,0.002140142722055316,-0.004305342212319374,0.0017521684058010578,-0.0033733586315065622,-0.002295102458447218,0.002864847658202052,-0.00318546942435205,-0.004198274575173855,0.0008517752285115421,0.0010986077832058072,-0.005108578596264124,0.001967358635738492,-0.0016605134587734938,-0.0007023186190053821,-0.0032032798044383526,-0.00013643997954204679,0.004727782215923071,-0.0006692169699817896,0.004498289432376623,0.004032599274069071,-0.001145905815064907,0.0017377214971929789,0.003450501011684537,-0.0015624830266460776,-0.0017674394184723496,-0.0030261820647865534,-0.0008978171390481293,-0.003483285428956151,0.004120672587305307,0.004120294004678726,-0.003878487041220069,0.0007780340383760631,-0.0037183465901762247,-0.003929222468286753,0.001156040234491229,0.0007304121972993016,0.0010890759294852614,-0.006146633066236973,0.004191744141280651,0.0004407911328598857,0.004714022856205702,-0.0034963772632181644,-0.0017878152430057526,0.0007607554434798658,-0.0004933125455863774,-0.0037640444934368134,-0.0003412308287806809,-0.0057629868388175964,0.0014626793563365936,0.0016904601361602545,0.000534094637259841,0.0038125261198729277,-0.004681416321545839,0.004120165482163429,-0.003976555075496435,-0.0031021754257380962,0.002817159052938223,0.0036942255683243275,-0.002553644124418497,0.0001031910942401737,-0.004170512780547142,-0.0036831016186624765,0.0001485072134528309,-0.004803704097867012,-0.0020654548425227404,-0.00014232553075999022,-0.0033737686462700367,-0.0034997763577848673,-0.00541183166205883,-0.005138275679200888,0.0008977687102742493,0.003790149698033929,-0.0009951394749805331,-0.004331190604716539,-0.0027777443174272776,-0.0042366343550384045,0.0016214502975344658,0.00196661869995296,-0.00012027037155348808,-0.004821778275072575,0.0015835617668926716,0.0004040976637043059,0.002442483091726899,0.003921871073544025,-0.0038773231208324432,-0.0030185587238520384,0.0016616865759715438,-0.002904224209487438,0.002775916364043951,0.0020622548181563616,-0.003436029888689518,-0.0005470325704663992,0.003326903795823455
維持,0.005161060020327568,0.002745754551142454,0.002650057664141059,-0.00022524484666064382,-0.0009129883837886155,0.003220958635210991,-0.003232889110222459,-0.00516679510474205,0.004550783894956112,-0.0014896746724843979,-0.005308166146278381,0.0021819896064698696,0.0012013122905045748,0.0038638596888631582,-0.0013682610588148236,-0.00027364096604287624,-0.0006448334897868335,-0.003670670557767153,-0.0038614084478467703,-0.00288935168646276,0.004251646343618631,-0.0034669770393520594,0.0038315667770802975,-0.003730111988261342,0.002637591678649187,-0.004870775621384382,0.0008071995107457042,-0.0018857080722227693,-0.005907104816287756,0.003333527594804764,-0.004324824083596468,0.0011891290778294206,0.002182699041441083,-0.0014634652761742473,0.0013500277418643236,0.0022019147872924805,0.0005801226361654699,-0.002167031867429614,-0.003894646419212222,-0.006675393786281347,-0.0019811911042779684,-0.003440344939008355,-0.0006554447463713586,-0.0016171432798728347,-0.0020754309371113777,0.0026387753896415234,-8.716667798580602e-05,0.004245620220899582,0.0014098912943154573,-0.000619291327893734,-0.0030539152212440968,-0.004698700737208128,-0.003408008487895131,0.003995973616838455,-0.004705597180873156,-0.0055778115056455135,0.006088508293032646,-0.004446413833647966,0.004173691384494305,0.00021696586918551475,0.0026248458307236433,0.0011251955293118954,0.004928354639559984,-0.0025655445642769337,-0.001389691955409944,0.003530169604346156,0.005887017119675875,0.0027397284284234047,-0.0035625258460640907,0.0038562032859772444,-0.0062272753566503525,-0.005881174001842737,-0.004275226499885321,0.0023570761550217867,-0.0029334111604839563,0.001179812359623611,-0.004329155199229717,-0.0050829616375267506,-0.003312652464956045,-0.002921424573287368,-0.005591918248683214,0.004055840894579887,-0.002635358367115259,-0.0030628356616944075,-0.0002271558332722634,0.0027622561901807785,-0.0015780871035531163,0.0015227535041049123,0.0026247717905789614,-0.003297204151749611,-0.0011093782959505916,-0.002510534366592765,0.0011818757047876716,-0.002674034796655178,0.0011786951217800379,0.0015006382018327713,0.003448656527325511,-0.0017060368554666638,0.00160825508646667,-0.0024044292513281107
の,0.000973645830526948,0.002683740109205246,0.005204535089433193,0.0028486703522503376,-0.0021651326678693295,-0.004472683649510145,0.000653396244160831,0.0039630369283258915,0.0022535494063049555,-0.0018104227492585778,-0.00018653541337698698,-0.0034866221249103546,-0.0036273908335715532,0.0005859805387444794,-0.0022597776260226965,0.002657949458807707,0.0033602104522287846,0.0025659804232418537,0.0023643826134502888,-0.0036473015788942575,-0.003714525606483221,-0.0023164344020187855,-0.0002862033434212208,7.469139382010326e-05,0.004396021831780672,-0.0013720920542255044,0.0011105077574029565,-0.0022629990708082914,0.002647654851898551,-0.003670920617878437,-0.002946013119071722,-0.003494950942695141,-0.0051865712739527225,0.002257418818771839,-0.006566131487488747,-0.004580080974847078,-0.003309799125418067,0.0023536933586001396,-0.0005602968740276992,-0.0048913233913481236,0.0002078558609355241,-0.004508765880018473,-0.004132401198148727,-0.0015928962966427207,-0.0012219774071127176,0.004765447229146957,0.0021951303351670504,-0.004124747589230537,-0.004567115101963282,0.002031015930697322,-0.00036973145324736834,0.004459948744624853,0.0002308214461663738,0.004066717345267534,-0.000616858946159482,-0.0033687427639961243,0.002875021193176508,0.003482385305687785,-0.002013392047956586,0.003219947451725602,0.0006078733713366091,0.0039740512147545815,-0.0013054164592176676,-0.003680166555568576,-0.004277355037629604,-0.00254699750803411,-0.0024265155661851168,0.0002928947506006807,-0.0033215589355677366,0.001702482346445322,-0.003525399137288332,-0.0025071788113564253,-0.00445654196664691,0.0037146126851439476,-0.003912375308573246,-0.006026201415807009,-0.0020212624222040176,0.0005426837597042322,-0.004992913920432329,-0.002454305300489068,0.0024415338411927223,0.0016264136647805572,0.00321011571213603,0.0012841669376939535,-0.0041582658886909485,0.0012248569400981069,-0.0027916673570871353,-0.00274625513702631,-0.003572642570361495,0.001446642098017037,-0.0042430986650288105,0.0031541327480226755,0.004118593875318766,0.004323436878621578,0.0015745180426165462,-0.00237467372789979,-0.0020510863978415728,-0.004906289745122194,-0.0034681367687880993,0.002301848726347089
